%YAML:1.0
---
opencv_ml_svm:
   format: 3
   svmType: C_SVC
   kernel:
      type: LINEAR
   C: 1.
   term_criteria: { iterations:100 }
   var_count: 1764
   class_count: 4
   class_labels: !!opencv-matrix
      rows: 4
      cols: 1
      dt: i
      data: [ 0, 1, 2, 3 ]
   sv_total: 6
   support_vectors:
      - [ -4.85056220e-03, -3.19851656e-03, 1.61209274e-02,
          -1.04047377e-02, -6.07407512e-03, -8.70824978e-03,
          2.36142427e-03, -1.25755910e-02, -7.04317354e-03,
          -3.58860684e-03, 1.36820061e-04, -3.06800962e-03,
          -6.12471253e-03, -8.09839275e-03, -6.18099608e-03,
          -7.72326626e-03, -1.07139237e-02, -6.86935894e-03,
          -1.63595583e-02, -1.02298325e-02, 5.39673632e-03,
          -6.16683811e-03, -6.68082712e-03, -1.19376872e-02,
          2.89649214e-03, -1.26971966e-02, -1.55723626e-02,
          -2.31199544e-02, 2.78533883e-02, 4.60546240e-02,
          -5.72414324e-03, -8.05572886e-03, -5.52128814e-03,
          -1.03320889e-02, -1.16570955e-02, -2.02999655e-02,
          5.09944512e-03, 1.25056307e-03, 6.37227064e-03,
          -1.09337608e-03, -3.78087210e-03, -1.41595944e-03,
          -2.60446151e-03, -5.20031340e-03, 3.48666310e-03,
          5.67300385e-03, -7.49164354e-03, -6.13996014e-03,
          -1.58116152e-03, -3.96936154e-03, -3.05384537e-03,
          -4.75305412e-03, -5.67273982e-03, 3.15303635e-03,
          -1.53826838e-02, -3.73860751e-03, 4.94720240e-04,
          -1.96574954e-03, -7.48300971e-03, -1.28662412e-03,
          -9.11285914e-03, -5.95379993e-03, -1.35670658e-02,
          1.65846590e-02, 6.56127278e-03, 9.85941198e-03,
          -3.21928016e-03, -5.41322585e-03, -2.73482874e-03,
          -8.61126464e-03, -5.74604049e-03, 2.74048392e-02,
          7.87161104e-03, -5.80579648e-03, -5.79228566e-04,
          -9.35301883e-04, -5.53869933e-04, -1.36043667e-03,
          4.63896198e-03, -3.39028286e-03, 6.30905433e-03,
          5.88128949e-03, -4.12764959e-03, -2.67511443e-03,
          -1.01523602e-03, 1.61065045e-03, -1.45394658e-03,
          7.30812689e-03, 1.02080661e-03, 5.96113456e-03, 6.02282071e-03,
          3.01805837e-03, 8.11908767e-03, -2.23932508e-03,
          -1.03286840e-03, -2.02663010e-03, 2.37316033e-03,
          -2.99575832e-03, 8.31638649e-03, 1.56580675e-02,
          4.71730391e-03, 9.82100982e-03, -2.00775289e-03,
          6.73929870e-04, -2.29226402e-03, 3.51212290e-03,
          -1.95069890e-03, 1.52956191e-02, 3.44445184e-03,
          -9.29898769e-03, 1.85115053e-03, 1.58028299e-04,
          4.72565880e-03, -2.41376911e-04, 5.99465007e-03,
          -2.54855258e-03, 3.12609761e-03, 1.41039612e-02,
          1.38143019e-03, 9.68731567e-03, 1.11733691e-03, 7.22047454e-03,
          1.14472222e-03, 7.00899051e-04, -1.37070790e-02,
          1.51656903e-02, 1.37779694e-02, -2.57989019e-03,
          6.60948223e-03, 4.62180265e-04, 9.58005153e-03,
          -9.50650603e-04, 1.46196526e-03, -5.73670585e-03,
          1.08167566e-02, 2.66266577e-02, 9.82784387e-03, 1.92471035e-02,
          1.80431106e-03, 1.12127559e-02, 5.12350001e-04,
          -3.71795060e-04, -1.75423753e-02, 2.45541930e-02,
          1.24584585e-02, 3.72746657e-03, 1.00765228e-02,
          -4.87062964e-04, 1.97275868e-03, -6.49182010e-04,
          1.19694427e-03, -5.19764470e-03, 8.40646774e-03,
          1.15854675e-02, 4.13584383e-03, 8.19060020e-03,
          -1.08619744e-03, 1.63807115e-03, -1.50277768e-03,
          -1.58991350e-03, -5.34131005e-03, 8.03019200e-03,
          1.24606993e-02, 7.60303065e-03, 1.26926573e-02,
          -1.94979110e-03, 7.23594334e-03, -9.83319129e-04,
          1.40719104e-03, -9.01134219e-03, 1.23716323e-02,
          -1.64003941e-04, -1.14487726e-02, -1.63456406e-02,
          -1.79038420e-02, -7.18210032e-03, -7.71862967e-03,
          6.85278606e-03, 2.24318937e-03, -1.15608405e-02,
          1.07127335e-02, -2.71618320e-03, -5.77815855e-03,
          -2.25987285e-03, -1.08189704e-02, -2.13231775e-03,
          -1.33154364e-02, -1.04189944e-02, 7.42257480e-03,
          1.56430863e-02, -5.40867040e-04, -9.11588036e-03,
          -2.63682776e-03, -2.53727799e-03, 3.18495277e-03,
          -3.71169415e-03, -7.93027924e-04, 1.26703605e-02,
          3.01486300e-03, -1.56323444e-02, -2.58610826e-02,
          -9.12615750e-03, -6.94840308e-03, -1.84909496e-02,
          -1.01283332e-03, -3.06425197e-03, -9.96867009e-03,
          1.52969209e-03, 1.99042726e-03, -1.40042445e-02,
          2.34140339e-03, -5.02422731e-03, 2.14455742e-03,
          3.62778129e-03, -9.69949644e-03, -5.27919317e-03,
          7.22978311e-03, -5.23624243e-03, -1.32065741e-02,
          -4.37908666e-03, -6.43654121e-03, 1.73884106e-03,
          -1.06326742e-02, -1.18714047e-03, 1.27222687e-02,
          -1.12168090e-02, -7.04270555e-03, -8.86162836e-03,
          -6.33482262e-03, -1.51127838e-02, -1.38501939e-03,
          -2.61835149e-03, -1.46696076e-03, -4.47992235e-03,
          4.06589219e-03, -7.75078684e-03, -3.45531181e-02,
          -3.08330113e-04, 5.94286015e-03, 3.88189927e-02,
          1.83031727e-02, -6.72195246e-03, 2.61639454e-03,
          -7.43687572e-03, -3.34360404e-03, -1.33277532e-02,
          -1.74580840e-03, -1.28353285e-02, 1.37928538e-02,
          -1.01656131e-02, -3.87439132e-03, -8.07833299e-03,
          -8.63982551e-03, -6.84350030e-03, 1.82243474e-02,
          2.78043165e-03, 5.99675346e-03, -5.14751347e-03,
          8.85229465e-03, -5.98016568e-03, -9.08849947e-03,
          -2.03743037e-02, -7.98607012e-04, 5.45132998e-03,
          -4.47574444e-03, 5.83363755e-04, -2.26371386e-03,
          -9.64040402e-03, -8.85945372e-03, -1.85544323e-02,
          -2.02994384e-02, -1.49622532e-02, -2.35212108e-04,
          -8.42351466e-03, -8.08984158e-04, -7.27602094e-03,
          2.57377303e-03, -9.20632109e-03, -2.11684369e-02,
          -3.33165638e-02, 1.05528580e-02, 4.54243133e-03,
          -2.51389127e-02, 8.41600448e-03, -3.57196643e-03,
          -4.78226645e-03, -1.02278460e-02, -3.20467241e-02,
          -6.34937640e-03, -8.50334589e-04, 2.74017919e-02,
          1.10447663e-03, -1.65977271e-03, -2.73135200e-04,
          -2.60354602e-03, -2.16225861e-03, -5.49950730e-03,
          -1.61699411e-02, -1.11281849e-03, 1.52385421e-02,
          -5.06173928e-05, 1.55473510e-02, -1.47001073e-03,
          -5.83220157e-04, -4.80608735e-03, -6.23826263e-03,
          -3.41530554e-02, 3.00603686e-03, 4.91179572e-03,
          -1.16481474e-02, -9.40857176e-03, 1.42186612e-03,
          -1.44832127e-03, -1.01082027e-02, -3.41253504e-02,
          -3.62594202e-02, -1.06043508e-02, -3.27385869e-03,
          7.08231144e-03, -1.88688224e-03, -3.64680705e-03,
          -9.52626672e-03, -7.40904594e-03, -3.62961031e-02,
          -1.02164764e-02, 1.16838934e-03, 1.19511019e-02,
          -1.52151659e-03, 1.03778148e-04, -1.44402019e-03,
          -4.20111511e-03, -4.50326642e-03, -6.57660095e-03,
          -3.06199165e-03, 4.18159505e-03, 3.12082339e-02,
          7.64157681e-04, -2.22436222e-03, -8.49430566e-04,
          -3.00112437e-03, -4.12704842e-03, -5.14254789e-04,
          -2.37826779e-02, 2.55315710e-04, 1.51086077e-02,
          -2.77204555e-03, -2.33657239e-03, -7.49186333e-03,
          -9.96812712e-03, -5.40089654e-03, -2.28467397e-02,
          2.25773584e-02, 2.39467826e-02, 5.04038669e-02, 8.51043407e-03,
          7.94447493e-03, -9.33502056e-03, -5.93298161e-03,
          -4.78919409e-03, 2.39301696e-02, -1.08686356e-04,
          -8.39786697e-03, 3.70267686e-03, 1.49925542e-03,
          6.75155956e-04, 8.59476859e-04, 3.29653587e-04,
          -5.73930936e-03, 2.49395892e-03, -5.66168502e-03,
          8.53456557e-03, 1.56457908e-02, 1.65004213e-03, 2.78777280e-03,
          1.44731393e-03, 1.66493293e-03, -1.52496770e-02,
          4.18113591e-03, 1.36002647e-02, 2.20566280e-02, 4.40212190e-02,
          4.70403396e-03, -7.05528492e-03, -1.43262488e-03,
          8.49554723e-04, 1.76556947e-04, 1.62761733e-02, 7.92173669e-03,
          3.12516429e-02, 4.04997803e-02, 9.55600444e-06,
          -1.17906174e-02, -2.07315083e-03, 1.12422267e-02,
          1.06072128e-02, 1.06055737e-02, -9.98472050e-03,
          7.29062269e-03, 1.23206060e-02, -2.90935586e-05,
          3.88741330e-03, 6.23368076e-04, 7.37316068e-03,
          -1.34093163e-03, -2.78930971e-03, -1.99446385e-03,
          1.61379285e-03, 4.24504094e-03, -4.09985799e-03,
          -3.72502924e-04, -2.19633360e-03, 6.75991038e-03,
          -3.94036854e-03, -7.35551678e-03, -2.54062824e-02,
          1.45154875e-02, 2.40593683e-02, -7.29208987e-04,
          -2.16291985e-03, 7.70762935e-03, 1.99182108e-02,
          2.58871000e-02, -1.30150681e-02, 3.37712653e-02,
          4.17238101e-03, 9.45994351e-03, -6.95096143e-03,
          -5.43995667e-03, 1.67549239e-03, 1.52079901e-02,
          9.84219927e-03, 3.84049714e-02, -7.37972616e-04,
          -1.20567007e-03, -2.59308796e-03, -5.65626193e-03,
          3.04045179e-03, -1.11364918e-02, 7.50696147e-03,
          2.25434499e-03, -1.78963051e-03, 2.85969907e-03,
          7.97552895e-03, 3.51871224e-03, 8.19929689e-03, 3.87406303e-03,
          -2.81342119e-03, 1.25935236e-02, 1.31407995e-02,
          5.33509301e-04, 2.07643919e-02, 1.41011819e-03, 1.07762916e-03,
          -1.06598902e-02, -7.49002490e-03, -1.57803409e-02,
          1.82162068e-04, 1.04015665e-02, 2.78829392e-02,
          -1.16287991e-02, 8.73889960e-03, 8.61709844e-03,
          8.48607812e-03, -3.80220823e-03, -1.43296234e-02,
          1.72426924e-02, 3.17885987e-02, -1.19517837e-02,
          8.08386505e-03, -1.06841326e-03, -1.18900537e-02,
          2.29847734e-03, -6.25328301e-03, -2.41629453e-03,
          -6.36864977e-04, 7.93349755e-05, 6.56475639e-03,
          5.32901287e-03, -1.86494726e-03, -1.39045827e-02,
          1.69510487e-03, -5.08044614e-03, 7.45691080e-03,
          -5.95806306e-03, -7.56238680e-03, 5.20109711e-03,
          -2.09486485e-02, -2.93458463e-03, -1.09299105e-02,
          -6.15887903e-03, -3.24505530e-02, -2.28336845e-02,
          1.21195382e-02, 2.09921189e-02, -2.02099681e-02,
          -8.60743970e-03, -3.92863294e-03, -1.43818343e-02,
          1.52988965e-03, -9.19848680e-03, -2.98163574e-03,
          -1.71095487e-02, -1.22527583e-02, -9.94937960e-03,
          -7.21508311e-03, -2.93446146e-03, 3.92199773e-03,
          -2.64659012e-03, 9.84347146e-03, -2.55623180e-03,
          6.93241786e-03, -1.88373134e-03, -9.88802314e-03,
          -1.79600623e-02, 9.39317606e-03, 5.50172757e-03,
          -2.01250110e-02, -9.03521106e-03, -1.88177510e-03,
          7.15474645e-03, -1.29731721e-03, -2.22970508e-02,
          5.43052517e-02, 3.99442995e-03, 8.53450596e-03,
          -3.47533118e-04, 1.44180804e-02, -3.97306355e-03,
          -4.45145229e-03, -1.02794683e-02, 5.04956692e-02,
          4.91512902e-02, 8.26191343e-03, 1.02803037e-02,
          -1.47940982e-02, -2.32876614e-02, -3.65530280e-03,
          -1.68138426e-02, -1.26351099e-02, 4.71864194e-02,
          -2.87296455e-02, 1.53640890e-02, 7.51737738e-03,
          -1.48114236e-02, -9.50784702e-03, 1.29175745e-03,
          -6.40485808e-03, -1.05090309e-02, -2.94485781e-02,
          -3.79761681e-02, 1.57788210e-03, 2.83212475e-02,
          4.44172695e-03, -2.18670219e-02, -1.95147912e-03,
          -1.23390872e-02, -1.32374838e-02, -4.24438752e-02,
          2.20418582e-03, 8.19087680e-03, 2.68415846e-02,
          -1.27560587e-03, -1.60572976e-02, 1.68712735e-02,
          -2.52746567e-02, -1.89887900e-02, -3.13974568e-03,
          3.67525890e-02, 3.41735780e-02, 4.98116761e-02, 1.57041177e-02,
          -3.96613367e-02, 2.17778776e-02, -2.80204546e-02,
          -1.01521062e-02, 2.75830626e-02, -5.25472313e-02,
          1.25366310e-02, 2.80204900e-02, 4.69983416e-03, 1.69656742e-02,
          -1.94092561e-03, -1.93075817e-02, -1.44689018e-02,
          -5.61159737e-02, -3.37186269e-02, 3.60051282e-02,
          7.22933039e-02, 1.62510611e-02, 4.49599065e-02,
          -1.91053702e-03, -2.19928622e-02, -1.48696145e-02,
          -4.29549366e-02, -1.75059903e-02, 1.55106951e-02,
          4.67683338e-02, 3.67014494e-04, 1.55037257e-03, 2.57673743e-03,
          -4.14300226e-02, -1.94794238e-02, -2.57971212e-02,
          -1.91231836e-02, 2.70099416e-02, 8.35661367e-02,
          1.53563647e-02, 4.97764423e-02, 8.29344336e-03,
          -2.77475733e-02, 1.11232977e-02, -1.62197184e-02,
          -2.91203093e-02, 2.33103540e-02, 4.64317612e-02,
          6.74535194e-03, 2.10589282e-02, 4.17279836e-04,
          -7.58953858e-04, 5.17595420e-03, -2.43448038e-02,
          -3.34707201e-02, 2.82760505e-02, 3.80271003e-02,
          1.52737275e-03, 1.71002466e-02, 2.16519824e-04, 1.17632691e-02,
          1.92291066e-02, -1.68188903e-02, -2.53177937e-02,
          1.07073411e-02, 5.67715652e-02, 1.00835562e-02, 4.39001732e-02,
          -5.41750388e-03, -1.67695228e-02, 1.94210093e-02,
          -2.65874490e-02, -3.07319146e-02, 1.76680349e-02,
          5.31437919e-02, 1.12364162e-02, 4.60951887e-02,
          -2.39436161e-02, 5.73398964e-03, 1.20072961e-02,
          -3.35447378e-02, -3.63739729e-02, 1.66882463e-02,
          2.68931892e-02, -3.47058260e-04, 1.29046598e-02,
          9.00745578e-03, 3.39318961e-02, 2.83513237e-02,
          -2.74175815e-02, -3.54587957e-02, 3.76731297e-03,
          8.80506728e-03, -9.49208843e-05, 2.81540174e-02,
          1.75369773e-02, 5.04204072e-02, 3.19983661e-02,
          -3.01828030e-02, -4.96696495e-02, 1.31051047e-02,
          3.77938263e-02, 7.90617801e-03, 4.42848057e-02, 2.11881939e-03,
          2.49881521e-02, 1.48727186e-02, -4.48636934e-02,
          -4.79759462e-02, 1.56536531e-02, 2.35546213e-02,
          1.17273703e-02, 4.40688469e-02, 3.41381803e-02, 4.35029380e-02,
          1.45145152e-02, -4.80601452e-02, -2.57701799e-02,
          2.96627963e-03, 6.60496019e-03, 1.06468517e-03, 6.47539087e-03,
          2.31522624e-03, 3.34810950e-02, 2.12393720e-02,
          -2.53619589e-02, -2.81246821e-03, 6.34191511e-03,
          1.02472454e-02, 1.14424089e-02, 6.85006788e-04,
          -6.35643257e-03, 1.54500762e-02, 1.98016278e-02,
          -2.11334159e-03, -3.96136567e-02, 1.95132140e-02,
          2.20777541e-02, 6.50468003e-03, 2.29383688e-02, 1.26067298e-02,
          5.60544729e-02, 1.02601768e-02, -3.81659307e-02,
          1.63200148e-03, 2.06840485e-02, 3.09223551e-02, 1.36716031e-02,
          5.19867381e-03, 8.24874360e-03, 2.40302831e-02, 1.66938584e-02,
          -1.24627014e-03, -2.32492317e-03, 1.71917898e-03,
          -2.74446071e-03, 1.23285630e-03, 6.31813519e-03,
          -3.38579575e-03, 1.60257258e-02, 1.46640651e-02,
          -1.91280455e-03, -3.40815145e-03, 1.79833069e-03,
          -4.14968655e-03, 2.19173729e-03, 5.86007396e-03,
          5.88085363e-03, 1.30789436e-03, 2.40586745e-03,
          -5.00356080e-03, 1.74052604e-02, 1.47845559e-02,
          2.50924490e-02, 2.90206191e-03, 1.78265814e-02,
          -8.83256178e-03, 3.58349308e-02, 1.86610203e-02,
          1.20674735e-02, 9.06362105e-03, 6.34421653e-04, 1.11713940e-02,
          2.31333915e-03, 4.28683162e-02, -4.67621023e-03,
          8.89516249e-03, 1.24210231e-02, 2.26851776e-02, 3.86410356e-02,
          2.36603606e-04, 6.44931523e-03, -3.00313742e-03,
          6.65034167e-03, -1.40051893e-03, -1.47801191e-02,
          -1.20002860e-02, 3.52033786e-02, 3.43786739e-02,
          6.75104209e-04, -2.98179477e-03, -6.99293800e-03,
          -2.75421776e-02, -4.30968730e-03, -2.70679072e-02,
          -2.24221982e-02, 3.28542627e-02, 4.60490324e-02,
          -1.39342749e-03, 1.24717802e-02, -2.36439938e-03,
          3.00417170e-02, 7.35831959e-03, 8.99745338e-03, 1.86664220e-02,
          4.59861308e-02, 3.77210155e-02, -1.94708409e-03,
          -3.94582516e-03, -5.06824721e-03, -1.87413990e-02,
          -1.12093994e-02, 1.00353556e-02, 1.68571007e-02,
          3.68203260e-02, 3.68073210e-02, 7.11669098e-04, 4.86874807e-04,
          -2.41686869e-03, -1.97938569e-02, 6.28589559e-03,
          -2.99910512e-02, -1.87244136e-02, 3.26910727e-02,
          3.47505175e-02, 5.95549867e-03, 2.91465633e-02, 2.14516092e-03,
          -4.06577140e-02, 1.14859715e-02, -5.64730726e-02,
          -3.09428964e-02, 2.61760931e-02, 4.09201197e-02,
          1.30742583e-05, 2.28007534e-03, -2.57559610e-03,
          -6.29306491e-03, -6.30434777e-04, -1.08337484e-03,
          -2.44384538e-03, 4.10467088e-02, 2.08189972e-02,
          -1.15387759e-03, 2.19649682e-03, -4.87185409e-03,
          -3.54797468e-02, 1.11248326e-02, -1.51717877e-02,
          -1.60540007e-02, 1.91771816e-02, 2.72043031e-02,
          6.43730676e-03, 2.77283676e-02, 3.43650434e-04, 1.45815068e-03,
          2.53482512e-03, -5.05888835e-02, -2.93308832e-02,
          2.06434671e-02, 2.24373229e-02, 5.51315490e-03, 2.95019317e-02,
          1.18862023e-03, 3.14520597e-02, -8.04979447e-03,
          -3.54806334e-02, -1.21758506e-02, 2.09124293e-02,
          1.16459178e-02, 2.23395895e-04, 1.51387637e-03,
          -3.21184314e-04, -1.07964026e-02, 1.07151782e-03,
          -4.37400825e-02, -3.06169204e-02, 1.13528622e-02,
          7.58625753e-03, 1.73909916e-03, 3.11872736e-03,
          -4.37852490e-04, -8.59766360e-03, -2.34552510e-02,
          -5.03919721e-02, -3.76253128e-02, 7.27849081e-03,
          1.38154356e-02, 6.54459838e-03, 3.69107537e-02, 3.66410613e-03,
          2.67418660e-02, -2.36402750e-02, -2.44097821e-02,
          -3.52078117e-04, 7.93393049e-03, -9.84604470e-03,
          1.62172560e-02, 5.36936708e-02, 9.94859729e-03, 4.40272428e-02,
          -3.94567028e-02, -2.76037343e-02, -2.17949264e-02,
          -1.02894027e-02, 3.35749052e-03, 9.54749808e-03,
          2.48415414e-02, -1.13738130e-03, -5.56093827e-03,
          -4.94177416e-02, -4.58477028e-02, -3.14365961e-02,
          3.35749052e-03, 9.01625026e-03, 2.80171279e-02, 4.43049148e-02,
          1.21124240e-03, 4.38299822e-03, -2.68544573e-02,
          -5.00917025e-02, -2.72320788e-02, 2.00860412e-03,
          -3.21327746e-02, 2.21660864e-02, 5.84093146e-02,
          1.09619256e-02, 4.15667817e-02, -7.78763508e-03,
          -2.71861963e-02, -2.62897126e-02, -2.93630715e-02,
          -4.09915037e-02, 3.76231372e-02, 6.31772354e-02,
          1.47699593e-02, 5.02021536e-02, 1.72883384e-02,
          -2.27021147e-02, -3.51976603e-02, -4.35884856e-02,
          3.83995660e-03, 3.62509936e-02, 5.81602640e-02, 9.88763059e-04,
          1.27999857e-02, -8.62526521e-03, -4.60677557e-02,
          -2.51523498e-02, -1.01476237e-02, -1.58915110e-02,
          5.07351607e-02, 7.40940869e-02, 5.45796426e-03, 3.06884944e-02,
          -3.79713718e-03, -3.84864844e-02, -3.10421400e-02,
          -2.08087880e-02, -3.82434838e-02, 2.68209185e-02,
          4.72675450e-02, 8.56475160e-03, 3.02911010e-02, 7.26559712e-03,
          -7.93619640e-03, -1.99628472e-02, -4.14975286e-02,
          2.57559004e-03, 2.13056915e-02, 3.68872918e-02, 6.25489466e-03,
          1.50484284e-02, -4.01692186e-03, -4.95870008e-05,
          -5.91506949e-03, -5.45488391e-03, -1.43838264e-02,
          4.54598777e-02, 6.36553168e-02, 4.42060269e-03,
          -5.80303487e-04, -1.02540583e-03, -2.84404140e-02,
          -2.78460551e-02, -2.57514715e-02, 1.28236888e-02,
          3.55905183e-02, 5.03946133e-02, 5.16173616e-03, 8.58262414e-04,
          1.32700363e-02, -1.01164700e-02, -1.70855112e-02,
          8.98759533e-03, -2.88894691e-04, 1.01651018e-02,
          2.29897760e-02, -8.72366223e-03, 2.43079681e-02,
          -2.15771552e-02, 1.57085771e-03, 6.32456620e-04,
          -5.41325193e-03, 2.59094704e-02, 1.05064397e-03,
          2.19348595e-02, 1.18263112e-03, 4.43451144e-02,
          -1.31731844e-02, 9.97525919e-03, 8.19783006e-03,
          3.52848843e-02, 4.53018351e-04, 2.06064675e-02, 3.89162265e-02,
          -1.62495114e-02, 1.80684626e-02, -1.28710433e-03,
          -1.24762552e-02, -1.48775149e-02, -1.73412461e-03,
          2.87727490e-02, 4.79907449e-03, 2.08171606e-02,
          -4.32099635e-03, 4.47768643e-02, -5.92100853e-03,
          6.47372380e-03, -1.77986192e-04, 3.05889491e-02,
          2.88483761e-02, -4.34217229e-03, 4.06300277e-03,
          -3.31439311e-03, 1.89660192e-02, 1.29551515e-02,
          2.99401395e-02, 4.63521965e-02, 3.58817391e-02, 2.38036625e-02,
          -2.85072019e-03, -5.12386207e-03, -5.13943890e-03,
          -2.51624398e-02, -1.01107843e-02, 5.34677282e-02,
          5.94455190e-02, 2.85010859e-02, -7.11728446e-03,
          -3.76097998e-03, 1.95846613e-03, -2.00691633e-03,
          -1.17457390e-03, 2.27071741e-03, 5.04584005e-03,
          1.43388612e-02, 2.69211386e-03, -1.57646425e-02,
          -1.92710757e-03, -3.44289700e-03, -4.78104502e-03,
          -3.42598907e-03, -1.83256913e-03, 4.51887548e-02,
          4.32196893e-02, -6.64514164e-03, 1.13312919e-02,
          -1.09886553e-03, 1.37052068e-03, -1.98780256e-03,
          -1.72726065e-02, 2.65835691e-03, 3.75470854e-02,
          3.80677842e-02, 1.47616193e-02, -8.90710019e-03,
          -1.72871770e-03, 8.90445057e-03, -7.95330573e-03,
          -2.25118976e-02, 1.74808148e-02, 4.24191877e-02,
          1.37715666e-02, 1.11731561e-03, -5.27259801e-03,
          -2.86771130e-04, 2.39198227e-04, -2.30672979e-03,
          -9.48490482e-03, 5.37965738e-04, 4.06080633e-02,
          2.74153892e-02, 4.95277904e-03, -2.93527381e-03,
          1.70627271e-03, 1.14255277e-02, -5.03456872e-03,
          -7.72308279e-03, 2.32775975e-02, 3.61853056e-02,
          1.66801922e-02, 6.80067297e-03, -1.07791377e-02,
          5.37286571e-04, 7.45049072e-03, -1.27449271e-03,
          8.42072128e-04, 1.19205955e-02, 2.61156727e-02, 8.55745748e-03,
          -3.20280716e-03, -3.75613617e-03, 4.29632422e-03,
          5.50101046e-04, 4.56270238e-04, 5.26945619e-03,
          -3.88532644e-03, -3.86506843e-04, -1.10393111e-02,
          -4.17466741e-03, -2.93353274e-02, 2.37525767e-03,
          1.10152205e-02, -6.68318884e-04, 2.44037844e-02,
          3.10052447e-02, 4.61986065e-02, 2.26127356e-02,
          -2.57350709e-02, -2.54508406e-02, 6.22197054e-03,
          9.06505529e-03, -5.80247033e-05, 1.78040378e-02,
          2.36812551e-02, 3.49051841e-02, 1.39629850e-02,
          -2.25968864e-02, 4.22628457e-03, 2.57702935e-02,
          1.52161922e-02, -3.54387332e-04, 5.36809862e-03,
          -1.61745772e-02, -1.19996453e-02, -1.31373350e-02,
          2.99242721e-03, 8.49266537e-03, 4.37064283e-02, 4.04681824e-02,
          -2.00478383e-03, -5.08192135e-03, -8.38280004e-03,
          -3.65821533e-02, -2.39485726e-02, 3.70733696e-03,
          -1.94150005e-02, 1.10593447e-02, 9.89986397e-03,
          -1.95037341e-04, 2.53787823e-02, 2.14953721e-02,
          2.29158737e-02, 1.47583240e-04, -2.05284599e-02,
          -2.57220175e-02, 1.11529035e-02, 1.42408898e-02,
          -1.20519241e-03, -1.53479259e-03, 1.69255631e-03,
          -6.40941458e-03, -8.43354873e-03, -3.65986675e-02,
          6.20465353e-03, 3.55653726e-02, 5.77603951e-02,
          -4.51626396e-03, -5.10820514e-03, -6.81354571e-03,
          -3.41868922e-02, -2.21536420e-02, -4.33737226e-03,
          1.99708538e-05, 4.88488935e-02, 7.67652988e-02,
          -6.27946807e-03, 1.15936026e-02, -6.98998244e-03,
          3.32820485e-03, -7.65536027e-03, -5.17723733e-04,
          -3.03138234e-02, 1.10030267e-02, 1.98732540e-02,
          -1.26998872e-03, -5.20449691e-03, -2.12971470e-03,
          -9.61121451e-03, -1.30875744e-02, -4.33068573e-02,
          -2.33792569e-02, 5.43734478e-03, 1.74102001e-02,
          -6.56197639e-03, 4.43439325e-03, -2.16365582e-03,
          -1.38286741e-05, -7.20777968e-03, -2.26144250e-02,
          5.19672083e-03, 4.24999222e-02, 5.83755076e-02,
          -1.47148371e-02, -2.24876460e-02, 4.32950124e-04,
          8.45178310e-03, -7.93013163e-03, -2.60289083e-03,
          1.56963021e-02, 4.93959300e-02, 5.56717552e-02, 4.94933035e-03,
          -8.31784308e-03, 2.53528468e-02, 3.36396886e-04,
          -1.17871482e-02, 1.13703702e-02, -7.82896671e-03,
          5.85104199e-03, 1.81711037e-02, -2.53509078e-02,
          -1.82227083e-02, -8.18198198e-04, -6.59866128e-05,
          -5.36415819e-03, -1.07844556e-02, 7.97815155e-03,
          1.85046308e-02, 1.66518670e-02, -2.16171667e-02,
          -1.61506701e-02, 1.22615155e-02, 1.74506381e-03,
          -6.42474135e-03, 8.23467877e-03, 3.03850323e-02,
          3.84196453e-02, 5.30373566e-02, -5.50005026e-03,
          8.32439028e-03, 2.55696680e-02, 1.71636499e-03,
          -6.75067864e-03, 3.09821814e-02, 2.22402420e-02,
          5.14780451e-03, 7.18665496e-03, 2.01716227e-03, 4.10565771e-02,
          2.12174561e-03, 2.26236007e-04, -1.89526728e-03,
          1.99864563e-02, 4.78193210e-03, 1.31976726e-02, 1.29324207e-02,
          -2.44268775e-02, -6.57576090e-03, 6.42042281e-03,
          -1.27750624e-03, -4.60526440e-03, 5.06478176e-03,
          2.34066742e-03, 1.82376674e-03, -7.44776102e-03,
          3.17676389e-03, 4.90485830e-03, 6.04194077e-03,
          -7.97637179e-03, -2.30363407e-03, 1.02533412e-03,
          -1.81320962e-02, -7.25736283e-03, 1.23152172e-03,
          -3.80692817e-03, -8.88844428e-04, -7.06577534e-03,
          3.45820002e-03, -7.47098774e-03, -1.86271500e-02,
          3.45724709e-02, -4.21819789e-03, -1.17215253e-02,
          -3.88597185e-03, 1.52071565e-02, -7.42899021e-04,
          1.83164906e-02, 2.38349624e-02, 2.86742635e-02,
          -4.31414740e-03, -7.27293361e-03, 3.64118419e-03,
          -5.19945100e-03, -4.12328262e-03, 2.55029998e-03,
          1.73638798e-02, -1.23719154e-02, -5.56592783e-03,
          -7.77353533e-04, -4.96605225e-03, -8.97132140e-03,
          -2.35543470e-03, 6.52655214e-03, 1.08950716e-02,
          1.98917054e-02, -5.49370423e-03, -4.58624493e-03,
          1.84996054e-02, -4.78653674e-04, -1.41399459e-03,
          -8.99384089e-04, -2.47142767e-03, 6.24900404e-03,
          2.12481003e-02, 8.73831287e-03, 1.91455055e-02, 1.85504574e-02,
          2.47678836e-03, 5.39131416e-03, -1.10234404e-02,
          -4.99092415e-03, 2.15108693e-02, 1.33701954e-02,
          -9.47819930e-03, 2.01512910e-02, 8.40092637e-03,
          -1.28855719e-03, -1.44388690e-03, -2.99753912e-04,
          -7.53668835e-04, 7.57215964e-03, 2.43957504e-03,
          -2.96831154e-03, 8.18805024e-03, 1.55463945e-02,
          1.90296175e-03, 5.99375647e-03, -8.28298565e-04,
          1.63134150e-02, 1.38639212e-02, 1.53307188e-02, 1.25618814e-03,
          1.81147307e-02, 4.27449979e-02, 4.75582387e-03, 1.26658948e-02,
          -4.70411871e-03, 1.12619642e-02, 2.57773697e-02,
          2.20855586e-02, -5.14562568e-03, 4.45044897e-02,
          -2.09407639e-02, 7.29595218e-03, 1.99460592e-02,
          -5.66852186e-03, 1.97663195e-02, 1.62227545e-02,
          3.28031518e-02, -1.92968047e-03, -2.12726127e-02,
          1.04804393e-02, 5.02659660e-03, 1.40449340e-02,
          -9.96823655e-04, 1.34013034e-02, 9.81282443e-03,
          9.50294267e-03, -1.70351865e-04, 9.33989324e-03,
          -6.94367336e-03, 6.34176331e-03, 1.75626129e-02,
          4.11880581e-04, 1.61079355e-02, 3.27732530e-03, 1.86144095e-03,
          -1.38618276e-02, -1.06410030e-02, -5.25001297e-03,
          1.51466094e-02, 3.07028648e-02, 8.30773264e-04, 3.51276882e-02,
          2.43296195e-02, 3.32383662e-02, 4.84963413e-03,
          -1.36746336e-02, -4.11673859e-02, 1.04631688e-02,
          1.85031164e-02, -1.32616551e-04, 1.09573454e-02,
          2.07187142e-03, 8.17322638e-03, -1.53534900e-04,
          -4.22882326e-02, 6.38485013e-04, 1.23846019e-02,
          2.19331402e-02, 4.71025426e-03, 2.85583772e-02, 7.91508798e-03,
          1.70566535e-04, -9.13800579e-03, -3.89963249e-03,
          -1.84376538e-02, -1.33971069e-02, 1.89526484e-03,
          3.04868026e-03, 1.60779636e-02, 3.37199937e-03, 7.02176616e-03,
          1.94268650e-03, -2.47821882e-02, -2.13404447e-02,
          4.43352340e-03, 1.35639347e-02, -1.02361036e-03,
          -2.06769072e-03, -6.56233402e-04, 8.01134109e-03,
          6.97858690e-04, -2.07146723e-02, 4.38202173e-02,
          -3.24648549e-03, 8.64689890e-03, -7.05832662e-03,
          -7.39878835e-03, -6.53275661e-03, 2.68625305e-03,
          2.17652507e-03, 4.70932201e-02, -1.08489133e-02,
          1.33444509e-03, 8.78765434e-03, 2.83013855e-04, 6.77984394e-03,
          4.27685649e-04, 8.22519697e-03, 1.35279633e-03,
          -1.49674108e-02, -1.21778687e-02, -7.71050050e-04,
          5.50895650e-03, -2.31725932e-03, 5.18518919e-03,
          -4.67943307e-03, 4.81864251e-03, 7.38970877e-04,
          -1.59155447e-02, 3.70351486e-02, 1.01078805e-02,
          6.95423177e-03, -2.23708693e-02, -1.37892142e-02,
          -9.72836930e-03, -5.30186761e-03, -2.63314624e-03,
          3.66796255e-02, 2.79053655e-02, 1.52475331e-02, 7.40948832e-03,
          -3.31454463e-02, -1.16877872e-02, 9.25276522e-03,
          -6.60626392e-04, -7.52134807e-03, 3.01282741e-02,
          -2.30133012e-02, -5.86428959e-03, -1.30880857e-04,
          -1.18932910e-02, -6.77822810e-03, -7.34598888e-03,
          -3.00154719e-03, -6.33972883e-03, -1.25895133e-02,
          1.89355237e-03, 1.58750359e-03, 1.56247790e-03,
          -1.34821481e-03, -2.06721667e-03, 5.58175892e-03,
          -5.81413042e-03, -4.17883461e-03, 6.72516692e-03,
          5.03418110e-02, 1.50679788e-02, 7.39032170e-03,
          -2.88275201e-02, -3.08672804e-02, 1.43832434e-03,
          -1.24241477e-02, -1.04431715e-02, 5.44794798e-02,
          -7.33843260e-03, -8.79566837e-03, -1.63250808e-02,
          5.27180382e-04, -1.93531939e-03, 3.02655529e-03,
          -8.63837730e-03, -5.64595917e-03, -5.63073857e-03,
          4.91913874e-03, 3.33751261e-04, 8.87771882e-03, 5.91241522e-04,
          -1.56562869e-02, 1.05651212e-03, -1.44044152e-02,
          -5.85000496e-03, 4.03763633e-03, -1.22453447e-03,
          -3.45023116e-03, -5.91471093e-04, 1.05320159e-02,
          -8.59657489e-03, 1.42156414e-03, -5.81446430e-03,
          -1.50403113e-03, -1.69801220e-04, -1.39451521e-02,
          -7.75652006e-03, 6.82705315e-03, -8.39211326e-03,
          -5.29773161e-03, -3.78998858e-03, 7.38572795e-03,
          -7.29855662e-03, -1.40227070e-02, -1.09214114e-03,
          -4.79101995e-03, -4.20737267e-03, -2.95579573e-03,
          2.14650412e-03, -2.83603859e-03, 6.84293807e-02,
          1.47015033e-02, 6.95304407e-05, -3.03891767e-03,
          -1.07011786e-02, 7.12234899e-03, -1.16941268e-02,
          -7.11156847e-03, -1.13599421e-02, 1.18688243e-02,
          -6.23023463e-03, -4.56356397e-03, 2.34214051e-04,
          -6.50157267e-03, -3.56109045e-03, -4.64172289e-03,
          -8.98104813e-03, -6.00034744e-03, -5.72915329e-03,
          -2.96828756e-03, -5.20064030e-03, 8.81308317e-03,
          -1.98494806e-03, -1.20243873e-03, -7.62413081e-04,
          -7.26480130e-03, -3.14266908e-05, 6.13597315e-03,
          -1.61957892e-03, 1.11225275e-02, 2.86405645e-02,
          1.61457388e-03, 1.11689605e-03, -1.61698100e-03,
          -4.31748154e-03, -9.07755108e-04, 1.52633209e-02,
          1.00045400e-02, 2.62580328e-02, 5.78875048e-03,
          -3.43561894e-03, -3.57769756e-03, -2.17303657e-03,
          -8.84166081e-03, -2.09606206e-03, -1.01474917e-03,
          -1.79334951e-03, 4.10304731e-03, 2.39006849e-03,
          -4.74860426e-03, -7.06523331e-03, -4.41821851e-03,
          -1.03198988e-02, -1.93311053e-03, -1.41060483e-02,
          -1.18885441e-02, 4.26912261e-03, 1.86848342e-02,
          6.59867376e-03, 1.08188167e-02, -1.36015343e-03,
          4.56844084e-03, 4.08770400e-04, 1.19956750e-02, 4.33871988e-03,
          1.82404220e-02, 1.64195094e-02, 6.20060507e-03, 1.16862077e-02,
          -4.67251608e-04, 5.65231405e-03, -6.94462578e-05,
          3.12176999e-03, -2.29861191e-03, 1.58135984e-02,
          4.23123036e-03, 1.83683308e-03, 5.69842011e-03,
          -2.51571857e-03, 5.04419513e-05, -1.78972154e-03,
          -3.50007252e-03, -8.72098841e-03, 4.29427112e-03,
          3.83622386e-03, 2.72614951e-03, 5.55613078e-03,
          -2.28296872e-03, 5.87965129e-04, -2.26228032e-03,
          -7.69645767e-03, -8.05354584e-03, 2.81653483e-03,
          1.26756029e-02, 8.38588737e-03, 1.60402060e-02, 1.52941933e-03,
          8.65576789e-03, 1.10048940e-03, -5.71665587e-04,
          4.04944032e-04, 1.20710460e-02, 1.08580217e-02,
          -1.14880863e-03, 1.09035354e-02, 2.21829372e-03,
          1.06249088e-02, 2.26317276e-03, 3.06701218e-03,
          -4.86952107e-04, 9.01724305e-03, 5.11857821e-03,
          2.11640750e-03, 6.23325631e-03, -7.57904316e-04,
          1.62422378e-03, -7.38637755e-04, -1.40648196e-03,
          -7.28442566e-03, 5.77468099e-03, 1.00054611e-02,
          -9.09852795e-03, -2.96126609e-03, 4.58814524e-04,
          1.09443418e-03, 6.75078947e-04, 1.61004614e-03,
          -1.72797823e-03, 8.19102675e-03, 8.47826712e-03,
          8.38973094e-03, 2.46059261e-02, -4.94623440e-04,
          1.43302623e-02, -9.12271498e-04, 5.06403157e-03,
          -8.60139262e-04, 8.53880681e-03, -3.12276501e-02,
          -1.71070057e-03, 6.64942898e-03, -6.41783653e-03,
          -1.58898416e-03, -2.31237486e-02, -6.51359232e-03,
          -1.78148951e-02, -3.25532444e-02, 6.67210110e-03,
          -6.68966956e-03, -4.73841233e-03, -1.95838767e-03,
          1.82174786e-03, -1.12415000e-03, 4.40289872e-03,
          4.63597447e-04, 6.38634898e-03, 5.80395665e-03,
          -6.57604821e-03, -6.37100637e-03, -2.89160293e-03,
          4.13261558e-04, -2.24548904e-03, -1.12257164e-03,
          -2.37348233e-03, 6.39260886e-03, -2.57360507e-02,
          -1.89813800e-04, 8.04400072e-03, -1.44738676e-02,
          -1.04562780e-02, -1.26691163e-02, -1.00496868e-02,
          -1.53999990e-02, -2.12870259e-02, -2.06845831e-02,
          -2.74397549e-03, 2.39732303e-03, -2.28542509e-03,
          -1.30493492e-02, 3.59488302e-03, -9.39840078e-03,
          -4.04727226e-03, -2.13644505e-02, 6.32203766e-04,
          -6.68704789e-03, -1.31377392e-02, -3.16338055e-03,
          -8.45885370e-03, -2.88691442e-03, -9.62808728e-03,
          -4.40713158e-03, 3.77509953e-03, -6.23100786e-05,
          5.31206140e-03, -3.54469451e-03, -7.91420869e-04,
          -1.00973491e-02, -6.74127950e-05, -1.16259521e-02,
          -3.50858620e-03, 1.88117602e-03, -9.33372229e-03,
          -1.45082828e-03, 2.90930402e-02, 3.65775153e-02,
          -5.59450947e-02, 2.85035837e-03, -1.16083864e-02,
          -4.20360081e-03, -1.62295010e-02, -1.03567308e-02,
          5.03143994e-03, -6.01831265e-03, 8.61496292e-03,
          -1.32124219e-02, -4.48031613e-04, -5.50195156e-03,
          3.27454135e-03, -9.69636254e-03, -5.06719155e-03,
          -1.11705158e-03, -1.05638849e-02, -1.48897781e-03,
          -1.51268514e-02, -1.01172947e-03, -1.40529172e-02,
          -1.08015090e-02, -4.31050360e-03, -1.13264807e-02,
          -4.00365156e-04, 1.12771755e-03, -9.97177791e-04,
          -1.49686988e-02, -3.78933991e-03, -8.09325278e-03,
          -9.89387464e-03, -1.23251537e-02 ]
      - [ 1.66397862e-04, 3.87014262e-03, 1.21500390e-02,
          -1.42133376e-02, 1.79348933e-03, -1.27246464e-03,
          2.45483555e-02, 9.88031738e-03, -2.16183183e-03,
          -9.80905816e-03, -5.74613130e-03, 4.14318126e-03,
          -5.63852675e-03, 1.15910806e-02, -2.20986476e-04,
          2.19343454e-02, 1.04327258e-02, -7.01976707e-03,
          6.13480899e-03, 3.41002992e-03, 1.41038038e-02,
          -6.31202059e-03, -5.83779183e-04, -1.32672554e-02,
          1.94359440e-02, 1.12438770e-02, 4.63506998e-03, 6.52077841e-03,
          2.49995179e-02, 3.53586748e-02, -4.26745182e-03,
          2.72340002e-03, -7.93999527e-03, 1.41430730e-02,
          1.14947604e-02, 2.79763504e-03, -9.62805841e-03,
          -1.62443947e-02, 4.61240020e-03, 4.16534051e-04,
          4.78030328e-04, 7.89281097e-04, 1.96339712e-02, 7.29890866e-03,
          -9.68954898e-03, -1.51214991e-02, -1.79645196e-02,
          -9.56450123e-03, -3.66032217e-03, -1.92353409e-02,
          -4.05150186e-03, 1.54061979e-02, 8.96879123e-04,
          -1.81561932e-02, 8.27113818e-03, 9.71253589e-03,
          2.35141274e-02, 2.03713775e-03, -1.01072318e-03,
          1.91728305e-03, 1.43090375e-02, 8.68421420e-03, 3.23589845e-03,
          2.07599681e-02, 3.74753261e-03, 2.70238379e-03, 6.89210254e-04,
          -2.58146524e-02, -8.38939659e-03, 2.90331477e-03,
          1.53755385e-03, 1.80190522e-02, 1.65279675e-03,
          -1.42578536e-03, 1.83035899e-02, -4.64849873e-03,
          -3.04017365e-02, -1.57272525e-03, 1.77968759e-02,
          5.26102446e-03, 1.84571580e-03, -2.77422718e-03,
          -8.33539385e-03, 1.06352763e-02, -4.20918129e-03,
          -3.74970362e-02, -2.51422217e-03, 9.21714399e-03,
          5.01848431e-03, -1.85765256e-03, 1.03411190e-02,
          1.01271058e-02, 5.66094788e-03, -1.84572942e-03,
          -4.70366329e-02, -1.01420227e-02, 8.82145390e-03,
          2.83577852e-03, 3.68976337e-03, -1.18695162e-02,
          -9.47335828e-03, -1.17214089e-02, -4.15994460e-03,
          -6.01310097e-02, -1.70811564e-02, -1.81373525e-02,
          -5.53088821e-03, -1.70064662e-02, -9.36470181e-03,
          -5.83306979e-03, 9.88926645e-03, 1.15618005e-03,
          1.24793118e-02, 5.46578434e-04, 1.72326006e-02, 7.97805190e-03,
          -6.70180144e-03, -1.10441295e-03, -7.88757019e-03,
          4.89095924e-03, 3.17812897e-03, 1.99960843e-02, 2.51692487e-03,
          1.48328086e-02, 8.61035753e-03, 1.30366161e-03,
          -1.56065729e-02, -1.58454180e-02, -1.21341906e-02,
          2.21432582e-03, -9.32694972e-03, -2.52371328e-03,
          -1.94110032e-02, -2.13775667e-03, -1.95508376e-02,
          -5.69523661e-04, -1.21888211e-02, -1.60433783e-03,
          4.92961751e-03, -3.36818746e-03, 2.24169670e-03,
          -8.26910231e-03, 6.23902446e-03, -3.12224822e-03,
          -3.27744684e-03, -6.58413349e-03, 5.05847158e-03,
          4.11883026e-04, -1.55099956e-02, -2.28030002e-03,
          8.80851992e-04, 3.02437751e-04, -1.89256738e-03,
          -2.07449635e-03, 3.41748330e-03, 1.36061748e-02,
          -1.47295825e-03, -4.59373705e-02, -4.86478955e-03,
          -4.67837090e-03, -8.74578580e-03, -4.69194818e-03,
          -1.88233005e-03, -4.99057304e-03, -1.40591078e-02,
          -1.77307345e-03, -5.94295599e-02, -5.69706131e-03,
          1.17743178e-03, 9.56281926e-03, 1.03362952e-03, 2.23592296e-02,
          3.82858142e-03, -6.47309190e-03, -2.07126397e-03,
          -7.46124312e-02, -8.07161536e-03, 1.20234955e-02,
          2.04137564e-02, 2.09891293e-02, -4.81043430e-03,
          -4.67610167e-04, 6.46679988e-03, -6.13227068e-03,
          -4.39554863e-02, -3.43499961e-03, -3.15241963e-02,
          -2.97416467e-02, -8.55196547e-03, 9.83453356e-03,
          4.50203195e-03, 1.43203721e-03, -2.95301573e-03,
          -2.40322130e-04, 6.97729224e-03, -1.17424130e-02,
          -1.72595400e-02, 1.54294271e-03, 2.30590980e-02,
          -1.45361219e-02, -2.04283949e-02, -3.34235537e-03,
          -3.70273665e-02, -4.64820163e-03, 1.78062171e-02,
          1.97100993e-02, 2.25026924e-02, 2.92969979e-02,
          -1.06667716e-03, -1.55217983e-02, 5.89788798e-03,
          -1.16527956e-02, 2.49710847e-02, 2.38133483e-02,
          8.72604270e-03, 2.38187127e-02, 5.94879035e-03, 2.63605546e-03,
          2.03665718e-03, -5.95631730e-03, -2.69556884e-02,
          2.19733617e-03, -8.68430454e-03, -1.38802286e-02,
          1.38232298e-03, -9.48252389e-04, 5.65386517e-03,
          1.33197708e-02, -1.01525895e-02, -8.31098855e-03,
          -1.58788413e-02, 7.21743214e-04, -1.09557368e-05,
          -1.09225104e-03, 2.53669433e-02, -3.75645561e-03,
          -2.11162865e-02, -4.44001192e-03, 8.43020156e-03,
          3.08705568e-02, 1.26576852e-02, 1.70422602e-03, 2.23323647e-02,
          3.59796919e-02, 1.23003852e-02, -1.75635982e-03,
          -1.89947281e-02, -1.27632497e-02, 8.04353796e-04,
          3.75987758e-04, 3.25664529e-03, 3.54610048e-02, 8.23250331e-04,
          -2.85717333e-03, 2.62951441e-02, 1.61080249e-03,
          4.60885325e-03, -1.42221712e-02, 9.08504985e-03,
          8.11641105e-03, 1.81406198e-04, -8.42717197e-03,
          1.19366320e-02, 2.59378888e-02, -2.79397145e-03,
          6.13259524e-03, -1.02449609e-02, 2.66626501e-03,
          -2.05337256e-03, -9.90038086e-03, -5.31454384e-03,
          6.10859180e-03, 7.31846876e-03, -2.29015411e-03,
          6.82175485e-03, -2.68349051e-03, 6.74344925e-03,
          9.02870577e-03, -5.97610371e-03, -1.71906967e-02,
          -2.05252622e-03, 6.12008432e-03, -1.02198031e-02,
          6.98901387e-03, -3.43048060e-03, 1.32757227e-03,
          -1.00184558e-02, -1.71906967e-02, -1.30527001e-02,
          5.38718980e-03, 5.47116585e-02, 6.24821754e-03,
          -1.31638218e-02, 4.14656737e-04, -3.74490232e-03,
          -1.61120072e-02, -1.66591797e-02, -1.84915550e-02,
          9.80152749e-03, 1.11293569e-02, 2.02510785e-03, 1.81552244e-03,
          -4.58809268e-03, -1.33736804e-02, -1.15515264e-02,
          -2.09371038e-02, -3.26365121e-02, -3.78941162e-03,
          6.23662258e-03, 7.64782215e-03, -8.57466739e-03,
          -1.24051876e-03, -2.58231163e-02, -2.53595430e-02,
          -3.28815505e-02, -4.98598516e-02, 8.16488359e-03,
          8.02186690e-03, 2.45869607e-02, 2.59705074e-03, 3.91032896e-04,
          -3.99722308e-02, -3.72952968e-02, -5.14975600e-02,
          -7.34713068e-03, 1.39624402e-02, 1.28887556e-02,
          -2.67138798e-03, -2.63975542e-02, -7.65191857e-03,
          -8.39766860e-03, -4.62023355e-03, -1.49883367e-02,
          -1.33781666e-02, 7.78908655e-03, 1.54277282e-02,
          -3.20036872e-03, -5.20970598e-02, -9.47805587e-03,
          -2.64470447e-02, -1.54158231e-02, -1.42825786e-02,
          -2.25394629e-02, 2.10496467e-02, 1.65449511e-02,
          2.64386297e-03, -2.43437081e-03, -9.92230955e-04,
          -2.29581818e-02, -1.37882531e-02, -2.86115929e-02,
          -4.79815202e-03, 2.92477384e-02, 1.49460705e-02,
          1.03511699e-02, -9.57990717e-03, -2.86737247e-03,
          -3.79111841e-02, -2.35084686e-02, -4.67396993e-03,
          -1.17190434e-02, -2.80088140e-03, -4.87396820e-03,
          1.81838160e-03, -2.49605197e-02, 1.25074713e-03,
          -1.20780561e-02, -3.56304739e-03, -1.45940771e-02,
          -2.79980944e-03, 4.84169181e-03, 3.06546455e-04,
          2.24755285e-03, -2.03633104e-02, 1.69815985e-03,
          -2.72867596e-03, 5.15977340e-03, 2.36423593e-03,
          -4.81099496e-03, 1.77025683e-02, 1.52374702e-02,
          4.60911123e-03, -1.64053347e-02, 1.73728028e-03,
          -2.34970525e-02, -9.83491633e-03, -7.60358199e-03,
          4.98517836e-03, 1.72687527e-02, 1.44262826e-02,
          -7.01056386e-04, -2.41274219e-02, 6.35302640e-05,
          -1.80900805e-02, -7.47422781e-03, 2.99308752e-03,
          -9.12090391e-03, 2.51917727e-03, -2.02885410e-03,
          -3.10320663e-03, -5.92040643e-02, -6.17788685e-03,
          4.13641799e-03, 6.13555219e-03, 5.17378002e-03, 2.58936873e-03,
          5.42725669e-04, -6.59900252e-03, -1.39117043e-03,
          -5.89860640e-02, -6.70241145e-03, 2.09986530e-02,
          1.50063420e-02, 9.34691262e-03, -9.14436672e-03,
          -3.37590021e-03, 1.00159738e-02, -6.34067692e-03,
          -4.01006639e-02, 2.24944996e-03, -3.23749632e-02,
          1.61466619e-03, 6.61546411e-03, 3.09851095e-02,
          -1.85460299e-02, -2.27085780e-02, -5.31692291e-03,
          -3.18338610e-02, 6.64588762e-03, 2.47109607e-02,
          2.31857747e-02, 3.43348980e-02, -1.98531663e-03,
          -1.00747664e-02, -2.64455825e-02, -3.44353495e-03,
          -3.73468697e-02, -1.32308239e-02, 1.32664274e-02,
          2.14833003e-02, 4.91634384e-03, 4.26404178e-03,
          -5.23208547e-03, -1.78417172e-02, 9.66668315e-03,
          -1.32305482e-02, -1.07181258e-03, 2.94713136e-02,
          2.87087373e-02, 1.02540534e-02, 7.22188596e-03,
          -3.68305929e-02, -4.32991870e-02, -1.07671842e-02,
          -2.90560480e-02, -9.11836699e-03, 1.29706422e-02,
          2.50573363e-02, 1.23993875e-02, 7.35029345e-03,
          -1.64121874e-02, -2.62762252e-02, 8.77812970e-03,
          2.70294491e-03, 9.58393048e-03, 2.25158427e-02, 4.82734665e-02,
          1.04577597e-02, 2.15743929e-02, -1.15747079e-02,
          -2.36888751e-02, -4.07772139e-03, -3.57692726e-02,
          8.65803799e-04, 1.18137226e-02, 8.45973473e-03, 2.70633791e-02,
          3.17761786e-02, -1.99440308e-03, -1.83830764e-02,
          -2.10744664e-02, -1.40876155e-02, 4.55211289e-03,
          1.07932426e-02, -7.20734987e-03, 3.20478566e-02,
          5.36711607e-03, -2.05590595e-02, -1.39160650e-02,
          6.32636715e-04, -1.53159332e-02, 6.42286288e-03,
          2.20217630e-02, 2.73957942e-02, 1.40492553e-02, 2.40581762e-02,
          -3.79220070e-03, -8.62580165e-03, -8.39434657e-03,
          -4.86809155e-03, 4.32692794e-03, 5.35486406e-03,
          3.90437129e-03, 2.50996463e-02, -1.12318816e-02,
          6.81581907e-03, 8.53052537e-04, -9.08302795e-03,
          9.15427599e-03, 7.65243836e-04, 8.50558467e-03, 5.91285247e-03,
          -1.12327952e-02, -2.03952678e-02, 3.48547497e-03,
          8.23223218e-03, -2.67277122e-03, 5.78875374e-03,
          -1.98283046e-03, 8.62824544e-03, 2.89162388e-03,
          -2.05537770e-02, 3.82423289e-02, 1.00556146e-02,
          1.38342073e-02, -2.99648684e-03, 4.97333612e-03,
          -5.72350807e-03, 5.11382474e-03, 4.71365172e-03,
          3.77525650e-02, 2.98093036e-02, 2.12176959e-03, 6.33830950e-03,
          -1.07019827e-04, -4.72392235e-03, -1.89309078e-03,
          7.86962174e-03, 6.25516940e-03, 2.98795216e-02,
          -2.97870822e-02, -8.58002866e-04, -4.18358156e-03,
          8.97465646e-03, -7.28548644e-03, -4.03016852e-03,
          -1.57878045e-02, -1.53534915e-02, -2.98942402e-02,
          -4.62313220e-02, 1.62490830e-03, -1.47818093e-04,
          1.96158197e-02, -7.45026954e-03, 5.04213036e-04,
          -3.11835129e-02, -3.01278066e-02, -4.63007651e-02,
          1.83032062e-02, -2.75811623e-03, 5.55467699e-03,
          1.24000451e-02, -4.65591066e-03, 1.14505980e-02,
          -6.76440541e-03, -4.98468848e-03, 1.93621870e-02,
          3.95750329e-02, 6.58054231e-03, 2.02877931e-02, 2.66411491e-02,
          -5.40157361e-03, 2.49125231e-02, -1.12928925e-02,
          -3.99442902e-03, 4.09570448e-02, -4.54051793e-02,
          1.39841186e-02, 2.28236243e-02, 6.74716383e-03, 1.08269285e-02,
          -7.71400402e-04, -2.56186575e-02, -1.93536095e-02,
          -4.73323911e-02, -2.87257377e-02, 2.05168501e-02,
          3.89087386e-02, 6.00247271e-03, 1.44125465e-02,
          -6.16857596e-03, -4.98729236e-02, -2.83503830e-02,
          -3.32347564e-02, 9.01469588e-03, 1.28898202e-02,
          2.76000164e-02, 7.23827677e-03, 1.36183761e-02, 7.43138557e-03,
          -1.30770775e-02, -7.73824053e-03, 1.02007044e-02,
          7.65082939e-03, 1.01174237e-02, 3.34864818e-02, 1.12621831e-02,
          8.96030571e-03, -3.13122664e-03, -3.34072374e-02,
          -5.00071910e-04, 9.72336717e-03, -2.85814758e-02,
          1.27740260e-02, 2.66461931e-02, 3.13471118e-03,
          -1.94483623e-02, -1.00905471e-03, -2.40243040e-02,
          -8.39152839e-03, -2.57458333e-02, -1.31137231e-02,
          7.11887749e-03, 8.56669340e-03, -4.81298985e-03,
          -2.22265925e-02, 2.55168346e-03, -1.96509883e-02,
          -1.09180994e-03, -3.75807309e-03, 4.90513630e-03,
          -6.27052737e-03, 2.13731378e-02, 7.84273911e-03,
          3.83984018e-03, 9.18120495e-05, -3.09933838e-03,
          1.12522691e-02, 3.37521359e-03, -5.00036497e-03,
          -9.79749113e-03, 1.64670460e-02, 1.03353811e-02,
          1.37705272e-02, 1.31439818e-02, 1.47397444e-02, 9.06981435e-03,
          -2.51085847e-03, -7.42371380e-03, -7.14574987e-03,
          -6.34218100e-03, -1.08966241e-02, -1.81222335e-02,
          2.65707425e-03, -1.25035541e-02, -4.65564523e-03,
          -3.82288662e-03, 2.87931133e-03, -1.98752079e-02,
          -2.68625002e-02, -8.91065598e-03, 5.95759694e-03,
          2.43608728e-02, 3.06286626e-02, 1.70366894e-02, 3.99337243e-03,
          -1.41056329e-02, -2.06246041e-02, -1.57301929e-02,
          -1.30717235e-03, 3.81355034e-03, 1.05949333e-02,
          9.51371342e-03, 3.97022406e-04, -8.59232899e-03,
          2.18674960e-03, 5.71805052e-03, 5.86817693e-03, 4.30367189e-03,
          1.42537262e-02, 3.40443738e-02, 1.81726590e-02,
          -5.65056317e-03, -3.83630511e-03, -1.85730290e-02,
          -2.88042985e-02, -3.02710626e-02, -8.57082102e-03,
          -1.73567983e-04, 1.03159230e-02, 1.72189251e-02,
          1.32391974e-02, -1.65779088e-02, 4.72713029e-03,
          -7.85563700e-03, -1.44845890e-02, 1.51854381e-02,
          2.04227064e-02, 1.23220589e-02, 1.86373871e-02, 2.59243455e-02,
          7.27229239e-03, -2.20866892e-02, 2.09322548e-03,
          2.28924328e-03, -1.84443034e-03, 1.64887849e-02,
          2.10747272e-02, 1.82133503e-02, -1.14740683e-02,
          -2.19958480e-02, 1.76672766e-03, 7.10896589e-03,
          1.79184917e-02, 1.65371317e-02, 3.67008597e-02, 2.03625541e-02,
          1.30073307e-02, 6.99476199e-03, -2.29052734e-03,
          1.28049392e-03, -5.80180017e-03, -9.75816697e-03,
          6.59042411e-03, 2.60397457e-02, 9.94779635e-03, 1.36569645e-02,
          1.17204962e-02, 5.07724006e-03, 6.58880966e-03, 8.32534302e-03,
          4.78598010e-03, 8.14639789e-04, 6.21695025e-03,
          -7.29536172e-04, 1.70804821e-02, 1.35491388e-02,
          7.16995914e-03, 5.58718992e-03, -1.09253032e-03,
          4.48894268e-03, 9.01658926e-03, 1.82774349e-03, 1.11243427e-02,
          1.66837368e-02, 9.61440895e-03, 2.62657501e-04, 3.20803490e-03,
          9.01714806e-03, 6.70163985e-03, 2.52736639e-03, 3.69759127e-02,
          -8.69758055e-03, 1.67835001e-02, 1.85820628e-02,
          1.17605440e-02, 4.26216424e-02, 3.46223125e-03, 1.04136476e-02,
          3.18305497e-03, -7.45526142e-03, -2.14012172e-02,
          -1.02330670e-02, -3.04872869e-03, 4.08757962e-02,
          4.14934494e-02, 1.15280374e-04, 4.38037934e-03, 5.41939517e-05,
          -2.50913166e-02, -9.11470782e-03, -9.83609539e-03,
          -3.86956381e-03, 4.23772223e-02, 4.31543253e-02,
          3.93426465e-03, 1.40769007e-02, 3.99961462e-03, 2.54566856e-02,
          -1.86685510e-02, -8.28977954e-03, 8.26382078e-03,
          4.28554937e-02, 2.63575464e-02, 1.98675878e-03, 5.05898846e-03,
          -1.96555676e-03, -1.16226310e-02, -1.55269727e-02,
          -1.31897144e-02, 1.86845195e-03, 2.68880147e-02,
          4.02423739e-02, -2.58862693e-03, 1.96443615e-03,
          1.91796373e-03, -2.02490091e-02, 5.46285883e-03,
          -1.35123199e-02, -5.43979183e-03, 4.08163369e-02,
          3.97077985e-02, -2.91162846e-03, 1.76492869e-03,
          4.24658135e-03, -2.16950607e-02, 1.78177841e-02,
          -2.48091538e-02, -1.43624293e-02, 4.10583988e-02,
          4.30134982e-02, -6.73873490e-03, -1.38361263e-03,
          -1.21532683e-03, -1.42933400e-02, 1.03305851e-03,
          -1.07083665e-02, -4.69757337e-03, 4.38167043e-02,
          3.13170701e-02, -2.63262223e-02, -3.61187197e-02,
          -7.12237833e-03, -3.43445316e-02, 3.04998271e-03,
          -4.10208777e-02, -2.19068881e-02, 3.14044282e-02,
          6.15132041e-02, 3.13431071e-03, 1.08547704e-02, 1.56268524e-03,
          -2.23821565e-03, 3.41653638e-03, -2.44380683e-02,
          -9.20868758e-03, 5.63324355e-02, 3.68360989e-02,
          -2.47197561e-02, -2.74130125e-02, -7.76603352e-03,
          -5.91127621e-03, -4.53042425e-03, -3.38994302e-02,
          6.38789556e-04, 3.42531092e-02, 4.48802635e-02,
          -1.45212431e-02, -3.11473887e-02, -1.00178719e-02,
          -3.29948366e-02, -2.30116863e-03, -3.33040282e-02,
          -2.24831179e-02, 4.07361910e-02, 2.99099609e-02,
          -3.50843780e-02, -5.57798669e-02, -2.16713846e-02,
          -5.56738488e-02, -1.16213514e-02, -5.45242243e-02,
          -2.63299868e-02, 2.79842205e-02, 1.62575040e-02,
          -1.28509514e-02, -3.86911634e-05, 2.65582022e-03,
          -7.70188821e-03, 1.91007974e-04, -5.43158408e-03,
          6.33808319e-03, 1.29861580e-02, 2.41111708e-03,
          -1.82877865e-03, 1.20571833e-02, 1.67517159e-02,
          2.36205477e-02, 1.92819699e-03, -3.68882102e-05,
          -4.67045419e-03, -5.00514325e-05, 1.56092923e-02,
          -1.32128112e-02, -1.74034089e-02, -4.68234392e-03,
          -3.93993072e-02, -5.46578132e-03, -3.08316480e-02,
          -1.38109196e-02, 1.76262744e-02, 2.03641970e-02,
          1.47901569e-02, 5.20204240e-03, 9.24904307e-04,
          -3.10733039e-02, -9.59095173e-03, -2.11800709e-02,
          -1.24551095e-02, 1.31036006e-02, -7.67809618e-03,
          1.68071559e-03, 1.63426865e-02, 8.65232944e-03,
          -6.09244080e-03, -5.36251487e-03, -2.10646614e-02,
          -2.00123396e-02, -4.18986659e-03, 2.56647007e-03,
          2.28822734e-02, 2.94135958e-02, 9.25648492e-03, 1.57076623e-02,
          7.63457362e-03, -3.97761213e-03, -1.06258122e-02,
          -2.28818040e-03, 9.37665440e-03, 2.19426639e-02,
          1.51039250e-02, -2.35176901e-03, -2.59151850e-02,
          -2.22537275e-02, -3.35216485e-02, -2.34249253e-02,
          4.47436515e-03, 8.27279221e-03, 3.05660404e-02, 3.50860059e-02,
          3.69283400e-04, -9.08470619e-03, -1.26173785e-02,
          -2.42615119e-02, -1.67871583e-02, 5.68759814e-03,
          -2.03381740e-02, 5.79839479e-03, 1.88047905e-02,
          2.72896187e-03, 1.35024432e-02, 2.52307532e-03,
          -1.35375001e-02, -1.04304962e-02, -2.27137897e-02,
          -6.27211668e-03, 1.14492001e-02, 2.17790063e-02,
          1.26336776e-02, 4.49071079e-02, 1.03241336e-02,
          -7.43901171e-03, -6.26894925e-03, -1.27551984e-02,
          -2.02335883e-02, 2.06783954e-02, 2.68043447e-02,
          4.76537831e-03, -6.75842958e-03, -1.28568271e-02,
          -2.78234445e-02, -9.94597003e-03, -2.51499061e-02,
          8.73512682e-03, 3.05170417e-02, 4.09829095e-02, 2.70785484e-02,
          3.23115364e-02, 7.59111345e-03, -9.95808002e-03,
          -4.45172423e-03, 8.90417211e-03, -4.66945348e-03,
          3.28486506e-03, 1.08412448e-02, 3.87391634e-03, 1.95859894e-02,
          -1.90304988e-03, -1.71374381e-02, -9.37678386e-03,
          -7.00911507e-03, 2.10768618e-02, 4.68317326e-03,
          1.73482019e-02, 1.13349361e-03, 4.06874642e-02,
          -1.13194268e-02, 1.98835784e-04, 5.02016442e-03,
          2.61318013e-02, -7.68076489e-03, 1.23168509e-02,
          2.65387036e-02, 9.21875518e-03, 2.54316535e-02,
          -2.40644393e-03, -1.97430216e-02, -7.45091867e-03,
          -7.03130430e-03, 1.75409075e-02, 7.75928795e-03,
          2.58457791e-02, -1.02315508e-02, 2.87576579e-02,
          -1.70611423e-02, 4.31034807e-03, 6.97723404e-03,
          1.96614582e-02, 2.23439969e-02, 2.31523928e-03, 5.32040186e-03,
          -7.80972792e-03, 2.33326796e-02, 1.36344042e-03,
          1.73034817e-02, 4.54769023e-02, 3.39763127e-02, 2.16341205e-02,
          -3.37883108e-03, -9.25126951e-03, -6.75608451e-03,
          -3.69436736e-03, -2.29580910e-03, 2.95450650e-02,
          3.97669040e-02, 2.93535870e-02, 4.93933540e-03, 2.46846932e-03,
          6.76184706e-03, -1.04126213e-02, -5.94272115e-06,
          -1.42198922e-02, 1.54244397e-02, 3.02466694e-02,
          2.08877623e-02, -3.80425225e-03, -1.04742795e-02,
          -8.92690755e-03, -4.68659867e-03, -2.37299576e-02,
          -1.49022628e-04, 3.23953703e-02, 4.19091657e-02,
          5.36586484e-03, 2.27053110e-02, -8.69394280e-03,
          -1.25030950e-02, -1.69904064e-03, -7.63927074e-03,
          6.33270573e-03, 2.20142659e-02, 2.70865597e-02, 2.74444576e-02,
          1.64967682e-02, -3.10020689e-02, -3.78945842e-02,
          -1.06938705e-02, -1.30165024e-02, 8.72026104e-03,
          4.14198171e-03, -3.37370858e-03, 2.25419030e-02,
          -4.71177418e-03, -1.14107104e-02, -1.54757956e-02,
          -2.37254798e-03, -5.66798402e-03, 2.01929715e-02,
          3.75845879e-02, 2.43921094e-02, 4.20188112e-03,
          -7.20736571e-03, -2.99521666e-02, -3.38685736e-02,
          -1.29930470e-02, -1.05703156e-02, 2.20511463e-02,
          2.17549447e-02, 5.23152808e-03, 4.09450382e-03, 3.45009230e-02,
          -1.76669862e-02, -2.83202808e-02, -9.32976138e-03,
          -6.04225695e-03, -1.44697464e-04, 6.99544558e-03,
          -1.83095841e-03, 3.03454474e-02, 2.08354481e-02,
          -1.64726358e-02, -3.58758979e-02, -7.75978714e-03,
          -2.58153137e-02, -5.47423121e-03, -3.37770283e-02,
          -3.21245529e-02, 1.80783570e-02, -6.26271777e-03,
          -1.91523507e-02, -2.39701811e-02, -4.74955374e-03,
          1.27147660e-02, 1.93265975e-02, 3.48273665e-02, 7.79625634e-03,
          -5.29651437e-03, -6.85391296e-03, -3.02775670e-02,
          -3.98673378e-02, -2.33340217e-03, -1.25365204e-03,
          1.22046135e-02, -5.14556980e-03, -1.10447388e-02,
          -6.70676399e-03, 1.65179372e-02, 7.08257360e-03,
          -8.60080495e-03, -4.51064529e-03, -2.55003329e-02,
          -5.61558688e-03, -3.14146504e-02, -2.73708776e-02,
          1.53982164e-02, 2.32749972e-02, 1.16000092e-02, 5.41974604e-03,
          -7.08790682e-03, -2.99418345e-02, -1.00590764e-02,
          -1.72548648e-02, -1.12734577e-02, 1.99310947e-02,
          -8.67339503e-03, -7.15898676e-03, -2.18230356e-02,
          -4.85574733e-03, 7.88135268e-03, 1.34368017e-02,
          -3.17422091e-03, -1.16938073e-02, -8.70278012e-03,
          -8.82876012e-03, -1.39935296e-02, -1.65095720e-02,
          -6.75352803e-03, -1.11220777e-02, -4.27653454e-03,
          -1.96581520e-02, -1.12950113e-02, -1.44155817e-02,
          2.12980993e-02, 4.54790192e-03, 2.58706464e-03,
          -9.64398030e-03, -2.64160670e-02, -9.94925667e-03,
          -6.66248007e-03, -4.79740836e-03, 9.42390878e-03,
          1.64006315e-02, 2.94091292e-02, 4.19325195e-02,
          -5.06862905e-03, 1.57650991e-03, -8.92151706e-03,
          -1.60671317e-03, -2.52847583e-03, 1.73874423e-02,
          -7.72920297e-03, -1.81119554e-02, -1.77869052e-02,
          -7.17305019e-03, -3.18391062e-02, -5.19678928e-03,
          -1.42349843e-02, -1.17862700e-02, -1.51720056e-02,
          2.37284010e-04, -3.79706034e-03, 5.45806903e-03,
          -6.90437760e-03, -1.33693162e-02, -8.37355200e-03,
          -1.61466282e-02, -1.25685772e-02, 3.21101118e-03,
          -1.09540829e-02, 3.18007767e-02, 4.08023745e-02,
          -1.02843868e-03, -7.90345762e-03, -1.32851843e-02,
          -2.51216609e-02, -8.69192462e-03, -1.63928233e-02,
          7.70173268e-03, 4.60157208e-02, 6.22256771e-02, 2.79396102e-02,
          2.44930517e-02, 4.97078523e-03, -4.27489122e-03,
          -2.04429263e-03, 4.90939757e-03, -2.46256497e-02,
          1.23695973e-02, 2.09581051e-02, -9.03654471e-03,
          -3.12079377e-02, -1.58896353e-02, -3.62878144e-02,
          -1.53906755e-02, -2.79209148e-02, -1.81959220e-03,
          3.02547310e-02, 2.78151967e-02, 8.86871759e-03, 1.15857646e-02,
          5.58831636e-03, -2.12514331e-03, -6.01066602e-03,
          -1.69892737e-03, 4.70123580e-03, 1.64506156e-02,
          3.90180945e-02, 7.79471733e-03, 1.49682555e-02, 1.02545591e-02,
          -2.42642662e-03, 6.73037721e-04, 3.56685836e-03,
          1.40270172e-02, 9.23256297e-03, 1.65937487e-02,
          -1.00434758e-02, 3.73908728e-02, -5.77616412e-03,
          9.29548685e-03, 1.19278254e-02, 1.38193090e-02,
          -8.75349808e-03, 1.30233346e-02, 8.14839825e-03,
          -3.79201118e-03, -8.62555485e-03, 1.95756461e-03,
          -4.02792217e-03, -9.02461819e-03, -9.01807379e-03,
          1.56902417e-03, 1.28775220e-02, 3.06881056e-03,
          -1.03953602e-02, 2.13166438e-02, -4.78902413e-03,
          2.69461330e-03, 6.47693500e-03, 6.67137501e-04, 7.96763506e-03,
          4.61134780e-03, 9.90592036e-03, -1.40325818e-03,
          2.47445685e-04, -1.42608956e-02, 1.42243039e-02,
          1.16226664e-02, 1.03543540e-02, 2.09593363e-02,
          -5.14629413e-04, -5.19067934e-03, 2.57244357e-03,
          2.54762988e-03, 1.65181458e-02, 1.94218997e-02, 1.64067559e-02,
          1.36066582e-02, -1.73607434e-03, 6.19341712e-03,
          1.19050555e-02, -8.32055975e-03, -1.13430759e-02,
          -6.25118567e-03, 2.43309829e-02, -4.06991132e-03,
          -1.74893113e-03, 1.85581518e-03, 4.88908868e-03,
          1.17788874e-02, -4.25199093e-03, 1.34140197e-02,
          1.11665903e-02, 3.56190875e-02, 1.09545542e-02, 1.95750035e-03,
          1.51584828e-02, -6.71531307e-03, -1.45047717e-02,
          -1.97027926e-03, 3.82531155e-03, 1.02974530e-02,
          1.62296407e-02, 7.67287333e-03, 1.50013240e-02,
          -8.57862923e-03, -7.32502900e-03, -1.61202308e-02,
          -8.49637389e-03, 8.76355544e-03, 2.72847321e-02,
          1.06416708e-02, 1.63335179e-03, -1.81424897e-03,
          7.91897159e-03, -5.62456902e-04, 5.04812167e-04,
          -2.56990292e-03, -7.65175978e-03, -3.70165519e-03,
          1.41941179e-02, 4.75674635e-03, 7.57480599e-03,
          -7.12421117e-03, -1.30951973e-02, -8.55931174e-03,
          -8.65257345e-03, 1.35569647e-02, 1.76636712e-03,
          -5.81097137e-03, 1.18598808e-02, -3.75300273e-03,
          1.65100582e-02, -2.26893323e-03, 8.20534211e-03,
          -2.80239922e-03, 1.76012423e-02, 3.04070823e-02,
          1.65576097e-02, 2.03005294e-03, 1.86107401e-02,
          -2.20731646e-02, -1.74770299e-02, -1.06854662e-02,
          -7.10091274e-03, 6.06053462e-03, 1.25017809e-02,
          1.28441807e-02, -1.14021385e-02, -2.08228063e-02,
          3.20144929e-03, -4.35103429e-03, 9.56977718e-03,
          -5.99131500e-03, 7.91505165e-03, 1.12633761e-02,
          1.09838815e-02, 6.29828218e-03, 6.15765667e-03,
          -3.05417813e-02, -7.50634493e-03, -2.05555325e-03,
          -1.07262963e-02, -8.94529466e-03, -3.78227513e-03,
          -1.19131766e-02, -2.08425131e-02, -3.14043835e-02,
          -2.51126699e-02, -3.78313218e-03, 1.27271179e-03,
          -7.97893037e-04, 3.06705646e-02, 2.27710381e-02,
          3.29212062e-02, 5.29003656e-03, -2.86178570e-02,
          -4.69369292e-02, -1.21702747e-02, -2.32569454e-03,
          -1.94473553e-03, 2.24278141e-02, 2.19403324e-03,
          2.83450889e-03, -1.87005941e-03, -4.90195230e-02,
          -3.10741141e-02, 6.83112349e-03, 1.17547242e-02,
          2.07183510e-03, 2.16540098e-02, 9.95253772e-03, 9.52517521e-03,
          -6.96269190e-03, -2.97289845e-02, -3.64581831e-02,
          4.76883771e-03, 1.22367935e-02, 2.63478141e-03, 1.73105914e-02,
          3.83251673e-03, 7.38253770e-03, 2.70557066e-04,
          -3.59404758e-02, -1.63615290e-02, -1.40442783e-02,
          -1.92465801e-02, -5.88481408e-03, -1.81239117e-02,
          -6.08241418e-03, -6.06200704e-03, -6.34239661e-03,
          -1.29635939e-02, 4.00626287e-02, 3.21048603e-04,
          3.97177320e-03, -6.75914250e-03, -1.67955048e-02,
          -6.14681654e-03, -1.37268491e-02, -6.44986005e-03,
          4.23191898e-02, -3.10943834e-02, -2.48782220e-04,
          1.30368629e-02, -4.42680018e-03, -1.80444140e-02,
          -4.81529394e-03, -5.28720999e-03, -6.66952413e-03,
          -3.02362647e-02, -8.19684751e-03, -2.40535592e-03,
          -5.80097723e-04, -8.41924455e-03, -1.52498670e-02,
          -5.93845733e-03, -8.84073693e-03, -7.73685612e-03,
          -7.86844734e-03, 1.36414021e-02, 2.28696000e-02,
          2.71017198e-02, -1.01172412e-02, -3.40114646e-02,
          -1.06495172e-02, -3.38175334e-02, -1.40492870e-02,
          1.57176629e-02, 1.72305927e-02, 3.20678651e-02, 2.83010807e-02,
          2.45141145e-03, -2.66706429e-05, 5.00235707e-03,
          -6.47682371e-03, -1.04993889e-02, 1.55235166e-02,
          -4.00730819e-02, -5.99652063e-03, 5.45563595e-03,
          -1.38403866e-02, -3.39838490e-02, -7.64414528e-03,
          -3.15099508e-02, -2.33335495e-02, -3.86524759e-02,
          -8.61453637e-03, 1.27051827e-02, 2.37280577e-02,
          8.94986559e-03, -1.16826361e-02, 2.43875920e-03,
          -1.05277980e-02, -7.08068954e-03, -7.64077622e-03,
          2.21633818e-02, 2.24273279e-02, 1.83665268e-02,
          -2.34783464e-03, -1.20798443e-02, 2.73438613e-03,
          -2.85254326e-03, -5.86662814e-03, 2.11252179e-02,
          1.05966590e-02, 5.99422678e-03, 2.40114378e-03,
          -1.00362496e-02, 1.08158607e-02, -1.08108087e-03,
          1.42988106e-02, 8.95633176e-03, 1.02962237e-02,
          -8.97565205e-03, 7.23472936e-03, 9.35658067e-03,
          2.37487326e-03, -5.12449816e-02, 1.48623809e-03,
          -6.75878534e-03, -6.36324519e-04, -1.38812633e-02,
          3.39634623e-03, -1.39501193e-04, 1.37313157e-02,
          1.65974151e-03, -9.78401024e-03, 5.68919291e-04,
          1.18971597e-02, 1.30179347e-02, 2.76549114e-03,
          -3.11589777e-03, 9.61468741e-03, 2.15932336e-02,
          -8.65276717e-03, -4.49081743e-03, -1.10035017e-02,
          2.41195448e-02, 7.55007891e-03, -1.99673930e-03,
          1.45158395e-02, 1.06295859e-02, 2.10868437e-02,
          -4.41931188e-03, 1.31367482e-02, -1.28613524e-02,
          6.24202192e-02, 2.51330137e-02, 1.73553172e-02,
          -1.58155314e-03, 1.01828128e-02, 2.32961960e-02,
          -8.14620219e-03, -2.77669309e-03, -1.11325923e-02,
          2.31990628e-02, 8.93438794e-03, -6.05471956e-04,
          -5.08466177e-03, 1.27024567e-02, 2.28572506e-02,
          -3.80310463e-03, -8.51930678e-03, -7.60455849e-03,
          1.47181796e-02, 9.21442825e-03, -8.00402556e-03,
          2.17435881e-02, 4.26082918e-03, 1.27529902e-02,
          -1.31340208e-03, -2.29496043e-03, -7.31006265e-03,
          1.80513915e-02, 8.79821554e-03, 2.30827220e-02, 3.03864870e-02,
          -4.62447293e-03, 1.91646582e-03, -7.02894060e-03,
          -4.54449235e-03, -1.28222518e-02, 8.70672148e-03,
          1.11085409e-02, 3.13137658e-02, -1.17759965e-02,
          7.96782877e-03, 1.99715849e-02, 4.79670780e-05, 2.01511686e-03,
          -6.23232778e-03, 1.16968947e-02, -6.76208874e-04,
          -1.16201313e-02, -2.24692468e-02, 1.80267915e-03,
          8.29508249e-03, -8.06910731e-03, -3.18525272e-04,
          -1.82985216e-02, -1.81947984e-02, -2.73652133e-02,
          -2.38532238e-02, 1.03926165e-02, -3.24441353e-03,
          4.18554433e-03, -4.47378727e-03, -6.71738107e-03,
          -7.42583442e-03, 1.65237859e-02, 9.23476927e-03,
          1.46532161e-02, -3.69019844e-02, -3.63146514e-03,
          -1.12928376e-02, -9.12583247e-03, -3.48423161e-02,
          -1.19571760e-02, -1.06786443e-02, -1.56550650e-02,
          -3.97466384e-02, -8.64992943e-03, 4.82671987e-03,
          1.39879072e-02, -5.95889427e-03, 2.02685758e-03,
          -1.23267416e-02, -3.33524193e-03, -1.39498273e-02,
          -7.37702847e-03, -7.13097025e-03, 3.04306461e-03,
          2.72313459e-03, -4.12363932e-03, -1.70517992e-02,
          -7.29399454e-03, -1.64104998e-02, -1.41716572e-02,
          -8.59949831e-03, -5.45463599e-02, 6.46598637e-03,
          9.42052994e-03, -2.61608232e-03, -8.13062675e-03,
          -2.43183644e-03, -9.40949842e-03, -3.04136053e-03,
          -5.49753681e-02, -1.62797440e-02, 1.21578667e-02,
          2.45592184e-02, 2.83274264e-03, 4.99901734e-03, 5.44484123e-04,
          1.82030431e-03, -9.42557701e-04, -1.65726580e-02,
          -8.31539556e-03, 4.48521646e-03, 8.47208872e-03,
          -9.95929004e-04, -7.07780151e-03, -6.49601279e-04,
          5.84485242e-04, -6.77002221e-03, -1.04912883e-02,
          -7.93729722e-03, 7.74809066e-03, 1.40613196e-02,
          2.93286680e-03, -3.13239358e-03, 2.73303990e-03,
          1.59883965e-02, 7.54923653e-03, -9.56350751e-03,
          -1.90422218e-02, 1.76655557e-02, 3.98832634e-02,
          -2.61154864e-03, -1.10573070e-02, -7.13233044e-03,
          -1.09739378e-02, -1.34233795e-02, -1.90528687e-02,
          -2.87324227e-02, 7.24873645e-03, 3.90818994e-03,
          -1.19729666e-02, -2.74455547e-02, -1.16613824e-02,
          -1.82201453e-02, -3.03800218e-02, -2.87591834e-02,
          -1.85481422e-02, 4.66346042e-03, 9.31496546e-03,
          -4.81234537e-03, -7.87766837e-03, -4.11065109e-03,
          1.32551268e-02, 4.01980057e-03, -1.92419644e-02,
          -2.08915435e-02, -3.66906449e-03, -8.38511623e-03,
          -1.14961695e-02, -8.32999311e-03, -6.33893209e-03,
          2.28205882e-03, -9.62493999e-04, -1.97480544e-02,
          -2.90538296e-02, 1.07302796e-02, 9.55270883e-03,
          -1.42836226e-02, -2.15884671e-02, -9.64916125e-03,
          -1.49599686e-02, -1.36495028e-02, -2.75958925e-02,
          -2.27816291e-02, 1.09457057e-02, 1.00345248e-02,
          8.41796584e-03, -2.64791609e-03, 5.10498090e-03,
          3.73658934e-03, 5.88166527e-03, -3.16621214e-02,
          -3.78707089e-02, -1.54491030e-02, -2.60792300e-02,
          -1.32870516e-02, -8.17042869e-03, -6.64148573e-03,
          6.09192578e-03, 2.27011042e-03, -3.21606845e-02,
          -3.41707133e-02, 6.63569942e-03, 6.33377116e-03,
          -9.44141299e-04, 4.14151046e-03, 3.19110020e-03,
          1.73687059e-02, 1.51585452e-02, -2.98475474e-02,
          -2.34981328e-02, 5.74594550e-03, 9.41037666e-03,
          2.56672166e-02, -6.23633824e-02, 4.69415775e-03,
          3.52800335e-03, 5.18169673e-03, -3.40560898e-02,
          1.67046185e-03, 1.87920853e-02, 1.07458225e-02, 1.73298991e-03,
          -1.72435585e-02, -1.33179245e-03, 1.48802195e-02,
          2.00927220e-02, 1.45998248e-03, -3.47143635e-02,
          -1.14930572e-03, -5.90641284e-04, -4.08312585e-03,
          -3.17987651e-02, 5.19487658e-04, 1.29388841e-02,
          7.83550367e-03, -3.08899675e-02, -1.39249396e-02,
          1.13786096e-02, 1.57983098e-02, -1.26494905e-02,
          -1.17436629e-02, -6.68670563e-03, 2.05336101e-02,
          9.72864684e-03, -1.25915166e-02 ]
      - [ 4.42424836e-03, 8.75936542e-03, 1.90135054e-02, 1.15674906e-04,
          -2.42095301e-03, -3.57176614e-04, 1.87994931e-02,
          7.86507409e-03, 3.75538878e-03, 3.45963286e-03, 2.29994627e-03,
          5.73666906e-03, 3.66867753e-05, -5.88384271e-03,
          -4.29516920e-04, 1.92502327e-02, 9.22439713e-03,
          4.98051988e-03, 3.74891446e-03, 1.04200654e-03, 3.25124408e-03,
          -2.46442901e-03, -5.03408350e-03, -1.68397033e-03,
          1.69362873e-02, 6.65052934e-03, 3.56580084e-03,
          -1.40479598e-02, 1.90069955e-02, 4.29855175e-02,
          -3.21384966e-02, -1.70384739e-02, -5.96195273e-03,
          1.05710272e-02, 6.51676347e-03, 3.04885465e-03,
          -1.95257773e-03, -2.66821939e-03, 8.66209809e-03,
          -4.05572267e-04, -1.02712624e-02, 7.16554001e-04,
          1.92053895e-02, 7.82058574e-03, 3.31064407e-03,
          -1.22404164e-02, -5.83745772e-03, 6.48569781e-04,
          -4.74239700e-03, 6.60171732e-03, -3.74882045e-04,
          1.77512038e-02, 5.08088246e-03, 3.42513609e-04,
          -1.68706905e-02, -1.32326307e-02, 1.35921650e-02,
          -1.19956657e-02, -1.16750179e-02, -4.75454517e-03,
          1.07362261e-02, 2.54918449e-03, -5.14597399e-03,
          -8.87177885e-03, -1.34416134e-03, 1.08721647e-02,
          -1.70365497e-02, 3.25206958e-04, -1.61984973e-02,
          3.81259830e-04, -1.00044748e-02, -2.69426452e-03,
          -1.16844121e-02, -7.36130076e-03, 1.19307742e-03,
          -4.90616960e-03, 2.26136530e-04, -1.62257650e-03,
          1.66306645e-02, 2.99508171e-03, -6.80294679e-03,
          6.45568362e-03, 5.02724259e-04, 1.61049496e-02,
          -3.22027365e-03, -1.21968835e-04, -2.76170624e-03,
          1.22439694e-02, 4.29643784e-04, 4.62272065e-03,
          -5.37754223e-03, 1.49584124e-02, 2.16641817e-02,
          -1.39957955e-02, -9.59077571e-03, -1.34069826e-02,
          2.47974950e-03, -7.08798878e-03, -7.27827474e-03,
          4.75069741e-03, 7.25297490e-03, 9.26505495e-03,
          -1.15438588e-02, -1.04213739e-02, -1.55327423e-02,
          3.58612766e-03, -4.09742817e-03, 5.14382031e-03,
          1.47588514e-02, -2.42504408e-03, 1.37705468e-02,
          -2.48260656e-03, -9.24352207e-04, -2.98353913e-03,
          4.21933085e-03, -3.10208299e-03, 1.38929943e-02,
          2.59510856e-02, -1.86961854e-03, 1.34914368e-02,
          -2.26119347e-03, 1.10391784e-03, -1.99185160e-04,
          4.39799996e-03, -9.39418748e-03, 2.75943018e-02,
          -3.04109813e-03, -5.01546031e-03, 2.15105666e-03,
          -8.73437338e-03, -3.64833511e-03, -1.12765804e-02,
          -2.15042732e-03, -9.23167565e-04, -3.59285413e-03,
          9.61046084e-04, 1.60741794e-03, 1.16643636e-02,
          -1.07555874e-02, -2.68783839e-03, -5.34049980e-03,
          -1.46839619e-02, -1.03069171e-02, -7.52902182e-04,
          1.52198430e-02, 1.78577926e-03, 1.66425351e-02,
          -3.25250579e-03, -1.08433794e-03, -1.93298748e-03,
          5.35944430e-03, -7.80426990e-03, 1.77057162e-02,
          7.35267112e-03, 7.38111697e-03, 1.66760180e-02,
          -1.51287706e-03, 1.95286993e-03, -7.66264508e-03,
          2.00938247e-03, -8.32842756e-03, 4.64243535e-03,
          -4.51064948e-03, -4.56231763e-04, 1.29825147e-02,
          -1.22226272e-02, -1.90017000e-03, -6.13259431e-03,
          2.50673294e-03, -9.26187076e-03, -3.40651767e-03,
          -8.65024631e-04, -2.91923439e-04, 1.09418593e-02,
          -7.38039333e-03, -6.15019957e-03, -1.46707492e-02,
          8.43871571e-03, 5.03961928e-03, -4.92256694e-03,
          7.89896306e-03, 2.64172582e-03, 6.85424916e-03,
          -4.20163327e-04, -6.72046514e-03, -6.48833672e-03,
          -5.42493211e-03, -1.40600065e-02, -5.60563058e-03,
          1.71172451e-02, 6.58775028e-03, 3.95266199e-03,
          -1.82167452e-03, -1.58827212e-02, 3.13473260e-03,
          7.25942245e-03, 5.39074943e-04, 6.79439027e-03,
          -1.56199643e-02, -9.16469190e-03, 1.99741125e-03,
          -6.15348388e-03, -9.16411285e-04, -1.75735783e-02,
          -1.05732761e-03, -4.43605473e-04, -2.40225941e-02,
          1.44948661e-02, 6.74125412e-03, 5.61270537e-03, 1.77923078e-03,
          -1.76219158e-02, 6.03704108e-03, 3.11921854e-02,
          -1.14300067e-03, -7.02795945e-03, 1.16945449e-02,
          3.87306069e-03, 3.89541639e-03, -2.89502344e-03,
          -1.85441189e-02, 2.73488625e-03, 6.41692663e-03,
          4.35003918e-03, 7.26326602e-03, -1.53394206e-03,
          2.37154192e-03, 7.18151918e-03, -2.86462507e-03,
          -1.32849840e-02, -1.83526674e-04, 8.00690148e-03,
          5.57685550e-03, -1.58249983e-04, 2.19939481e-02,
          9.18665435e-03, 3.45174689e-03, -3.68425227e-03,
          2.54575927e-02, 3.45509350e-02, 2.71661170e-02,
          -1.58963539e-02, 3.33559746e-03, 2.39894241e-02,
          6.92153210e-03, 2.52946909e-03, -2.56734877e-03,
          -5.65325376e-03, 8.97305924e-03, 6.88968878e-03,
          4.51720785e-03, 2.30076034e-02, 1.71209383e-03,
          -7.08525721e-03, 3.57662188e-03, -9.00382269e-03,
          -4.25974932e-03, -2.43953872e-03, 1.76116992e-02,
          3.95670766e-03, 1.85608561e-03, -7.95936119e-03,
          -1.70757324e-02, -1.63494330e-03, -2.14263182e-02,
          -7.45912036e-03, -8.01398885e-03, 1.33513380e-02,
          2.84138112e-03, -3.99254728e-03, -9.36664827e-03,
          -3.26959379e-02, -4.86275144e-02, -2.34378316e-02,
          -1.56352650e-02, -3.58317047e-03, 1.89413503e-02,
          8.73849448e-03, -8.43255222e-03, -4.56162058e-02,
          -5.36773633e-03, -5.78575814e-03, -2.00525243e-02,
          2.72208247e-02, -1.50274439e-02, 1.42633049e-02,
          6.57114340e-03, -3.23984623e-02, -1.74440220e-02,
          -1.32425698e-02, 1.52586093e-02, -1.13588665e-02,
          -1.85092818e-02, -1.01267388e-02, -1.24939834e-03,
          -6.15236675e-03, -1.29217664e-02, -1.81052759e-02,
          1.19644338e-02, 2.26695389e-02, -1.13563761e-02,
          1.01087401e-02, -1.84214935e-02, -6.96437387e-03,
          -1.53291197e-02, -2.00421866e-02, -3.62446792e-02,
          -2.90922681e-03, 1.61114137e-03, -5.61280502e-03,
          2.27664434e-03, -1.01100458e-02, 2.70397728e-03,
          -4.34991671e-03, -3.03178318e-02, -4.59938794e-02,
          -1.28358211e-02, -4.36898693e-03, 4.20440454e-03,
          2.52124611e-02, -1.44583341e-02, -1.75451189e-02,
          -1.66114159e-02, -4.81900796e-02, 1.56832358e-03,
          1.84429903e-02, 3.32202911e-02, -9.69109964e-03,
          -1.18308626e-02, -1.47008365e-02, -1.13583030e-02,
          -1.22978650e-02, -2.34771566e-03, 1.30383829e-02,
          1.50095308e-02, 4.14912254e-02, -8.07685498e-03,
          -1.71567909e-02, -1.45231755e-02, -1.21823512e-02,
          -1.09066749e-02, 1.29758334e-02, -4.21401151e-02,
          -1.52930850e-02, -5.11539262e-03, -9.97711346e-03,
          1.13595952e-03, -1.41128385e-02, -2.34283451e-02,
          -2.24550720e-02, -4.12013307e-02, -1.13614118e-02,
          -1.98609615e-03, 7.32248230e-03, -6.66367728e-03,
          1.38331251e-03, -1.48718311e-02, -3.66841219e-02,
          -3.30468193e-02, -1.10630700e-02, 3.71170556e-03,
          -6.50245976e-03, -1.83487646e-04, -7.92711321e-03,
          -1.12507930e-02, -1.07938359e-02, -7.25553930e-03,
          -6.62710750e-03, 3.44427023e-03, -4.62494791e-04,
          -2.48974632e-03, 1.93796994e-03, -8.16116203e-03,
          -9.22698807e-03, -5.96027123e-03, -9.21152357e-04,
          4.70713057e-05, 7.26630632e-03, -7.14691170e-03,
          1.08414982e-02, 1.37521354e-02, -5.37520181e-03,
          -2.90391967e-03, -1.30573576e-02, -2.57619806e-02,
          -2.59713046e-02, -1.34764062e-02, 3.85311618e-03,
          2.81362757e-02, 2.99710762e-02, -4.45511751e-03,
          -4.40571178e-03, -5.44940075e-03, -2.42828950e-02,
          -1.78582873e-02, 8.71625170e-03, -9.78039112e-03,
          -4.41760384e-03, 2.24529300e-03, -9.81425401e-03,
          -7.48265069e-03, -5.33438427e-03, 5.57800848e-03,
          -1.74685614e-03, 5.01404889e-03, -6.01387583e-03,
          -5.83979115e-03, 1.62113237e-03, -1.04743410e-02,
          -1.94248054e-02, -1.24225523e-02, 3.32010351e-03,
          -1.11492202e-02, -3.10469791e-03, -2.35445313e-02,
          8.89107864e-03, 9.16698482e-03, -8.15485325e-03,
          -3.76745197e-03, 5.95178315e-03, -1.19108232e-02,
          -1.16055028e-03, -7.08715292e-03, 2.34144125e-02,
          3.00959963e-03, 5.95549820e-03, -1.12843569e-02,
          -7.41018308e-03, -1.69214781e-03, -1.17004309e-02,
          -1.92400645e-02, 2.71275435e-02, -1.52483024e-02,
          -7.97517691e-03, -2.63936166e-03, -1.11525292e-02,
          -9.22979228e-03, -1.36289215e-02, 1.90700404e-03,
          -3.14677693e-03, -1.90198645e-02, 2.12206366e-03,
          5.91857126e-03, 8.08749814e-03, 1.73711986e-03,
          -2.08875109e-02, -8.92609172e-03, 1.62600949e-02,
          3.98778869e-03, -1.06817577e-02, 9.12365317e-03,
          -2.09542271e-03, 1.63068681e-03, -1.21105472e-02,
          -1.09448833e-02, -2.57163979e-02, -2.13396419e-02,
          -1.64262373e-02, 7.51956739e-03, 1.38741801e-03,
          7.20164087e-03, 1.50355715e-02, 5.29939134e-04, 6.59615081e-03,
          -5.53668290e-03, 3.58472415e-03, 2.31105033e-02,
          -6.92693144e-03, 1.52135845e-02, 2.60082516e-03,
          4.67064884e-03, -1.54933485e-03, -2.66711842e-02,
          -1.72811393e-02, 1.55111752e-03, -5.52097568e-03,
          3.76430317e-03, 1.88903268e-02, 1.86456949e-03, 1.21052668e-03,
          -3.10927932e-03, -9.45910253e-03, -2.54178792e-03,
          -1.70116348e-03, -5.97641291e-03, 1.86685827e-02,
          -1.34358695e-02, 1.32602698e-03, 9.21671744e-03,
          -2.52047717e-03, 1.69949885e-02, -7.59392511e-03,
          6.05519279e-04, 9.40215774e-03, -2.27602180e-02,
          1.08168349e-02, 2.96994927e-03, 5.36389928e-03,
          -9.33778865e-05, -1.14659034e-02, -1.54963098e-02,
          -5.24660572e-02, -2.71272399e-02, 6.09905738e-03,
          -8.69334023e-03, -4.03870456e-02, -3.63503359e-02,
          -2.40389910e-02, -1.95203256e-02, -6.42096251e-03,
          1.69123672e-02, 6.58341683e-03, -7.05538271e-03,
          -2.73227841e-02, -1.99323427e-02, -4.38445248e-03,
          -4.94213309e-03, 2.47275103e-02, -1.03072040e-02,
          1.35249384e-02, 5.20301517e-03, -1.92269757e-02,
          4.65795137e-02, -2.75052786e-02, -3.55005041e-02,
          -1.55949593e-02, -1.55670727e-02, -1.13162817e-02,
          9.76975448e-03, 3.26738274e-03, 4.71466221e-02, 4.40736227e-02,
          -1.18367299e-02, 9.36793908e-03, 3.26740183e-03,
          5.17381355e-03, -1.28063140e-02, 3.69198993e-03,
          8.50554963e-04, 4.91271503e-02, -3.01383175e-02,
          5.40733896e-03, -7.18275551e-03, 1.53759029e-03,
          2.10833251e-02, -6.70713885e-03, -2.06579710e-03,
          -6.16627419e-03, -2.36442424e-02, -2.61029154e-02,
          -1.82045344e-02, -4.76498762e-03, 5.01539465e-03,
          1.81479547e-02, -1.06743453e-02, -1.72118433e-02,
          -1.74327381e-02, -2.96201613e-02, 1.46524515e-02,
          -6.99731894e-03, 2.31180135e-02, 2.60066893e-03,
          4.60857712e-03, 8.22507031e-03, -3.61446850e-03,
          -3.96591378e-03, 1.64126325e-02, 3.38729061e-02,
          -4.69636507e-02, -4.34315279e-02, -6.29190169e-03,
          -4.06504795e-02, 1.22079570e-02, 1.58056768e-03,
          2.06565694e-03, 4.12478037e-02, -2.62831114e-02,
          -1.57190412e-02, -2.01980770e-02, -5.11128129e-03,
          1.94434039e-02, -1.08178370e-02, -1.37599753e-02,
          -1.38416290e-02, -2.87592001e-02, -3.10884118e-02,
          8.90856888e-03, 2.35580783e-02, 2.02280702e-03, 5.39364591e-02,
          -7.61784753e-03, -2.78962590e-02, -2.45210268e-02,
          -3.10908873e-02, 7.33914832e-03, -4.01861370e-02,
          -3.55814919e-02, -1.45678269e-02, -6.46442594e-03,
          -1.68430747e-03, -2.91093718e-03, -2.61797523e-03,
          1.76484678e-02, -5.18215494e-03, -1.47711607e-02,
          1.54110994e-02, -5.25733863e-04, 4.04202007e-02,
          1.04846982e-02, 9.52082872e-03, 1.40242539e-02, 7.59250252e-03,
          -2.83620358e-02, 1.25693353e-02, 1.49034755e-02,
          -1.79712300e-03, 1.96123365e-02, -3.99294216e-03,
          -1.14195636e-02, -1.48101263e-02, -2.61019357e-02,
          -1.30056012e-02, 2.38506030e-02, 3.11142765e-02,
          -5.43973001e-04, 1.73350554e-02, 5.60638611e-04,
          -2.17615776e-02, -3.34753538e-03, -1.09312678e-04,
          -1.02114966e-02, -3.37917055e-03, 1.08426316e-02,
          -1.86144817e-03, 2.70631723e-02, -4.39036312e-03,
          -2.91271601e-03, 7.99952354e-03, -7.62225175e-03,
          -4.94322833e-03, 1.80784557e-02, 4.54926230e-02,
          7.83096626e-03, 2.82503497e-02, -8.61607864e-03,
          -2.62625888e-02, -1.11990236e-02, -7.95969926e-03,
          -9.55729373e-03, 1.16017144e-02, 1.95189752e-02,
          -1.74582261e-03, 1.61390472e-02, 2.93099904e-03,
          -1.04800751e-02, -2.43500574e-03, -5.65397926e-03,
          3.33882053e-03, 1.83263468e-03, 6.17360463e-03,
          -3.19457543e-03, 2.02744305e-02, 9.80518200e-03,
          3.23189516e-03, 6.11213502e-03, 7.21806800e-03,
          -6.84877438e-03, 9.72472411e-03, 3.70304771e-02,
          6.30799355e-03, 2.40359996e-02, -1.53836953e-02,
          -1.51247457e-02, -2.62519605e-02, -1.29216490e-02,
          -5.96615253e-03, 7.21912645e-03, 1.66902300e-02,
          1.10223508e-02, 1.01337861e-02, 2.38651056e-02,
          -6.60108123e-03, -2.20967084e-02, -7.67668430e-03,
          -4.58087260e-03, -9.82276048e-04, 4.83271712e-03,
          -6.18365547e-03, 6.18290203e-03, 3.47259804e-03,
          -1.13302907e-02, 9.84398532e-04, -1.43132750e-02,
          8.28526914e-03, 3.62219545e-03, 1.35793071e-02, 3.73885664e-03,
          1.95178948e-02, 2.02061114e-04, -9.47149657e-03,
          4.57303773e-04, -3.99964117e-03, 3.67450499e-04,
          1.18011385e-02, 1.83048677e-02, 3.19141406e-03, 8.00562149e-04,
          1.55058075e-02, -1.34287160e-02, -3.46892923e-02,
          -4.36507771e-03, 3.07236109e-02, 1.71000008e-02,
          2.50852313e-02, -2.96563056e-04, 1.38770761e-02,
          9.73420218e-03, 1.16913654e-02, -4.75730188e-03,
          2.40524095e-02, 1.19394623e-02, 3.90186743e-03, 6.24082889e-03,
          3.74028372e-04, 3.27637196e-02, -1.15768336e-04,
          -2.66793021e-03, -7.67991971e-03, 3.72131960e-03,
          9.33290645e-03, 6.40666904e-03, 3.93405696e-03, 2.32681213e-03,
          -9.05624498e-03, -9.76729207e-03, -2.87972745e-02,
          -2.15951614e-02, 4.89512319e-03, 2.84233876e-02,
          1.25661585e-02, 2.15699561e-02, -8.63468926e-03,
          2.67881379e-02, -9.77847353e-03, 1.10249957e-02,
          -3.95083334e-03, 2.23695189e-02, 1.60627030e-02,
          4.39937972e-03, 1.22388061e-02, -3.07420245e-03,
          1.31247435e-02, -2.63391063e-02, -1.71920937e-02,
          -1.12367775e-02, 2.16661114e-02, 3.75567526e-02,
          -1.45646846e-02, -3.72317545e-02, -2.17811447e-02,
          -2.39112079e-02, -2.32538525e-02, -1.56662595e-02,
          -7.22702639e-03, 3.54028568e-02, 4.63000834e-02,
          -1.01741487e-02, -1.04668839e-02, -7.61195598e-03,
          -2.27881670e-02, -1.45258047e-02, -1.84513703e-02,
          -1.13712167e-02, 4.66374010e-02, 4.13811095e-02,
          -6.79010479e-03, 4.19141055e-04, -2.01171860e-02,
          1.95392268e-03, -2.49054246e-02, -3.65246125e-02,
          -5.72984712e-03, 4.23581265e-02, 4.27000895e-02,
          -8.58606771e-03, -1.09310159e-02, -1.75215621e-02,
          -1.85745005e-02, -1.22908335e-02, 2.20124330e-03,
          4.85922489e-03, 4.48514931e-02, 5.04808091e-02,
          -9.30625573e-03, -1.57146640e-02, -8.35672021e-03,
          -3.31148021e-02, -2.82873260e-03, -7.45957624e-03,
          -6.23522699e-03, 4.81996797e-02, 7.78545439e-02,
          -3.24558467e-02, -5.25649302e-02, -2.05516629e-02,
          -6.74476475e-02, -1.06463330e-02, -1.41207175e-02,
          -8.20917194e-04, 7.93031827e-02, 5.40022589e-02,
          -2.96573923e-03, -1.98300299e-03, -8.25868454e-03,
          -4.03068513e-02, -1.19458977e-02, -7.02383136e-03,
          -2.63601937e-03, 5.40502891e-02, 8.08786899e-02,
          -6.30229898e-03, -1.35943228e-02, -1.87010318e-02,
          -6.07699640e-02, -3.46898325e-02, -5.63251749e-02,
          -1.21103935e-02, 8.19193199e-02, 7.06635416e-02,
          -3.59963849e-02, -5.62057570e-02, -2.05027536e-02,
          -6.05883859e-02, -1.28772417e-02, -1.53967645e-02,
          -1.99063378e-03, 7.58120492e-02, 5.74311428e-02,
          -2.26232074e-02, -4.04851846e-02, -1.64088514e-02,
          -1.50178815e-03, -8.71787034e-03, -3.14028864e-03,
          6.43376866e-03, 6.40018359e-02, 7.63767287e-02,
          -7.29232747e-03, -1.69948321e-02, -1.47649013e-02,
          -7.29024857e-02, -3.39739807e-02, -6.57056794e-02,
          -2.87265349e-02, 7.54249096e-02, 5.87700829e-02,
          -7.38346996e-03, -1.47201559e-02, -1.90868974e-02,
          -4.46145199e-02, -2.18969025e-02, -5.78120127e-02,
          -2.50197984e-02, 5.33339344e-02, 3.67186219e-02,
          -1.46813947e-03, 5.95641229e-03, -8.34231079e-03,
          -1.24975713e-03, -1.49409752e-02, -1.15314061e-02,
          -6.12347270e-04, 3.60187665e-02, 1.78958829e-02,
          1.51866162e-02, 3.69540118e-02, 1.83306250e-03, 8.50537699e-03,
          -2.48659328e-02, -4.19092067e-02, -2.14924049e-02,
          1.33416727e-02, 3.78613919e-02, 2.27621500e-03, 5.02125593e-04,
          -2.03882493e-02, -3.64419632e-02, -1.74479354e-02,
          -4.05645110e-02, -2.32628435e-02, 3.43194827e-02,
          2.47936305e-02, -1.84334489e-03, -2.87269447e-02,
          -2.88739875e-02, -3.52866501e-02, -1.55646475e-02,
          -2.54992768e-02, -1.97311770e-02, 1.79878920e-02,
          1.58269517e-02, 1.35794217e-02, 4.37885486e-02, 9.45279025e-04,
          1.20352320e-02, -1.53940655e-02, -3.27862427e-02,
          -2.07093656e-02, 1.47650791e-02, 6.66908780e-03,
          1.54088605e-02, 2.82193720e-02, 7.49597512e-03, 2.73404410e-03,
          6.32356154e-04, -2.80104540e-02, -2.57356800e-02,
          1.47158722e-03, 2.01252922e-02, -1.97601668e-03,
          -1.12121990e-02, -2.59072930e-02, -2.25952547e-02,
          -1.45494221e-02, -1.62794515e-02, -8.71578697e-03,
          1.57155842e-02, 1.52474781e-02, -6.90094521e-03,
          -5.95159829e-03, -1.85741279e-02, -1.35189127e-02,
          -1.53579414e-02, -7.50548299e-03, -1.90068875e-03,
          1.05421906e-02, 6.58972003e-03, 8.70976411e-03, 1.96489077e-02,
          8.76775663e-03, 2.55692564e-03, 8.44335475e-04,
          -2.60768123e-02, -1.78049263e-02, 3.20326537e-03,
          1.62936449e-02, 9.09266341e-03, 9.51687340e-03,
          -3.30043072e-03, 2.28113420e-02, 2.05751695e-03,
          -2.51918944e-04, -4.69261920e-03, 9.79776215e-03,
          -1.14792818e-02, -6.80149207e-03, -1.80099513e-02,
          -6.65292004e-03, -1.33331539e-02, -1.09094605e-02,
          -1.56038359e-03, 2.16860804e-04, -1.26490938e-02,
          -5.02229761e-03, -8.08220264e-03, -4.99158725e-03,
          8.35584011e-03, 1.67812258e-02, 6.57371338e-03, 9.53724328e-03,
          1.74282514e-03, -3.59521434e-03, 2.05326197e-03,
          -6.29391242e-03, -4.31902707e-03, -1.83828585e-02,
          4.31081168e-02, -1.04102883e-02, -1.87003298e-03,
          -2.40164367e-03, -3.70748201e-03, 1.36043709e-02,
          -1.55557878e-02, -6.30012108e-03, -1.23961270e-02,
          2.73507964e-02, -2.26044320e-02, -1.27614634e-02,
          -1.79943896e-03, 1.19658718e-02, -1.75254047e-02,
          -2.01752968e-02, -1.47429733e-02, -8.95822980e-03,
          4.36237305e-02, 9.63148312e-04, -1.09520881e-03,
          7.98824010e-04, -1.37871411e-02, 1.02875764e-02,
          -3.00953593e-02, -1.31624816e-02, -1.50979776e-02,
          2.34282259e-02, -1.30061619e-02, 6.18482986e-03,
          6.03373535e-03, 4.39298060e-03, 3.03311888e-02,
          -2.70996662e-03, 2.52937642e-03, -7.15146679e-03,
          -1.21046405e-03, -4.85591404e-03, -1.79110132e-02,
          2.00694446e-02, 4.19586673e-02, 2.97576562e-02,
          -4.73555457e-03, -5.72181866e-03, -1.28908660e-02,
          -1.06143709e-02, 2.82091415e-03, 3.40001620e-02,
          3.61611843e-02, 3.86293344e-02, -2.05544828e-04,
          3.55607102e-04, 2.73814634e-03, -1.20339973e-03,
          -2.56977342e-02, -2.07219329e-02, -3.49798463e-02,
          -9.63661354e-03, 1.48221683e-02, -1.57507472e-02,
          -3.86594282e-03, -3.84478131e-03, -6.53935922e-03,
          3.38044623e-03, 1.03939874e-02, 2.21605524e-02, 1.49210757e-02,
          -9.22489818e-03, 3.13114710e-02, -2.37331283e-03,
          -2.99031124e-03, -7.12857675e-03, -4.05493230e-02,
          3.28136701e-03, 3.07867173e-02, 2.17361432e-02, 3.43312435e-02,
          5.06039262e-02, -4.06997651e-03, 1.75725389e-03,
          -1.54254315e-02, -4.11100872e-02, -7.61633622e-04,
          -2.48566568e-02, -4.92235133e-03, 6.20839372e-02,
          -3.16084549e-03, -3.76623892e-03, -5.45973703e-03,
          -6.13555918e-03, -2.98154522e-02, 1.83319207e-02,
          2.24524103e-02, 1.53226806e-02, -5.55302482e-03,
          2.20717993e-02, -1.07045537e-02, -2.16201972e-03,
          -1.50493952e-02, -4.18929048e-02, 1.45152425e-02,
          9.43106785e-03, -6.53800205e-04, 2.83313654e-02,
          5.04821986e-02, -4.03895555e-03, 9.62980615e-04,
          -1.26626948e-02, -4.34263088e-02, -7.98114296e-03,
          -3.18617113e-02, -1.77685451e-02, 4.90782745e-02,
          3.67124528e-02, -4.31148801e-03, -1.29175000e-02,
          -1.69742350e-02, -1.77089088e-02, -2.95661413e-03,
          -4.42721210e-02, -4.34556827e-02, 3.13571952e-02,
          1.14921052e-02, -8.98431987e-03, -8.37397936e-04,
          -1.56018883e-02, -1.78351160e-02, 1.88231077e-02,
          8.16152710e-03, -3.92833818e-03, 1.11251445e-02,
          1.54682877e-03, -1.79610844e-03, -4.05690307e-03,
          -1.28143625e-02, 1.94642972e-03, 1.37102325e-02,
          -5.31021226e-03, -1.80454366e-02, -5.51014999e-03,
          3.62861492e-02, 7.58452574e-03, -1.16058532e-02,
          -1.83578320e-02, -1.42183825e-02, 2.27080821e-03,
          -2.63613891e-02, -2.48992275e-02, 3.56622040e-02,
          2.85602864e-02, 4.40120348e-04, -2.96544656e-02,
          -2.62570139e-02, -2.61650085e-02, -3.88688361e-03,
          -1.67969875e-02, -1.85319874e-02, 2.54567415e-02,
          -4.99868905e-03, -3.34490214e-05, -6.69173570e-03,
          -9.62552521e-03, 1.74691845e-02, 2.61990260e-02,
          6.68228464e-03, -1.72435138e-02, -5.52520948e-03,
          -1.07756499e-02, -2.01396011e-02, -2.62561422e-02,
          -1.17064239e-02, -5.40774199e-04, 3.38551559e-04,
          -3.27595486e-03, -8.00008513e-03, -2.10507307e-02,
          2.74542086e-02, -7.56322220e-03, -1.40593620e-02,
          -2.86054183e-02, -2.33225934e-02, -6.51090872e-03,
          -5.49155101e-03, -5.76317497e-03, 2.19282955e-02,
          2.09404696e-02, -2.80638784e-03, 5.11218794e-03,
          -3.33063416e-02, -2.06782296e-02, -5.75389154e-03,
          2.55344175e-02, 1.00241350e-02, 2.81199887e-02,
          -5.33992425e-04, -2.26321090e-02, -2.62814034e-02,
          -1.16688153e-02, -8.64718761e-03, -4.29639639e-03,
          5.03860274e-03, 4.62238619e-04, -8.54874123e-03,
          1.89165527e-03, -2.09980458e-02, -1.76656935e-02,
          -1.96888316e-02, -8.96128919e-03, -6.21730136e-03,
          1.73529908e-02, 4.44062101e-03, 8.79213028e-03,
          -4.90974728e-03, -8.39774404e-03, -1.08192246e-02,
          -2.35837605e-02, -3.67456414e-02, -5.44437906e-03,
          1.74267869e-02, 6.37872331e-03, -6.59041153e-03,
          -6.37758349e-04, 8.20249692e-03, 2.78409477e-02,
          1.51075069e-02, 2.09410135e-02, 8.58457014e-03, 1.80807468e-02,
          3.43921292e-03, 1.20538555e-03, -1.24775879e-02,
          -1.86462235e-02, -1.32066049e-02, -2.01905128e-02,
          -2.52111163e-02, -1.35282725e-02, 7.95559306e-03,
          5.57368156e-04, -5.53665916e-03, 2.38031312e-03,
          1.03570977e-02, 8.46574083e-03, 3.52829834e-03, 1.68519951e-02,
          3.70951882e-03, 1.86796878e-02, 2.02462543e-03, 8.43334291e-03,
          6.73852628e-03, 2.05629901e-03, 2.20460314e-02, 3.71286762e-03,
          2.73353513e-02, 8.63630977e-03, 1.24172447e-02, 3.91035154e-03,
          1.26948617e-02, 1.57741904e-02, -2.02111900e-02,
          -1.85354538e-02, -1.76948067e-02, 1.16026280e-02,
          -9.55223013e-03, 1.49075575e-02, 1.17860613e-02,
          1.54072875e-02, -2.48212996e-03, -9.17748921e-03,
          -1.20567961e-03, -5.37351007e-03, 2.89602075e-02,
          -2.89290422e-03, 1.75108965e-02, 3.01540829e-03,
          7.48362718e-03, 1.67089794e-03, -2.02092677e-02,
          -2.75909137e-02, -2.00221948e-02, -6.10530097e-03,
          -2.41196970e-03, 1.74170490e-02, 8.72568600e-03,
          5.75624732e-03, -1.93753419e-03, 2.71703908e-03,
          1.00505706e-02, 1.01345649e-03, -2.47776955e-02,
          -1.77205969e-02, -4.83972095e-02, -1.73096545e-02,
          4.11181798e-04, 1.13933869e-02, -2.97945435e-03,
          -4.63065844e-05, -2.76506483e-03, 3.24419811e-02,
          1.19034220e-02, 1.18882135e-02, 1.17562404e-02, 1.27240666e-03,
          6.58702105e-03, 3.73672368e-03, 1.28164273e-02, 7.47866055e-04,
          -1.80616584e-02, -2.71624466e-03, 1.88038289e-03,
          -5.33274747e-03, 6.36196602e-03, 5.54522127e-03,
          1.37722469e-03, 9.11635440e-03, -6.29442802e-04,
          -1.23903248e-02, 6.67685084e-03, 1.33756110e-02,
          -1.71738435e-02, 1.57350732e-03, 1.69111900e-02,
          -2.79009598e-03, -5.74572291e-03, -7.20548583e-03,
          -2.72860005e-02, 1.18628098e-02, 2.04039477e-02,
          3.22468043e-03, 9.94145591e-03, 1.15387589e-02,
          -5.26812626e-03, -3.99842625e-03, -1.66161507e-02,
          -3.48452888e-02, -3.15658911e-03, -1.91926770e-03,
          -1.75926331e-02, 1.16113974e-02, 1.22745624e-02,
          -1.29446050e-03, -2.16384372e-03, -4.80122212e-03,
          -3.77442352e-02, 1.44339167e-03, 1.14711570e-02,
          -6.05481071e-03, 6.63542235e-03, 6.79117348e-03,
          -2.35165469e-03, 2.80780415e-03, -1.54570453e-02,
          -2.32572444e-02, -6.69443468e-03, 1.05934972e-02,
          5.68391196e-03, 8.08446668e-03, 1.09106340e-02,
          -6.79075252e-03, 2.73030228e-03, -2.29722261e-02,
          -9.44585353e-03, 1.18685616e-02, -6.04342611e-04,
          -2.26933844e-02, 1.51451547e-02, -2.43483596e-02,
          -3.13613587e-03, 8.64135846e-03, -1.62679311e-02,
          1.02200676e-02, 1.09550646e-02, 3.72120249e-03,
          -1.75980795e-02, -2.57974304e-02, 8.48685019e-03,
          -2.14817375e-03, 1.38846720e-02, -2.07004510e-02,
          -6.90992875e-03, -6.22816151e-03, 2.01082155e-02,
          4.94003436e-03, 1.60345193e-02, -5.05197560e-03,
          4.26540012e-03, 1.64422486e-02, -1.30908582e-02,
          -9.65714548e-03, -5.99603821e-03, 1.60067044e-02,
          3.49017791e-03, -7.33143184e-03, -2.13015079e-02,
          -2.27671303e-03, 1.59798749e-02, -1.35328518e-02,
          3.29081938e-02, 1.92022324e-02, 1.01925926e-02,
          -6.37826230e-03, -2.33918820e-02, -5.52492589e-02,
          -2.52449606e-02, -2.78792437e-02, -1.23304967e-02,
          1.30591765e-02, 2.61561781e-05, 1.11857206e-02, 2.97950953e-03,
          -5.65493070e-02, 2.92061083e-03, 8.89376085e-03,
          1.37641095e-02, -1.23542007e-02, 2.06465274e-03,
          -2.73640198e-03, 5.21281594e-03, 7.76312687e-03,
          1.10475486e-03, -5.16408216e-03, -4.75842971e-05,
          -7.34257419e-03, -9.90527030e-03, -4.92179394e-03,
          -4.16853093e-03, 9.88655165e-03, 6.36076508e-03,
          -5.38770948e-03, -4.79311422e-02, -3.18734422e-02,
          -2.28419881e-02, -1.13241160e-02, -7.83757493e-03,
          -7.56491208e-03, 1.18456203e-02, 3.93590285e-03,
          -4.81223129e-02, 1.05071682e-02, -3.67848501e-02,
          -1.59391239e-02, -1.41569562e-02, -1.65017135e-02,
          -1.84929166e-02, 9.81330592e-03, 6.33783638e-03,
          1.73345096e-02, -2.00353446e-03, 4.18344606e-03,
          1.82535369e-02, -1.15800267e-02, -7.92990252e-03,
          -1.03978524e-02, 1.22456206e-02, 3.31264804e-03,
          1.99743034e-03, -7.71490275e-04, 6.89909747e-03,
          1.44630214e-02, -1.46398079e-02, -1.50811523e-02,
          -2.10166462e-02, 6.87941955e-03, 4.49162163e-03,
          5.16405050e-03, 5.67031140e-03, -1.99823454e-02,
          -1.04952436e-02, -2.76671797e-02, -2.35824417e-02,
          -1.88094005e-02, 2.05901079e-03, -1.64834782e-03,
          1.30079724e-02, 1.86047629e-02, 6.66130753e-03, 6.54490292e-03,
          -1.00136381e-02, -5.36929769e-03, -6.60414589e-05,
          1.63161438e-02, -2.03081011e-03, 1.93750095e-02,
          -1.75228734e-02, 5.04610874e-03, 6.03134558e-03,
          -1.52768185e-02, -3.11173070e-02, -1.47318505e-02,
          -1.24529365e-03, -2.12852797e-03, -1.70632675e-02,
          4.13162680e-03, -5.56185914e-05, 1.38287116e-02,
          -3.44646326e-03, -2.97230482e-02, -3.10845347e-03,
          5.17060282e-03, -2.44127610e-03, 6.37553027e-03,
          2.20988207e-02, -4.63589001e-03, 2.29829270e-03,
          -1.75916385e-02, 1.82146989e-02, -8.85071326e-03,
          1.16460510e-02, -1.22282060e-03, 2.30389591e-02,
          1.39649690e-03, -2.60931794e-02, -3.99970226e-02,
          -1.08775254e-02, -2.59397877e-03, -9.05739027e-04,
          2.02361774e-02, 7.83646386e-03, 4.38547553e-03, 1.07747791e-02,
          -1.23540163e-02, 6.96779648e-03, -1.63909588e-02,
          -3.04930620e-02, -4.11806768e-03, 9.44941770e-03,
          3.21006775e-03, 7.24432571e-03, 1.32305045e-02, 2.86169024e-03,
          1.07300710e-02, 1.43037969e-03, -7.81138660e-03,
          -1.09198468e-03, 2.04897132e-02, 1.27209052e-02,
          1.30702443e-02, 3.36037483e-03, 7.56870396e-03, 1.75063480e-02,
          -1.60208117e-04, -6.21499494e-03, 2.66484421e-04,
