%YAML:1.0
---
opencv_ml_svm:
   format: 3
   svmType: C_SVC
   kernel:
      type: LINEAR
   C: 1.
   term_criteria: { iterations:100 }
   var_count: 1764
   class_count: 4
   class_labels: !!opencv-matrix
      rows: 4
      cols: 1
      dt: i
      data: [ 0, 1, 2, 3 ]
   sv_total: 6
   support_vectors:
      - [ -0.0109552862, -0.0107501661, -0.00400124304, -0.0100479051,
          0.0026850123, -0.00832557306, -0.012340392, -0.0179631338,
          -0.0108015882, -0.0134059582, -0.00540853431, -0.00691389013,
          -0.0056829392, 0.00742496178, -0.00557905342, -0.0208534226,
          -0.0164284762, -0.0155588202, -0.0144634098, -0.00990684889,
          0.00221453328, -0.0086841695, 0.00313200639, -0.0104805594,
          -0.00985617563, -0.0151379099, -0.0142229376, -0.0106001459,
          0.0134862931, 0.00908417534, 0.0103134746, 0.0128089357,
          -0.00112667959, -0.0175942127, -0.0140148951, -0.0174362399,
          -0.00173709786, 0.000163820892, -0.00303682731, -0.0010294487,
          0.0168924108, -0.00171465578, -0.0165802799, -0.0106559936,
          -0.00561298756, 0.0066487221, -0.00131695741, -0.00456924504,
          0.000575740065, -0.00572663732, -0.00252816663, -0.0173935667,
          -0.00975950621, -0.00116267835, 0.00401720265, 0.00869045407,
          -0.00552805047, 0.00497472938, 0.0151738711, 0.00256840512,
          -0.0162838232, -0.0067689931, -0.00107431482, 0.0190152451,
          0.0248876084, 0.0179727636, 0.00604677713, -0.0030872093,
          0.00675254269, -0.0103395721, -0.00146726333, 0.0260306243,
          0.00764297135, 0.00172429089, -0.000209988895, 0.00151811808,
          6.55903932e-06, -0.000578876934, -0.00905496068,
          -0.00718110707, 0.00409383746, -0.00418077735, -0.00224854774,
          -0.00886012428, 0.000706058578, 0.000557908847,
          -2.62918365e-05, -0.00379579212, -0.00115801219,
          -0.00307228137, 0.0117351962, 0.000825761934, 0.00037608089,
          0.00536433607, 0.00570341712, 0.00576887932, -0.00302544958,
          -0.00152955158, 0.0155024966, 0.014652025, 0.00877558999,
          0.00808064174, 0.00484855659, 0.00712709548, 0.0069774664,
          -0.00143398996, -0.00115002564, 0.0143326679, -0.00729162944,
          -0.00144339714, -0.00540255662, 0.00122407312, 0.00241115899,
          0.00107033714, 0.000417880423, -0.000318230625, -0.00723961601,
          -0.00787018798, 0.00234137801, -0.00249225181, 0.00179383776,
          0.00216295128, 0.000729281164, 0.00186021102, -0.000228998601,
          -0.00784818735, 0.0199771356, 0.00129415281, 0.00124211959,
          0.00457758131, 0.00730181159, 0.00542158261, -0.000938641548,
          -0.00594545202, 0.0174756125, 0.0212759729, 0.0026877888,
          0.00178085617, 0.00631100126, 0.00792973489, 0.00338677666,
          0.00287295063, -0.00555227278, 0.0212421343, -0.00342180301,
          0.00136005832, -0.00299650244, 0.00108233793, 0.0015430334,
          0.000312844844, 0.00165880111, 0.00128462235, -0.00838900264,
          2.37571548e-05, -0.00121002167, -0.00477821939,
          -0.000132949863, 0.000392592658, 0.00257006777,
          -0.000873947924, 0.00325101498, -0.00177792716, 0.0120174196,
          0.00368889724, -0.00036598806, 0.00387498038, 0.00452723587,
          0.00270971609, -0.00166082208, 0.00392485643, 0.0109394174,
          -0.0144451149, -0.020191703, -0.0363317505, -0.0207898729,
          -0.00983144995, -0.00154612272, 0.00512292935, 0.00105758058,
          -0.0229064468, -0.00334778591, -0.00396656478, -0.0106807714,
          -0.00181298051, -0.00438817078, 0.00140257971, -0.00657209475,
          0.00164034648, 0.00143496459, -0.006134531, -0.0039640558,
          -0.00940981321, -0.00208782637, 0.02245727, -7.52066189e-05,
          -0.0108334301, -0.00390700344, -0.00271110074, -0.000846412557,
          -0.0151754906, -0.0339816809, -0.00858381577, -0.00716903107,
          -0.016269207, 0.00628711423, 0.00075816951, -0.0083516743,
          -0.00168329338, -0.00144131645, -0.0153569467, 0.00149691256,
          0.0201671962, -0.00990305841, -0.0167084653, -0.00766624045,
          0.00217696768, -0.00849768333, -0.0056203343, -0.01275317,
          -0.00302114035, 0.0167461317, -0.00127008907, -0.0142671037,
          -0.00748134684, -0.00376901589, -0.0111245736, -0.00650517177,
          -0.0124830296, -0.00447406014, -0.00271261972, -0.00234670145,
          -0.0132591063, -0.00744004408, -0.00730872666, -0.00682420749,
          -0.0160835739, -0.0440218635, 0.00117716519, -0.0271976087,
          0.00988766737, -0.00203369604, 0.00364622637, -0.000571742945,
          -0.0202921163, -0.00608405378, -0.0133217676, -0.000908955815,
          -0.00859182701, 0.000311630574, -0.0133307893, -0.00680092443,
          -0.0213994049, -0.00442569563, 0.00488976715, 0.00936563313,
          0.00336319185, 0.0102349389, -0.000484292512, -0.00169245095,
          -0.000905740424, -0.00612490438, -0.00753440335, 0.0211698096,
          0.0151721695, 0.0106119057, 0.0149938287, 0.00807575881,
          -0.013385471, -0.00198743027, -0.00874995813, -0.0126990564,
          0.00708769634, 0.0347270332, 0.00314906472, 0.0135047259,
          -0.0048399223, -0.01097498, -0.0118366126, -0.0130423335,
          0.0121393437, 0.0199547056, 0.0251252372, -0.0105826622,
          0.0131225614, 0.00657126168, -0.00834838301, -0.00385333016,
          0.00446640747, 0.00601900322, 0.0172640849, 0.00925363041,
          0.00900481362, 0.0240936875, 0.0103385542, -8.76748454e-05,
          0.00691429712, 0.00525767915, -0.00264152652, -0.00106662337,
          0.00155762676, 0.0091372272, 0.00216393359, 0.0126547152,
          0.00481566135, 0.00855751988, 0.00920184422, 0.00714686932,
          0.0142800501, 0.0171591416, -0.0069940486, 0.00255546509,
          0.00825554319, 0.00435089087, 0.00455852645, 0.00377665949,
          0.0141918939, 0.0106272232, 0.00401680125, 0.00710272044,
          -0.037501432, 0.000319981977, 0.0122133205, 0.0117578432,
          0.0117431749, -0.00610874733, -0.00506219734, -0.00667429203,
          0.00486173294, 0.00589022413, 0.00831991993, 0.00340322289,
          0.00422235718, 0.00041827216, -0.0109586343, -0.00270366739,
          -0.005901, 0.00554668205, 0.00627549225, 0.00902324077,
          0.0059687933, 0.00405795453, -0.00601033727, 0.0224921741,
          0.0186899602, 0.0281302668, -0.000497968285, -0.0216637347,
          -0.00418071775, 0.0149826193, 0.0168736707, 0.0181412771,
          0.0180213619, 0.0173022375, 0.0360911861, -0.000612203265,
          -0.0208998937, -0.0087911468, 0.0243967865, 0.020829279,
          0.0190674644, -0.000669143919, -0.00408269372, -0.0025187016,
          0.00674288487, 0.00580905052, 0.00921237003, 0.0055938554,
          1.50866599e-05, 0.00617008377, -0.0117365709, 0.00495496206,
          0.0055133421, 0.0071673207, 0.00580818951, 0.00758779934,
          0.00254382635, -0.00617199624, -0.00278166216, 0.0113760065,
          0.0058934479, 0.026887482, 0.00217837025, -0.0227024481,
          0.00374536193, 0.0168246515, 0.0165187512, 0.0218895357,
          0.00347331492, -0.000165464429, 0.00672935136, -0.00129934133,
          -0.0249241479, -0.00145090488, 0.0330908075, 0.0273675509,
          0.00558974827, -0.00923341699, 0.00772426696, 0.00660678092,
          0.00681275036, 0.00647031981, 0.00587238837, 0.00562645495,
          0.00753023895, -0.00708800741, -0.00750476215, 0.00702263368,
          0.00366553827, 0.00283747027, 0.00683652982, 0.00685647642,
          0.00315317721, 0.00206683925, -0.0106384158, 0.0065432773,
          0.00169807475, 0.00663513364, 0.00172386167, -0.00957347266,
          0.000760883908, 0.0404493324, 0.0451127812, 0.00929192267,
          -0.0171140693, 0.000373816729, 0.00213712431, -0.00513352873,
          -0.0177673306, -0.00085031963, 0.0287825149, 0.0306608304,
          -0.0112692928, 0.00419602916, 0.00906512327, 0.000707610918,
          0.00382087845, 0.00432851631, -0.00331786182, 0.00118559645,
          -0.000355427852, 0.00560927717, 0.00719140004, 0.00874667894,
          0.00172309543, 0.0117515037, 0.027104076, 0.00150710554,
          0.00286689168, 0.0130960885, 0.0134212859, -0.0167480819,
          0.00230292743, -0.0023025698, -0.00911799911, -0.0130245546,
          0.0041066655, 0.0180066191, 0.0207857974, -0.00706381304,
          -0.0093355393, 0.00285464921, 0.000652115792, 0.00722092949,
          -0.00430881325, -0.0278119966, 0.0116039095, 0.00996454433,
          -0.00222260621, 0.00356188999, 0.00102431304, -0.0118139759,
          0.0064933137, 0.0185655616, 0.00658106757, 0.00385073572,
          0.0123725925, 0.00823441334, -0.00436260598, 0.00268016127,
          -0.0105011864, 0.00540151121, 0.00197054283, 0.00630544033,
          -0.00435003266, 0.00326449866, -0.00496752188, -0.00305134989,
          -0.00398430787, -0.012257766, -0.00657975953, -0.0444470197,
          -0.0302167982, 0.0148356315, 0.0152736697, 0.00381546188,
          -0.0176918339, -0.00581684802, -0.0157194585, -0.000151938395,
          0.00304509373, -0.00190895621, 0.0242592748, 0.00595628098,
          -0.0134381568, -0.00888073072, 0.0168421306, 0.025674643,
          0.00650750007, 0.011841489, -0.000203890959, -0.00491335336,
          -0.00549824582, -0.0115394806, 0.00422313344, 0.0310134757,
          0.0321234651, -0.0150467558, 0.00383280218, 0.00382114411,
          0.00105366355, -0.000326371286, -0.00171772018, -0.00616930518,
          0.0243595131, 0.0433444604, 0.00623144116, 0.0234074779,
          0.00134309183, -0.00378624699, -0.00784743018, -0.00983485859,
          -0.00423338637, 0.0282874592, 0.0169393457, -0.0135104423,
          0.0245086178, 0.00308335968, -0.00163898279, -0.00596146611,
          -0.0104738381, 0.00479739346, 0.0212606788, 0.0232064575,
          -0.0145622175, -0.0088068787, 0.00436761882, 0.00240684021,
          0.00249298126, -0.00179601833, -0.00283012353, 0.0207728706,
          0.0369816683, -0.00183348777, -0.045509208, 0.000553393038,
          0.0136132697, 0.00902701262, -0.00563889742, -0.015524867,
          0.0203815885, 0.00817078911, -0.00539467484, -0.000698934833,
          0.00452180393, -0.00853867456, -0.0110871559, -0.0233967304,
          -0.0033364254, 0.061109893, 0.078668043, 0.00288524269,
          -5.49794604e-05, -0.00133008603, -0.0143434564, -0.00617053593,
          -0.0200215336, -0.01672245, 0.0277302414, 0.0445355065,
          0.00781145878, -0.0108028268, 0.00319570373, 0.00522383582,
          0.00434077857, -0.0190750286, -0.00418140413, 0.0271663386,
          0.0453848019, 0.00773369009, -0.0105559761, 0.00189862086,
          0.0101832505, 0.00861919951, -0.0116353547, -0.0205123518,
          0.0393838137, 0.0682280734, 0.00883827079, 0.000985915656,
          0.0019872447, -0.0209572557, -0.00766752148, -0.0410977304,
          -0.0118551124, 0.0368755274, 0.0678971037, 0.0159316659,
          0.0164634846, 0.00197814032, -0.0182639584, 0.000605872134,
          -0.023520641, 0.00275450107, 0.00963920914, 0.0251772944,
          0.00435386039, -0.00423164479, 0.00249366951, 0.0103467749,
          0.0129176024, 0.000978409313, -0.0133288791, 0.00425384566,
          0.00470001483, -0.000138799063, -0.00808542874, -0.00256425678,
          0.0273489654, 0.0133875562, -0.0100206407, -0.0169339254,
          0.020746721, 0.0469359308, 0.0145440996, 0.0255956464,
          0.00475907139, -0.00329120317, 0.00513601443, -0.0179180726,
          -0.0240958557, 0.0055296151, 0.0100208139, 0.00711628143,
          0.0258660484, -0.00214314554, 0.0362096913, 0.0188414995,
          -0.0236339644, -0.0233268235, 0.00282600522, 0.00219196058,
          -0.00138506666, -0.00508781476, 0.00586688425, 0.0424874425,
          0.0329242349, -0.0177097376, -0.0321879387, 0.000978644704,
          0.00121738436, -0.00210940884, -0.0113657042, 0.00512710633,
          0.0467081256, 0.0258901045, -0.0271533672, -0.0363854915,
          0.00387290586, 0.000279769127, 0.00203224062, 0.017082382,
          0.0218450036, 0.0430029519, 0.0392388366, -0.0283869635,
          -0.0393044427, 0.00263576047, -0.000389126275, -0.00446187006,
          0.0181872007, 0.00668865023, 0.0473025143, 0.0320912972,
          -0.0414599404, -0.0196032729, 0.00235153292, 0.00185667945,
          0.00025861297, -0.0187052824, -0.0137230707, 0.0400100425,
          0.0217928439, -0.00502874702, -0.0168418176, 0.00281128474,
          0.00233111135, 0.00568846799, -0.0168876089, -0.0196658969,
          0.0251187291, 0.0256682113, -0.00114721956, -0.0299373753,
          0.000928552239, -0.000493112078, -0.00592255732, 0.00887087174,
          -0.0138244443, 0.0661350712, 0.0411051176, -0.0238115601,
          -0.0215762109, 0.00201331964, 0.00190080772, 0.00740342354,
          -0.00493503688, -0.00507635949, 0.0124592679, 0.0262123086,
          -0.0186238009, -0.0203745347, -0.000585021393, -0.00118095009,
          -0.000542359834, -0.0371105336, -0.0138300415, 0.0255548563,
          0.0223886389, -0.0103307599, -0.015623508, -0.0024647566,
          -0.00553578418, -0.00138016394, 0.0125602931, -0.000788183766,
          0.0215737876, 0.0120795816, -0.0136801396, -0.00872221217,
          0.00176403276, 0.00233798753, 0.00659974013, -0.014545355,
          0.00468236348, 0.0274110772, 0.0292263199, -0.00826650765,
          -0.0099385716, 0.00035854007, -0.00168545684, -0.00136517198,
          0.0180994291, 0.0162789878, 0.0231157281, 0.0158662498,
          -0.00515285414, -0.00157224841, 0.00959181134, 0.0347547792,
          0.0112403566, 0.019466158, 0.0120968251, 0.00825773459,
          -0.000979840639, -0.00310388487, -0.0161348991, 0.0103470953,
          0.0149816247, -0.000299256935, 0.0243596565, 0.00494263507,
          0.00415490475, -0.00451593753, -0.0200660918, 0.00143679231,
          0.00494350633, 0.0150989732, 0.00975995604, 0.0211925786,
          0.0172047857, 0.0339788832, 0.0126366103, 0.00091684889,
          -0.011594506, 0.00433190726, 0.0104335798, 0.00859810133,
          0.0295897033, -0.00324188522, 0.00511985179, 0.00795585755,
          -0.0163944624, -0.0204188451, 0.00948357023, 0.0191754773,
          0.00327169383, 0.0207492858, 0.00401445944, -0.0117496364,
          -0.00792495441, -0.0214460548, -0.0308178701, 0.0308914557,
          0.0689004436, 0.00701569906, 0.0249175597, 0.0148300622,
          -0.0282708313, -0.0175884198, -0.0421099253, -0.020788867,
          0.00148987398, 0.000835647341, 0.00321855792, 0.0292002,
          0.00432581175, 0.00699777529, 0.00284769665, -0.0208515711,
          -0.0498343334, 0.00583932456, 0.0136317527, 0.00690040085,
          0.0193913039, 0.0372123495, 0.0439163856, 0.00560434861,
          -0.0524878092, -0.0360889658, 0.0287877973, 0.0623095445,
          0.0134752272, 0.0479979701, 0.0141266016, -0.0239514913,
          -0.018144194, -0.0476362035, -0.0315000638, 0.0257330313,
          0.0657374114, 0.0195021182, 0.0402983353, 0.000342020794,
          -0.0233568214, -0.0173662938, -0.0404022262, -0.05627786,
          0.00630405359, 0.0142150279, 0.0111747608, 0.0476940349,
          0.027366979, 0.0279311817, 0.000279560918, -0.0563180223,
          -0.0414471999, 0.0109247044, 0.0170639083, 0.0177747812,
          0.0346668325, 0.00469972473, 0.0242675133, -0.00471828645,
          -0.0373032801, -0.0196667742, 0.010351426, 0.0338371843,
          0.0148790488, 0.0382333919, -0.00591744017, -0.00799082499,
          -0.00435201777, -0.0260857232, -0.0251404028, 0.003954696,
          0.0202275347, 0.0141020501, 0.0421118774, -0.00457251584,
          0.017724866, 0.00254746666, -0.0228677914, -0.0271747094,
          0.00998875499, 0.024974376, 0.0180098098, 0.0293076262,
          -0.0160964932, 0.00741832796, -0.00593612529, -0.0242902637,
          -0.0112165036, 0.0284218714, 0.0656282827, 0.0353074335,
          0.0350979008, -0.00856415555, -0.0154278446, -0.00480445102,
          -0.0138532771, -0.044668477, 0.0087737795, 0.0222714841,
          0.0141179068, 0.029649552, 0.0130507713, 0.00847034249,
          0.00548027921, -0.0458465926, -0.044292517, 0.0140523547,
          0.0324515551, 0.00797576085, 0.0354757644, 0.012328078,
          0.00895749405, -0.00513909152, -0.0436820239, -0.0246537495,
          0.037100222, 0.0697511658, 0.0311328713, 0.0301616304,
          0.00684465282, -0.0226919763, -0.0114846528, -0.0278747547,
          -0.0247605462, 0.0480423532, 0.0705652237, 0.0231255218,
          0.0365201123, 0.00621691626, -0.0244812593, -0.0204917677,
          -0.0262707081, -0.0350379571, 0.0105382614, 0.024376804,
          -0.00310341618, 0.0169536769, -0.00416895887, 0.0228512455,
          -0.0035949517, -0.0349734165, -0.00822288077, 0.00895978604,
          0.018786056, 0.00884662196, -0.0149677088, -0.00315138907,
          0.00576336682, 0.000634759373, -0.0096779773, 0.00309331203,
          0.0410997607, 0.07937859, 0.00183389219, 0.0127514461,
          0.0006832527, -0.0214469172, -0.0227654688, -0.00504432945,
          0.0166989584, 0.0314799659, 0.0389408544, -0.00109048944,
          -0.0176239926, -0.000676021562, -0.0160353128, -0.0158106815,
          0.0147639625, 0.00894039124, 0.0137754846, 0.0211527552,
          0.0092543764, -0.0259945299, -0.00633415813, 0.01283025,
          0.00636702916, 0.0130497413, 0.006251588, 0.0148812402,
          0.0153793115, 0.000864973001, -0.00537846563, 0.00276248832,
          0.0122230006, 0.0042182561, 0.015787892, 0.018729547,
          0.0295570567, 0.0366163477, -0.00209744158, -0.027618194,
          -0.00745834783, -0.00518145366, -0.00815736968, 0.0160450377,
          0.00582001824, 0.0225346778, 0.0194197949, -0.00258112047,
          0.00175280019, 0.00361566665, -0.00128935766, -0.00806609727,
          0.0131380958, -0.00935105793, -0.000331062183, 0.00263404753,
          0.000186433841, 0.0203647651, 0.00759810209, 0.0393622182,
          0.0171866976, -0.010593676, -0.00644868053, 0.00198281673,
          0.0036400191, 0.00269632228, 0.0333124213, -0.0141702238,
          0.0163057242, 0.0220635384, -0.008975056, -0.0150873335,
          -0.0023918557, -4.83129734e-05, -0.00201201602, 0.0120110456,
          0.00921474211, 0.020261379, 0.0195582248, -0.0168896746,
          -0.00481789093, 0.00147652661, 0.00102068018, -0.000903161999,
          0.00617975183, -0.0106358482, 0.0329184681, 0.0283895787,
          -0.00365785672, -0.0121178962, 0.00129828241, 0.00261131884,
          0.00296852854, 0.0213279277, -0.00279172976, 0.00137591851,
          0.0110611971, -0.0130280694, -0.0396119766, 0.00299685053,
          0.00245720474, 0.00288792816, 0.0135269174, 0.0135944504,
          0.0611554943, 0.0275678057, -0.0379651785, -0.0127511499,
          0.00188137998, 0.00292709912, 0.000908223039, 0.0193478763,
          -0.0131684402, 0.0194293167, 0.00783697609, -0.00497318059,
          -0.0228565149, 0.0114488807, 0.010393044, -0.000127504696,
          0.0121456757, 0.00517801987, 0.0282097328, 0.00671919901,
          -0.0211856533, -0.0543890372, 0.00464031985, 0.00317331241,
          0.00615445478, 0.028531298, 0.013073748, 0.0521798953,
          0.0249111336, -0.0440337025, -0.033176057, 0.0124200014,
          0.0102159772, 0.0129587445, 0.018397985, 0.00583948847,
          0.0528065898, 0.0269293673, -0.0281643569, -0.0334162377,
          0.0126070073, 0.0119371917, 0.00821376406, 0.0328930765,
          0.0101857325, 0.0390508324, 0.0235919319, -0.0272591319,
          -0.0226001311, 0.00782431755, 0.0111758951, 0.0100240745,
          0.0062448387, 0.00569846621, 0.0331089795, 0.0259669479,
          -0.010107981, -0.0212061275, 0.0187278539, 0.0188513938,
          0.0147679206, 0.0196144115, -0.00259385235, 0.024137089,
          0.012562301, -0.0208282676, -0.0131794075, 0.0321982354,
          0.0623101369, 0.0234993938, 0.010634169, -0.00152955193,
          -0.0104565127, 0.00140250043, -0.0126541192, -0.00993439276,
          0.0136301965, 0.0108659118, 0.00656120246, 0.00144853536,
          -0.00301263761, 0.0138280587, 0.0128360381, -0.0096702883,
          -0.00859200954, 0.0295090806, 0.033220619, 0.00479356805,
          -0.00997333601, 3.9779261e-05, -0.00345326681, 0.000417075615,
          -0.0133588025, -0.0140583906, 0.0400099382, 0.0681155622,
          0.0230655856, 0.0041388711, -0.00109154673, -0.0170881506,
          -0.00814585201, -0.0192636177, -0.0193875674, 0.0436625108,
          0.066001147, 0.0200542081, 0.0174706895, -0.00653875293,
          -0.0181437936, -0.0111800767, -0.0206417181, -0.0210318584,
          0.0340416208, 0.047517024, 0.00747123361, -0.00644870522,
          -0.000183875032, -0.00836168975, -0.00895091146, -0.0333299227,
          -0.0250113346, 0.0225687306, 0.0386360995, 0.00579210185,
          -0.00939773768, -0.000920384016, -0.0068276627, -0.00510172313,
          -0.0369207487, 0.00321198953, 0.0455669947, 0.0743749812,
          -0.00356225343, 0.0116530089, -0.00361991511, -0.00814735517,
          -0.00766622229, -0.00178441987, 0.00844118372, 0.0290389583,
          0.0233968794, -0.00996438507, -0.0125067141, 0.00373328035,
          -0.0117498599, -0.0127415415, 0.00375621975, -0.00695300242,
          0.017136449, 0.0330105275, -0.0183862932, -0.0104499031,
          0.00333650853, -0.000825003954, -0.00253271824, -0.0166297331,
          -0.00231317966, 0.0141922347, 0.0182553604, -0.0265101139,
          -0.0203861073, 0.00553461351, -0.00140915439, -0.000879786443,
          -0.00944679044, 0.0103981784, 0.0254430175, 0.0252959784,
          -0.00447899709, -0.0120054884, -0.00139495416, -0.00834806077,
          -0.00681899721, 0.00783721358, -0.000481088879, 0.0146300988,
          0.0210604034, 0.00923528057, 0.0166835189, 0.00784292631,
          -0.00872658473, -0.00947984587, -0.000941299368, 0.00213700882,
          0.0214417502, 0.0242014918, -0.0231289435, -0.0355215743,
          0.00321551762, -0.00443117647, -0.000687046151, -0.00750205712,
          -0.00308322185, 0.0131335491, 0.0137996674, 0.0133929057,
          0.00976711791, 0.00403046887, -0.0156226829, -0.00638512149,
          -0.00852109492, -0.0195516963, -0.00709208054, -0.0053034462,
          -0.00486068008, 0.0236585531, 0.001346951, 0.0331664793,
          0.0113597903, -0.0216970928, -0.00474579306, 0.000379773875,
          -0.00919865817, -0.00201468822, 0.0133035164, -0.0070610214,
          0.0230768323, 0.0216304753, -0.00177602225, -0.00680835126,
          -0.00805823226, -0.00501646753, -0.00588289602, 0.0174266491,
          -0.00538463751, 0.00619490445, -0.00732462434, -0.00755336648,
          0.00130657491, -0.00233113929, -0.0118982429, -0.00162539142,
          0.0276678372, 0.00397159718, 0.0158042647, 0.00832651462,
          0.000599559222, -0.0101756286, 0.00238224003, 0.00288062147,
          0.0026626871, 0.0202645157, -0.00013972263, 0.00977655407,
          0.00260063983, -0.00483419653, 0.00058394036, 0.00901983771,
          0.00935166609, -0.0127957063, -0.010259347, 0.0224956442,
          0.0208811834, -0.000290724041, 0.00383745995, 0.00585701875,
          0.00148973113, 0.00195645494, 0.00206694216, 0.0361331441,
          0.00782401301, 0.00316510466, 0.00360618113, 0.00919002946,
          0.0146917915, 0.00335951569, 0.00577386236, 0.00675197085,
          0.0241508167, 0.0106316544, 0.00367037114, -0.00832185894,
          0.014258015, 0.0156325679, 0.0118647963, 0.011779638,
          0.00245547178, 0.00520324335, 0.00650895759, 0.0255749077,
          0.00321535859, 0.0164674576, 0.0175142474, 0.00954363029,
          0.0109505169, 0.00405151071, -0.00341413845, -0.00350560271,
          0.0299196932, 0.0117608132, 0.0177018736, 0.00555393519,
          0.0051603457, 0.00496061472, 0.0101570357, 0.0135001391,
          0.00762166688, -0.00435677264, -0.00745278411, 5.75501799e-05,
          -0.00161765039, 0.00246290164, 0.00553535717, 0.00651563425,
          0.0158924237, 0.00429458683, -0.00517573301, -0.0159757975,
          -0.00413082726, 0.0320766233, 0.0161540806, 0.0122428089,
          0.00725677935, -0.0127155641, -0.00104029337, 0.0172194485,
          0.00602677278, 0.0222451892, 0.0206720345, 0.0351974666,
          0.0420581847, 0.00683539547, -0.0173351076, -0.00114095921,
          -0.00199089316, -0.00299409428, 0.0198376998, -0.000521998096,
          0.00323913363, 0.00797746982, 0.00885794684, 0.0175089687,
          0.00457092328, -0.0044883755, -0.012783166, -0.00570065388,
          -0.00696698017, -0.00706739211, 0.0083079394, 0.00997472554,
          0.0158338901, 0.0052309758, -0.000234725827, -0.00223906082,
          -0.0166025404, 0.0280166604, 0.0383997001, 0.0466479287,
          0.00733738346, -0.00822065212, 0.00249315822, -0.000915668439,
          -0.00170767296, 0.0283999518, 0.00191486371, 0.0199765526,
          0.0295197219, -0.000842503214, -0.0102102077, -0.00155144755,
          -0.00295969076, -0.000782080868, -0.00137525611,
          -0.00344433449, 0.00219937321, -9.89530381e-05, 0.00930504873,
          0.0122647509, 0.00556327635, -0.000334905781, -0.000444005913,
          -0.013546668, -0.00908888411, -0.0051143975, -0.000167551247,
          0.00586281344, 0.015025652, 0.00242853817, -0.000214474785,
          -0.00367051852, -0.0183120519, -0.00228099199, 0.0146181304,
          0.0144133568, -0.00177435216, -0.00690335454, -0.0067832428,
          -0.00371300476, 0.000859640888, -0.0155444965, -0.00228814548,
          0.0107185794, 0.00698919175, -0.0312933177, 0.00392583385,
          0.00758322095, -0.000825566356, 0.00313632493, -0.000386190572,
          -0.0103105428, -0.00887773652, -0.00146202277, -0.00646013487,
          0.0211544931, -0.00471180631, -0.00279374467, -0.00585926557,
          -0.00172590069, 0.00561484601, 0.00729776034, 0.00369311916,
          -0.00136644242, 0.0391821861, 0.00607196148, -0.00692168437,
          -0.00169623748, 0.0051326463, 0.00221660896, 0.0236120801,
          0.0211666822, -0.0214829016, -0.0459423512, 0.00615158537,
          -0.0117209125, -0.00235189567, 0.00489119999, -0.00897333771,
          0.0103014922, 0.0129945222, 0.00511709414, 0.00387843,
          0.000984053127, -0.0177202933, -0.00688987272, -0.0105849318,
          0.00104763184, 0.014524933, 0.010981949, 0.00790207181,
          0.0167647041, 0.00303296559, -0.0163330212, -0.00598290563,
          0.00051480101, -0.00771922572, -0.00353803276, -0.0123446751,
          0.000354119169, 0.00108007144, -0.000109283676, -0.0167162698,
          -0.00700402772, -0.00653134752, -0.0113911284, -0.0118958484,
          -0.00557992747, -0.00758457556, 0.00479477458, -0.00740559399,
          -0.000385623658, -0.0106205866, -0.0126210591, -0.0116062053,
          -0.00815122016, -0.011361666, -0.00156820274, 0.0190566629,
          0.010685402, 0.00722338213, 0.00902624521, -0.00348926755,
          -0.00745466026, -0.0141991992, -0.00691030733, -0.00880107097,
          0.00672206189, -0.00863582641, -0.00646145316, -0.0119407615,
          -0.010088631, -0.00999268424, -0.0095147239, -0.0149862729,
          -0.00215237727, 0.0122962985, -0.00263021654, -0.0108168423,
          -0.00770401163, -0.0123099945, 0.00242061564, -0.00384416711,
          -0.00903330464, -0.000118384276, 0.0248110797, 0.00440604566,
          -0.00223653321, 0.00872913841, 0.0093831243, 0.0259654205,
          0.00417247787, -0.00695591234, 0.00298375892, 0.00956443138,
          0.00633543218, 0.0269154608, 0.0204075631, 0.0249674935,
          -0.0063380152, -0.00348487147, -0.0134319346, -0.000162421667,
          0.0197870955, 0.000629462069, -0.00903609395, 0.00167085161,
          -0.00403226819, -0.00479696272, -0.00492751645, -0.0165025145,
          -0.0019439857, -0.00339491782, 0.000941692735, -0.0123184295,
          0.000138402975, -0.00123572082, 0.0202838574, 0.00669927429,
          -0.000718822412, 0.0069402582, 0.0138386944, 0.00717752473,
          0.000686348067, -0.000491033134, 0.0180170685, 0.0126928007,
          0.00196806947, 0.000786745222, 0.00879664719, 0.0187856033,
          0.0102583738, -0.000770483981, -0.00736870803, 0.013451525,
          0.00343703106, 8.02048889e-05, -0.00669663213, 0.000766755431,
          0.0061647878, 0.00231539574, -0.00481510581, 0.000754449167,
          0.00305142533, -0.00842740666, 0.00270325015, -0.0043227179,
          0.00505890837, 0.00076083868, 0.00308616273, -0.0108026639,
          -0.0041263192, -0.00738561666, 0.0160496812, 0.00246877805,
          0.00464759115, 0.0100499876, 0.0159211513, 0.00793528743,
          -0.00129026908, -0.00283646397, 0.0167959463, 0.0193211157,
          0.0051062787, 0.0153280366, 0.0104020024, 0.0122045036,
          0.00696033519, -0.00597503642, -0.0051351455, 0.0172840897,
          -0.0101612974, 0.00517844781, 2.75465777e-06, 0.00496785203,
          0.00203003036, 0.00334298448, -0.00531168887, 0.00141133345,
          -0.0112655815, -0.010030508, 0.00369823002, -0.00485190004,
          0.00335437129, 0.00329973688, 0.00248661381, -0.00786277559,
          -0.00188619946, -0.0115323998, 0.0172530245, 0.00638579996,
          0.0104208915, 0.00852181111, 0.00748755317, 0.00281051733,
          -0.00581813138, -0.00247079646, 0.0148308147, -0.0220335256,
          -0.00611739652, -0.000527573808, -0.00076280412, 0.00629634084,
          -0.0282081868, -0.0193911027, -0.0285649169, -0.0274291039,
          -0.00868489873, -0.00136753358, -0.00927981175, 0.00287977327,
          0.00291978777, 0.00123729988, -0.00774263777, -0.00146263943,
          -0.00774482498, -0.00236258842, 0.00371864601, -0.00540565699,
          0.00289785094, 0.00552689703, 0.0013331573, -0.0120524764,
          -0.00488168607, -0.00352958869, -0.018359676, -0.00127853104,
          0.0149092609, -0.012084173, 0.0023413531, -0.0124652358,
          -0.0149745354, -0.0243202802, -0.0185317323, -0.00900311116,
          -0.0013058387, -0.0094370367, -0.00509160431, 0.0201098733,
          0.00147330551, -0.0163970068, -0.00976830535, -0.00651582191,
          -0.00207572989, 0.00501176994, -0.00955462083, 0.00188171724,
          -0.00139868748, 0.000125711071, -0.0170857236, -0.00735941855,
          -0.00409365911, -0.00810803287, -0.00306234951, -0.0150372088,
          -0.000880163512, 0.0192180108, -0.000833467988, -0.0212214291,
          -0.0103367334, -0.00834549405, -0.00128587568, 0.0209608749,
          0.0119373314, 0.0120730055, -0.0322444811, 0.00330878631,
          -0.0213473905, -0.00766875455, -0.00696821325, -0.01343094,
          -0.00625579152, -0.0147226099, 0.00109447609, -0.00562413735,
          -1.09700813e-05, -0.0168513171, -0.00790083595, -0.0136738652,
          -0.0126958881, -0.00820100307, -0.016040409, 0.000724342943,
          0.0171401724, 0.000202108422, -0.0225174129, -0.0138067165,
          -0.0111000426, -0.0157798398, -0.0061738845, -0.0136110159,
          0.00342559605, -0.00142890459, 0.000435381953, -0.020992728,
          -0.0117522394, -0.0157866571 ]
      - [ -0.0142029356, -0.00990138389, -0.0146684581, -0.00653301505,
          0.0198755786, 2.81849298e-05, 0.00211615302, 0.000830701087,
          -0.0134481937, -0.0235121511, -0.00750244409, -0.00130681996,
          -0.00220500259, 0.027546715, 0.000838100212, -0.00195063418,
          -0.000183765515, -0.0213348307, -0.00484420732,
          -0.000495363376, 0.00404661009, -0.00161897973, 0.0105830496,
          -0.00211829715, 0.000855002378, 0.00517896656, -0.0049078553,
          0.00689670304, 0.0449674428, 0.030740073, 0.0297371205,
          0.0258270688, 0.00458969735, -0.00107658631, 0.00532038324,
          -0.00959282462, -0.0170043185, -0.00730199134, -0.00586060854,
          0.000818692439, 0.0177971255, -0.00237723091, -0.00941246841,
          -0.0046564457, -0.0231757611, -0.0102463933, 0.000677527976,
          -0.000947708962, 0.00205146288, -0.0189175159, -0.0119866505,
          -0.0148010021, -0.0152647123, -0.0267775916, 0.0113770217,
          0.0355171785, 0.0317981951, 0.0151250744, 0.0173888057,
          0.00818889309, -0.00119500479, 0.0061161113, -0.00126715109,
          -0.00304199639, 0.0111524565, -0.00265539391, 0.0191056132,
          -0.0176824015, 0.00379289268, -0.00761623634, 0.00492641237,
          -0.0121313548, 0.00934170838, 0.0136803957, 0.0210106112,
          0.00279522571, -0.00731533207, -0.00029003431, -0.00204799161,
          0.000900701212, 0.0020799851, -0.00367322029, -0.00483588642,
          -0.00112455001, 0.00126872677, -0.0199861322, -0.000395802024,
          -0.00555638876, 0.0039522578, -0.0026549031, -0.0106215803,
          0.00899507664, -0.00576428697, 0.0136264432, -0.026810538,
          0.00868638325, 0.00950125698, 0.0122709163, -0.0128519181,
          -0.0397034176, -0.00868291594, -0.0201076325, 0.00850236602,
          -0.0482072048, -0.00192343316, -0.023328675, 0.00134777813,
          -0.0418180637, -0.00680638663, -0.00456308434, -0.00476572197,
          0.00335218338, 0.0208475739, 0.00293153711, 0.0108895302,
          0.0103374338, -0.00419988297, -0.0161420982, -0.00933075603,
          -0.013224585, 0.00491284253, 0.0252711233, 0.00209502829,
          0.0112784607, 0.0196084697, -0.0136764273, -0.0231160298,
          -0.0193740316, -0.0303055719, 0.0105473781, -0.00934412424,
          0.0075814575, -0.0309854839, -0.0034785883, -0.0249252878,
          -0.025383316, -0.0301748831, -0.0331383683, 0.0148549471,
          -0.0065046763, 0.00781297963, -0.00439446699, 0.0148018869,
          -0.0228895843, -0.0210264865, -0.011678461, -0.0159054436,
          0.00343780615, -0.00212751701, -5.45233743e-05, 0.0062851212,
          0.0146304127, -0.0189795513, -0.0209901575, -0.0065692747,
          -0.00918171648, 0.000714035355, -0.0343411528, 0.00423392188,
          0.00268578879, 0.00808975101, -0.0187132824, -0.0169469453,
          -0.0128014404, -0.041936554, 0.0114162015, -0.0637734458,
          0.000189415383, 0.0104936156, 0.0262029115, -0.0140074985,
          0.00349140633, 0.00162326533, -0.0242873095, 0.00793981832,
          -0.0723651424, 0.00991147384, 0.0171183161, 0.029406745,
          0.00705533754, -0.024916593, -0.0055003711, -0.0105763925,
          -0.0119554847, -0.029117601, 0.00333104911, -0.0180162918,
          -0.00742428564, -0.0154859414, -0.0195774697, -0.00614328589,
          -0.0111719156, -0.00911021419, 0.0183772743, 0.00162283052,
          -0.021872988, -0.0174029861, -0.0166767612, 0.0230260622,
          -0.0150922677, -0.0389837958, -0.00245143636, -0.0300123002,
          0.0147123933, 0.0280274749, 0.0372535549, 0.029597111,
          -0.00270247553, -0.0192706306, -0.0391648822, -0.0031116223,
          0.000848379335, 0.0186480749, 0.00647588819, 0.0184342414,
          0.0134052802, -0.0103820981, -0.0044103004, -0.00787934382,
          -0.0109747825, -0.0128969504, -0.00133013388, -0.0236156415,
          -0.0200386867, -0.016439693, 0.00478230556, 0.00203913078,
          -0.000880203326, -0.0130522735, 0.0136841545, -0.0135735255,
          -0.0134545723, -0.00993871782, 0.00287233293, -0.00889933575,
          -0.0213778764, -0.0346998945, -0.00621523848, -0.0110120187,
          0.0242510866, -0.0155048901, 0.0109549873, 0.00318089291,
          0.010195055, 0.00767120533, -0.000200750641, -0.0135617722,
          -0.0172905717, -0.00692381756, -0.0140577443, -0.00492605707,
          0.0100059574, 5.95497477e-06, 0.00540916622, 0.00690567354,
          0.00912953354, 0.00174826558, -0.00102693017, -0.00427158829,
          0.00712515367, -0.000410361303, 0.000820751186, 0.0361688696,
          0.0415163115, 0.022241205, 0.0140510183, 0.00738129625,
          -0.0113785481, 0.00323368679, -0.00494979182, 0.0017664975,
          0.0293627493, 0.0431973785, 0.0220067203, 0.0184800886,
          0.00217335369, -0.00952613074, -0.000518900109, 0.000162595054,
          0.0250401869, 0.00399075961, 0.0131977731, 0.00774317933,
          -0.0103785517, 0.0136218164, -0.016662756, -0.00785326026,
          0.00754116336, -0.00343232811, 0.0281388666, 0.0274322834,
          0.0161144976, 0.0018817716, 0.0136216981, -0.00400012219,
          0.00127636839, -0.0104450677, -0.00960122328, 0.00945799705,
          -0.00795465056, 0.0149375545, -0.0309251361, 0.0149409277,
          -0.0107702771, 0.00857339893, -0.00991364662, 0.00672325026,
          0.00278137275, 0.008356601, 0.0119004278, -0.000882848457,
          0.00661418121, -0.0321885385, -0.0117010856, -0.000439540541,
          -0.00291818753, 0.0302763227, 0.0234755855, 0.0195513945,
          -0.0470661186, 0.01618452, -0.0136316419, -0.0069176387,
          -0.00318612624, -0.00924462453, 0.0105385566, -0.00699022226,
          0.00950464047, -0.0112303011, 0.0125176534, 0.0101218922,
          0.0119372485, -0.00852082483, -0.017067926, -0.000914719305,
          -0.0270176008, 0.00610136334, -0.0358094126, 0.00846867822,
          -0.00405076751, 0.00306143006, -0.0191019699, 0.0242447183,
          0.0439205058, 0.0326034985, 0.0161792133, -0.0177534111,
          0.0137275867, 0.0064444025, 0.0141000701, 0.0161305554,
          0.0110772252, 0.0148145352, -0.00589714712, 0.00710887089,
          -0.0401254073, 0.0126724616, 0.0039767311, 0.0134577397,
          0.00998845696, -0.00812059827, -0.00489127962, -0.0223461948,
          0.00926539302, -0.015879197, 0.0120602697, -0.00740536582,
          0.00403479999, -0.00976349507, 0.00238942169, -0.00562437158,
          -0.0210916344, 0.00992186461, -0.0138596734, 0.00750263454,
          -0.0101900715, 0.00346644083, -0.00138489157, 0.0144247506,
          0.00165759353, 0.00237515592, 0.0084641492, -0.0251797289,
          0.013707554, -0.002751505, 0.0158225652, 0.0161944274,
          0.0112376735, -0.00915284362, -0.0176650006, 0.00355554675,
          -0.029654976, 0.00104584824, -0.00293502491, 0.00425233366,
          0.00535131199, 0.00338730868, 0.00148034201, -0.0120587843,
          0.00773586566, -0.0606470779, 7.84806616e-05, 0.00799396448,
          0.0132112382, 0.00567884138, 0.00473411055, 0.00616581691,
          -0.00811623316, 0.0114850923, -0.0404748917, 0.0104405656,
          0.0252535511, 0.0326357037, 0.011543463, 0.0260262936,
          -0.0168015324, -0.00801922567, 0.00192495505, -0.056522537,
          -0.011239944, -0.0342552364, 0.0100208875, 0.0224577785,
          0.0185454208, -0.0239929017, -0.0402700119, 0.00792269688,
          -0.0359702557, 0.0117748873, 0.0426353365, 0.0498055853,
          0.0233303718, -0.000489517639, -0.00502618076, -0.0330985636,
          0.00418082019, -0.0252335649, 0.00219190982, 0.0147202443,
          0.0245843995, 0.00558738783, 0.00112648401, -0.0108152777,
          -0.0329569802, 0.00218266342, 0.000877352548, 0.00669773901,
          0.0146412086, 0.0224607382, 0.0152213117, -0.00174343586,
          -0.0369579755, -0.0475264154, 0.000181906915, -0.0213815663,
          0.0195437912, 0.0415403917, 0.0450447835, 0.00450560125,
          0.000127261563, -0.0183665641, -0.0415712185, 0.00139248185,
          0.00631992426, 0.00011098152, 0.00424414687, 0.0107866097,
          0.0128646027, 0.00461926078, -0.00727616437, -0.0242081005,
          -0.00649490952, -0.0229662545, 0.0176231656, 0.017259974,
          0.0187711809, 0.0197464433, 0.0116366697, 0.0045459019,
          -0.0104826745, -0.0138471201, -0.0223624036, 0.00562763028,
          0.00039773935, 0.000319079583, 0.012273103, 0.00855302811,
          -0.0131452829, -0.0151727069, -0.0050099073, -0.0250965971,
          0.00401102332, 0.0139550166, 0.0230419654, 0.0282217953,
          0.0110475542, -0.00212398777, -0.00905121583, -0.0144230649,
          -0.00522154709, 0.0165203381, 0.0410358645, 0.0193596445,
          0.01394, -0.00549982907, 0.0353471711, 0.0315449312,
          0.0228361692, 0.0183885023, 0.00436792942, -0.0174186286,
          -0.00466138404, -0.00770049589, 0.0080814613, 0.0229175016,
          0.0208302308, 0.00990218204, -0.0192703176, 0.00809764396,
          -0.0148953572, -0.00510905497, -0.00202348316, -0.00615777448,
          0.0261877161, 0.0463609174, 0.0208608601, 0.0179388039,
          0.00147015974, -0.0223406963, -0.00715556974, -0.00786827132,
          -0.00883591268, 0.0169957634, 0.00843690429, 0.0109317368,
          0.00515485136, 0.00995673798, -0.0117387166, -0.00264520408,
          -0.0145356888, 0.0101187807, 0.0151978685, 0.0166253597,
          0.0105663948, -0.0157227833, 0.00210285466, -0.0202766173,
          -0.00462398818, 0.00138621207, -0.012810193, 0.0294545144,
          0.0168071929, 0.0133568514, -0.0459014177, 0.0102310814,
          -0.0137615921, -0.00309669226, -0.00654204376, -0.0169393495,
          0.00974115264, 0.00235017715, 0.0162366256, -0.00159563252,
          0.00156608596, -0.0121415043, -0.00347719039, -0.0163909551,
          -0.0210357141, 0.044628799, 0.0596117824, 0.0338406563,
          0.00256184069, 0.00787290558, -0.0182057247, -0.00326954108,
          -0.0174692813, -0.0134714087, 0.0367117003, 0.0408173874,
          0.0126859546, -0.0352687724, 0.0100217983, -0.00252327858,
          0.00281434436, -0.0140353153, 0.00123178796, 0.0128959259,
          0.00482496107, 0.00210720347, -0.0456395745, 0.00129167479,
          -0.0161264092, 0.00437455345, -0.00448977901, 0.00737423263,
          0.0547865853, 0.0635263994, 0.0238644294, 0.00159125542,
          0.00767349359, -0.00590873836, 0.000518773915, -0.00137329032,
          0.0177396685, 0.0380761996, 0.0335865915, 0.023511136,
          -0.0233907383, -0.00846769754, -0.0388744846, -0.0189380664,
          -0.00309240539, -0.000350555783, 0.00213913782, 0.0066505447,
          0.00578818936, -0.053075403, 0.00431215391, -0.0174521599,
          0.00914207567, -0.00112091238, 0.0110071637, -0.0116360206,
          -0.0186554939, -0.00152222754, -0.0608427227, -0.00165658502,
          -0.0126442341, 0.00117476564, 0.0112598808, 0.0108331274,
          0.0119990921, 0.0225905962, 0.0173832197, -0.0237192288,
          0.00944794063, -0.00386402104, 0.00219231215, 0.00567679759,
          0.00590993604, -0.0170115959, -0.0231603291, 0.00312484475,
          -0.0189853329, 0.0223289579, 0.0348006301, 0.0255335607,
          0.0120890141, 0.0120004658, -0.0204222444, -0.0307730474,
          -0.00749442587, -0.0532131903, -0.00772021851, -0.018828325,
          0.00483183702, 0.0144970296, 0.0102179274, -0.0215334594,
          -0.0417113565, -0.000698182906, -0.0213341452, 0.0153008541,
          0.0303110406, 0.0239071622, 0.0114080319, 0.000954153016,
          -0.0302796252, -0.0530056059, -0.0114155039, -0.0293727033,
          0.0332738981, 0.0289627854, 0.0346573181, 0.0186776798,
          0.00502171041, -0.00313508091, -0.0189235974, 7.91962229e-05,
          0.0115784546, 0.0208464861, 0.026915824, 0.0160327926,
          0.00649957126, -0.0107099209, -0.033502806, -0.0428986102,
          -0.000625618501, -0.00804235321, 0.0133054154, 0.0315366201,
          0.0173219722, 0.00206423458, -0.000133635142, -0.0154143954,
          -0.0339620374, 0.00310913334, 0.00237510633, 0.00414630817,
          0.0183018744, 0.0145497723, 0.0129003897, -0.0250805691,
          -0.0187341347, -0.0316380188, -0.00219069375, 0.00426852657,
          0.0173654947, 0.0308780931, 0.0127238231, -0.0158069376,
          -0.0230466556, -0.0225602239, -0.0277393013, 0.00750656566,
          0.0213038139, 0.0172324535, 0.00903273374, 0.0120629342,
          -0.0180133786, -0.0019880503, -0.0108889854, -0.0219428483,
          -0.00413956447, -0.0120625459, 0.00151776348, 0.0100302836,
          0.0110770669, 0.00662339665, 0.00330743124, 0.00167897984,
          -0.00115177967, -0.010901114, 0.00495252898, 0.0108555779,
          0.0314854831, 0.0220880732, 0.00500942208, -0.00948404334,
          -0.0236904826, -0.032157328, 0.00892554689, -0.0284227282,
          0.0279750917, 0.020986354, 0.0226550996, -0.00807969365,
          0.00191664451, 0.00168639515, -0.0118712671, -0.00310430746,
          0.0304300841, 0.0175627079, 0.0261062682, 0.0213971548,
          0.00220079464, 0.00198745169, 0.0118348543, 0.0379307754,
          0.0254519042, 0.0203377176, 0.00196147314, -0.0107257375,
          -0.00424092356, 0.00206349185, -0.00604911894, 0.00829003565,
          0.0164923538, 0.00969340745, 0.00707398215, 0.00154706906,
          -0.00640917616, 0.00090271025, -0.00467159459, 0.00149387191,
          0.00495625893, 0.00600941246, 0.0195913669, 0.0244781338,
          0.011769278, 0.0140533876, 0.00527818361, 0.00110848516,
          -0.00426370604, 0.00499920128, 0.00395265967, 0.00953822583,
          0.00898216199, -0.00366342976, -0.0142712947, -0.00319943344,
          -0.00582689699, -0.0178510454, 0.00335869682, 0.0194225609,
          0.0100508006, 0.0129058557, 0.00430148793, -0.0111171454,
          -0.0022070196, -0.0132509582, -0.0314575881, 0.0219081175,
          0.055986423, 0.022923734, 0.034855593, 0.0232872311,
          -0.0171462595, -0.014988604, -0.0278321076, -0.010248594,
          -0.00476715807, -0.003760583, 0.0040564076, 0.00993836392,
          0.0131144701, 0.00175920443, -0.00337955821, -0.00934367068,
          -0.0326970406, -0.0156354792, -0.0134411994, 0.0116672413,
          0.0261035953, 0.0495586246, 0.0104990108, -0.0087199444,
          -0.0330941342, -0.00633820705, 0.0400879085, 0.0726218894,
          0.0227439199, 0.0499459393, 0.0161020663, -0.0125730131,
          -0.00687592756, -0.011967185, -0.0156125408, 0.00286262785,
          0.0136608444, 0.0105566699, 0.00392544176, 0.00726635568,
          -0.0350502767, -0.0134269269, -0.0257027727, -0.0199829079,
          -0.00519284792, -0.00986539852, 0.00811793469, 0.0419868939,
          0.0379064158, 0.0323614441, 0.00868307892, -0.0259558521,
          -0.0257653221, -0.0249643289, -0.0487479605, -0.00126774132,
          -0.0108892061, 0.0167922657, -0.0110611385, -0.000540563196,
          -0.0252364613, -0.0185773652, -0.0040901457, -0.00216585374,
          0.0125879087, -0.00103922246, 0.0161958896, 0.00176158594,
          0.00338863349, -0.0223773606, -0.00987671968, -0.00814588461,
          -0.00951408222, 0.0129475165, 0.00902894512, 0.0250319503,
          0.0360851549, 0.0165733956, -0.00697033713, -0.0241291709,
          -0.0127365729, -0.0346112214, 0.0143184019, -0.0131643182,
          0.0140718063, 0.000790824997, 0.00819711667, -0.0172975268,
          0.00349035393, 0.0214001872, 0.0244692117, 0.0317920297,
          -0.00775402924, 0.00701912679, 0.00201901747, 0.0069171912,
          0.00200981856, -0.0201436672, -0.0087375436, -0.0185916629,
          0.00760386977, -0.0192789678, 0.0120760314, 0.00859823264,
          -0.000592132856, -0.0142451832, -0.00710689463, 0.00381308841,
          0.00169431604, 0.00986720435, 0.0182475522, 0.0174148213,
          0.0308857374, 0.0141518777, -0.00394427776, 0.00433836877,
          0.0320220254, 0.0245566163, 0.0259245615, -0.0102741001,
          -0.00370121165, -0.0174934845, -0.0123164272, 0.000196952155,
          0.00714869518, 0.039635513, 0.04051717, 0.0245287027,
          0.0122954268, 0.0118320575, -0.0133025991, -0.00823252741,
          0.00524348719, -0.0223298334, -0.010098936, -0.00685537327,
          -0.00258715474, 0.00619886117, 0.0137412418, 0.00574378483,
          0.00161864224, -0.0185851343, -0.0179250985, -0.0128291808,
          -0.00706846407, 0.0135654565, 0.0208790787, 0.016750088,
          -0.00767256925, -0.00503674103, -0.0135843959, 0.00441141427,
          0.0183692649, 0.0475422442, 0.0150437355, 0.0161224753,
          0.00356610981, -0.0223150533, -0.00920216367, 0.00256777671,
          0.0141292904, 0.019777339, 0.0275493544, 0.0174122006,
          0.0145332133, 0.000262590649, -0.0245299991, -0.0109298667,
          0.0167750232, -0.00173384091, -0.00522583071, -0.0128366193,
          0.0202499572, -0.0203124322, 0.0138488673, -0.012191738,
          -0.00983375218, -5.84907466e-05, 0.0150261391, 0.012679711,
          0.0105693815, 0.00619619712, 0.0307045095, 0.0103812069,
          0.00951636489, 0.00626763469, 0.0159512013, 0.0169525202,
          0.011322475, 0.015730476, 0.0243179332, -0.0114074955,
          -0.00321300025, -0.0263501033, -0.0136352358, 0.0171070285,
          0.0174031314, 0.0196828451, 0.0190293286, 0.00452727778,
          0.0134131601, -0.00748844817, -0.00287303794, 0.00114399509,
          0.0214509238, -0.00325201568, 0.00224789651, -0.000284988375,
          0.00310452189, 0.0257590115, 0.00917367265, 0.0275956858,
          0.0151670966, -0.00424321368, 0.00403653085, 0.00158397434,
          -0.0028904276, 0.00378285279, 0.0125013217, 0.00219810707,
          0.00576238614, -0.000953757088, 0.00149450323, -0.00205474929,
          0.00108181033, 0.00180309894, -0.00459899381, 0.0199255329,
          0.00520667946, 0.0337550789, 0.0224493854, -0.00232966058,
          0.00967435725, -0.00116323389, -0.0015388988, 0.00245282752,
          -0.0155225815, -0.0121859359, 0.00561821368, 0.0183242541,
          0.0141677549, 0.00148570049, -0.00418518437, -0.00999894552,
          0.000460875191, 0.0108533455, 0.00547205098, -0.00701914215,
          -0.00294635934, 0.00166844612, -0.0193716008, -0.0250293743,
          -0.04387559, 0.00459005823, 0.028290173, 0.0284767766,
          0.0378613099, 0.0155705493, -0.0181120522, 0.00554584945,
          -0.00416249689, -0.0110814916, 0.00133020745, 0.0121360263,
          -0.00565917278, 0.00398146175, 0.000822044094, 0.015533098,
          -0.0192925632, -0.0159603953, -0.0384959653, 0.000678791897,
          0.00869837031, 0.00368017005, 0.0146349994, 0.00754613429,
          -0.0155584747, -0.0125387041, -0.0135807861, -0.0319252722,
          0.00631931657, 0.0363559872, 0.0198062714, 0.0501214005,
          0.0298267528, -0.0112028653, -0.0185794309, -0.0105017414,
          -0.0345960967, 0.0111217862, -0.0103230607, 0.00999314617,
          0.00209638546, 0.00545971282, -0.0164029859, -0.00973733049,
          -0.00268894946, -0.0237609148, 0.0129936561, 0.0231978595,
          0.0095784599, 0.0366496965, 0.0273742303, -0.00747809513,
          -0.0145082241, -0.026167905, -0.0378675051, 0.00847851951,
          -0.00479882769, 0.005407691, -0.00818307325, 0.0116255721,
          -0.00788627565, -0.0220127888, 0.00658711744, -0.0050531025,
          0.0155514516, -0.00901472382, 0.00370391668, -0.01101855,
          -0.00391509617, -0.0217194967, -0.0014693673, 0.0196980461,
          0.025747519, 0.0230040904, -0.00893394928, -0.00193643768,
          -0.00543381739, 0.0104510505, -0.000324251771, -0.00884892233,
          -0.0026730278, -0.0180653855, 0.00337136374, -0.00757576665,
          -0.00141047942, -0.0162427146, 0.00787902158, -0.0101158489,
          -0.00278841192, 0.006583774, -0.000598578423, 0.00413336325,
          -0.00527975243, 0.000222590024, -0.0128184939, 0.00174462062,
          0.00270958873, -0.00358486199, 0.0179903712, 0.0134176137,
          0.0167621486, -0.0160682071, -0.00159275392, -0.00157101837,
          0.0039278348, -0.00642405311, 0.00337047433, 0.0455889776,
          0.0447438657, 0.0283823628, 0.01593755, 0.0010180315,
          -0.0253714602, -0.0108095333, -0.00200494006, -0.00559508055,
          0.004565279, -0.00275389617, 0.00218876102, -0.0336357914,
          -0.00147334498, -0.0103091393, -0.00489185983, -0.00597903831,
          -0.00282908045, 0.0267305076, 0.026452329, 0.0149905514,
          -0.00225995132, -0.00252095261, -0.0299529973, -0.00925637782,
          -0.00493718032, -0.00993386935, 0.0374720097, 0.0595168807,
          0.021776516, 0.0195557028, -0.00454024971, -0.0421280712,
          -0.0159609653, -0.0141586419, 0.0056765629, 0.0265441202,
          0.0285500009, 0.00904442836, 0.0148054063, -0.00538883312,
          -0.0216843653, -0.005451784, 0.00114267075, -0.0203346554,
          0.0285903104, 0.0337931402, 0.00677289302, -0.0138546452,
          -0.00245207665, -0.0465686098, -0.0135854641, -0.0247983709,
          -0.00755403191, 0.0296321753, 0.0231324565, 0.000699103752,
          0.0105448635, -0.002421604, -0.0195332598, -0.00439779833,
          -0.0125205312, 0.00436710147, 0.0139722554, 0.0221894365,
          0.0102879694, -0.0101769427, 0.00404673023, -0.00734030316,
          -0.00252813287, -0.0047639925, 0.00479916669, 0.0134672355,
          0.01700457, 0.00705597783, 0.0306469146, 0.00237230095,
          -0.00317245419, 0.000254336192, 0.00495439442, -0.0122543536,
          0.0233942661, 0.0177923739, -0.000531661324, -0.0331526585,
          0.00551947299, -0.0152024115, -0.00696773455, -0.0161839295,
          0.00148873869, 0.0166672617, 0.012655288, 0.00548003521,
          0.0178290103, -0.000824231654, -0.0138499178, -0.00381176569,
          -4.15711329e-05, 0.00331518613, 0.00148184341, -0.00039940502,
          -0.00216580136, 0.0279482678, -0.00183002057, 0.0426385961,
          0.017819291, 0.00392924156, 0.00881471299, 0.00475289952,
          0.00100234256, 0.00626105163, -0.0107699856, 0.000737502705,
          0.001276455, 0.00282222778, 0.0122501263, -0.00278243772,
          0.0015221067, -0.000808927172, -0.00537864957, 0.0123976991,
          -0.0168192405, 0.000230695936, -0.00247387728, -0.00253750919,
          0.00051320123, 0.00465048291, 0.00332880509, -0.000675501302,
          0.0329633206, -0.00523549831, 0.026858205, 0.0320582166,
          0.00471662683, 0.00202620449, -0.000322619308, -0.00336297858,
          0.00649119541, 0.035296049, -0.0105984677, -0.01781388,
          0.00195833435, 0.00699361553, -0.0185560435, 0.000187196943,
          -0.0136349667, 0.00557219563, 0.0150007699, 0.0108521236,
          0.0113687664, 0.00354713597, -0.0148691926, 0.00117846369,
          0.00187666132, 0.00415871339, 0.00325301685, 0.0402547792,
          -0.0169849452, 0.0162276682, 0.0171443298, 0.00614360441,
          -0.0132553317, -0.00891808793, -0.00796336122, 0.00566624664,
          0.0247846395, -0.0173496082, -0.0205461513, 0.0106534222,
          -0.0127620725, 0.00713936565, 0.00855799485, 0.0064490526,
          0.0245862938, 0.0275461152, 0.0169778243, 0.0241825152,
          0.0267253816, 0.00523386151, 0.00563249085, -0.0141621884,
          -0.0271293186, 0.00667465944, -0.00264694844, 0.00399005599,
          0.00579660013, 0.0179293584, 0.0100008268, -0.010568467,
          -0.000575551123, -0.00215092255, 0.0182389282, 0.019835664,
          0.0109083578, 0.000708515756, 0.0114989309, -0.0176046193,
          -0.0344593525, -0.0158316921, -0.0242341645, -0.00225960021,
          -0.00969610363, -0.00543013681, -0.0282346271, -0.0140643781,
          -0.0349891111, 0.00146425213, 0.00113738049, -0.021284543,
          0.00958516542, -0.00276889373, 0.00140925089, 0.00697120838,
          0.0143910926, 0.00185118197, 0.000274719234, 0.011404587,
          0.0175506976, 0.0105955377, 0.0172704961, 0.00455927802,
          -0.00595179945, -0.000836308755, 0.000836531341, -0.0457466841,
          -0.00747390231, -0.0112040928, 0.00911377557, 0.00656370167,
          0.00343483547, -0.0102410931, -0.0103589809, -0.0417192578,
          -0.0241518933, 0.00738515193, 0.00990724377, 0.0112728998,
          0.0228556078, 0.00651980238, -0.00511558494, -0.00780287199,
          -0.0228598211, 0.00983505137, 0.0216620825, -0.00120871735,
          0.0025165414, -0.0171148982, 0.000940359663, -0.0169597883,
          -0.00944148563, 0.0158922561, 0.0207878817, 0.0437609181,
          0.0321372449, 0.0104756486, 0.00110938086, 0.0135257235,
          -0.026677791, -0.00966248568, 0.0138122961, -0.0240571238,
          0.0106311459, 0.0102146259, 0.00381159876, -0.0161516238,
          0.00214491109, -0.0264498908, -0.0218986273, -0.0272399094,
          0.00433345838, 0.0154270912, -0.00394476997, 0.00498677464,
          0.000224780058, 0.0151765104, -0.0244164076, -0.0165475644,
          -5.83189758e-05, -0.012345708, 0.033910647, 0.0328627527,
          0.0198598932, -0.0132556995, 0.00967791118, -0.0362526663,
          -0.00956301671, -0.0180299059, -0.0105566345, 0.0298864115,
          0.0283933915, 0.00859258883, 0.0280280001, 0.00275373179,
          -0.018678546, -0.00227893749, -0.0127671128, -0.0288774278,
          0.00924221147, 0.0104043903, -0.00255790399, -0.00440841354,
          0.00662178127, -0.0362890698, -0.0221784338, -0.0252750088,
          -0.0198298991, 0.0175751988, 0.0210171845, 0.00629489776,
          0.0312605947, 0.00461669872, -0.0162971076, -0.00340924296,
          -0.0207110867, -0.00950974226, 0.0417759269, 0.026347857,
          0.0160112306, -0.0122821461, 0.011192481, -0.0125783039,
          -0.00108772714, -0.0120358765, 0.00667267153, 0.0203915909,
          0.0203935653, -0.00382167194, 0.00928214099, -0.000435801601,
          -0.00502198096, 0.000525130657, 0.00596960867, -0.0251537599,
          0.0243895799, 0.00712523423, 0.0104582384, -0.0253829844,
          0.00517735677, -0.0179295652, -0.00369752129, -0.0271989219,
          -0.00201927661, -0.00781076401, -0.017719347, -0.0146212177,
          -0.00336089195, -0.000800166745, -0.00695148902,
          -0.000715848641, -0.00237007532, -0.00156489061,
          -0.000769997248, -0.000909572875, -0.00713940943,
          0.00805418752, -0.0128798867, 0.000841574918, -0.00317018596,
          -0.00148564251, -0.000826923701, 0.00272901263, 0.00572651671,
          -0.00234589912, 0.0316456854, 0.00487998268, 0.0199695304,
          0.0346243009, 0.0145561425, -0.00184107665, 0.00049152557,
          -0.00456910813, -0.00733305654, 0.0154610695, -0.00232008006,
          -0.0075463173, -0.00282898196, -0.00204001833, -0.0100191263,
          0.00669066515, -0.000448669336, -0.0015445567, 0.0165881794,
          -0.00243560155, -0.000941360486, 0.00142447744, -0.00946438592,
          0.00264161779, 6.24325403e-05, -0.00318134716, 0.000231361482,
          0.0382903963, -0.00955543481, 0.0157578755, 0.030364437,
          0.0128834657, 0.0307031702, 0.00196750578, -0.0105072064,
          0.00310998363, 0.0216049254, -0.00740464032, 0.0102235023,
          0.0296361651, 0.0327297412, -0.0210279487, 0.0075542517,
          0.00118984678, 0.00338760787, 0.0333161317, -0.00701176142,
          -0.0094187744, 0.00397782214, -0.0146666914, -0.025839895,
          0.00340856705, -0.00751090981, 0.000566473405, 0.00867799297,
          -0.0181534924, -0.0241115317, -0.00408768328, -0.0215310548,
          -0.00464326609, 0.00152241578, -0.0106249256, 0.0121336272,
          0.0183364581, 0.00469425367, 0.00498820515, 0.0179549009,
          -0.00198831921, -0.0762202367, -0.00605284376, -0.020629257,
          0.00519268913, -0.0118981097, -0.00104754849, -0.0248909593,
          -0.0170332994, -0.0784000307, -0.00293361908, 0.00790355541,
          -0.00104438944, 0.00460022641, 0.0233363751, -0.00512967864,
          -0.00489064027, 0.0117546767, -0.00180106424, -0.0128451046,
          0.0137251643, -3.45923618e-05, 0.0115690501, -0.000338976446,
          0.000989120337, -0.0265894867, -5.32747654e-05, -0.0122570414,
          -0.0785348341, -0.000166263286, -0.00174340943, 0.0125623485,
          0.00322887162, 0.00810104422, -0.0246040132, -0.00944294874,
          -0.0745405853, -0.0121500678, 0.0173516944, 0.024253916,
          0.0159842763, 0.0105827106, 0.00562104583, -0.0106037343,
          -0.00961357728, -0.0104582151, -0.0158607382, 0.0141011747,
          0.00688178139, 0.0127448495, 0.0148704732, 0.00838508923,
          -0.00823156256, 0.00333079672, -0.0227865316, -0.0209835768,
          0.0212369319, 0.00432153279, 0.0122085204, 0.018785296,
          0.00771150459, 0.00635746587, 0.0117212785, -0.0245124865,
          -0.0178086944, 0.0177155454, 0.0169800837, 0.00969804171,
          -0.0269454215, -0.00782917254, -0.0300514828, -0.0217610598,
          -0.021463614, -0.00610918924, 0.0158185903, -0.00861167349,
          -0.000998402247, -0.0157651994, -0.00304445485, -0.0394707173,
          -0.0407919288, -0.0109370314, -0.032574527, 0.0168211479,
          -0.0014880232, 0.00419358956, 0.000201588147, 0.00098969799,
          -0.00067800784, 0.0073493314, -0.0320994481, -0.0268460065,
          0.0151889296, -0.00142274762, -0.00114081276, 0.00821296871,
          0.00354440813, -0.0173857622, 0.000935699616, -0.0285821725,
          -0.00302580907, 0.0202057362, 0.00936112832, -0.00529927434,
          -0.00534130959, 0.000859576219, -0.0268935971, -0.019832287,
          -0.00614527101, -0.0203266498, 0.0152383717, 0.00247240439,
          0.00696775643, 0.0406228378, 0.00401886366, -0.0117298607,
          -0.00107578398, -0.0239702053, -0.0375809669, 0.00201713131,
          -0.0274443626, -0.00836092327, 0.00182803685, 0.00148409291,
          -0.00790668558, 1.73028639e-05, -0.0391353928, -0.0445661061,
          -0.0151668629, -0.030659236, -0.004826691, 0.0364453495,
          0.00611525495, -0.000255661405, 0.00770218484, -0.045363646,
          -0.0150335673, 0.032695476, 0.00316629116, 0.0125394128,
          -0.0217577573, 0.00836779084, -0.0185132418, -0.00125934812,
          -0.0237077307, -0.00400592526, -0.00755702332, -0.0226751957,
          -0.0123457387, -0.00619075773, 0.0026177729, -0.00509874104,
          -0.000164585537, -0.00441780314, -0.0451214835, -0.0194404628,
          -0.0308786537, -0.00207444443, 0.00453815516, 0.00710524758,
          -0.00157446833, 0.00530185644, -0.0409237966, -0.0053475434,
          -0.00353271118, -0.0186785683, -0.0047324053, 0.0123095177,
          0.00726411585, 0.00209326041, 0.0077652121, -0.003042639 ]
      - [ -0.00457132608, -0.00882471353, -0.0191523526, -9.08438378e-05,
          0.0029133698, 0.000372247538, -0.0189205352, -0.00790486857,
          -0.00384497177, -0.00354112033, -0.00236653746, -0.00569440564,
          -1.58836647e-05, 0.00649433723, 0.000404127291, -0.0193433985,
          -0.00925402064, -0.00513308542, -0.00379859889,
          -0.000761640957, -0.00291188806, 0.00240321248, 0.00556579325,
          0.00159665814, -0.0169998221, -0.00661187526, -0.00369125442,
          0.0142118987, -0.0302516371, -0.0295819286, 0.031516172,
          0.0173234399, 0.00539674144, -0.0105312206, -0.00625622086,
          -0.00302039622, 0.00196941197, 0.002517808, -0.00849233195,
          0.000322352076, 0.0109623531, -0.000740132935, -0.0192948598,
          -0.00783313531, -0.00330639374, 0.0120345447, 0.00553558674,
          -0.0010099801, 0.00455595274, -0.00629648566, 0.000289711345,
          -0.0177820195, -0.00519486843, 5.31359219e-05, 0.0172766894,
          0.0129155852, -0.0141707845, 0.0117788175, 0.0123226028,
          0.00467715645, -0.0109417997, -0.00244251289, 0.00543464394,
          0.00886159111, 0.000997068826, -0.0114093591, 0.0164977275,
          -0.00028177342, 0.0159698538, -0.000943954627, 0.00962997414,
          0.00338673126, 0.0115009882, 0.00685652904, -0.00194611645,
          0.00485306466, 4.74908944e-07, 0.00147261913, -0.016744649,
          -0.00297809998, 0.00708224112, -0.00686527044, -0.000904906308,
          -0.0165086221, 0.00320047676, 0.000200500741, 0.00260531413,
          -0.0124935713, -0.000411327143, -0.00489103328, 0.00555201387,
          -0.0154985413, -0.0223933812, 0.0134039689, 0.00938064139,
          0.0132159581, -0.00276435399, 0.00677186996, 0.0079749506,
          -0.00438147644, -0.00761997327, -0.00955406483, 0.0111730546,
          0.0103815449, 0.0154055608, -0.00385279255, 0.00410886854,
          -0.00471202796, -0.0152158197, 0.00210773619, -0.0140232136,
          0.0022906689, 0.00106658845, 0.00264438125, -0.00433979509,
          0.00288246432, -0.0143149802, -0.0264729653, 0.00151713192,
          -0.0137000205, 0.00221626856, -0.000866236631, -7.93521176e-05,
          -0.00420651212, 0.00946829375, -0.0281396862, 0.00313773495,
          0.00486215437, -0.00221071043, 0.00825950224, 0.00363650243,
          0.0109152589, 0.00243188208, 0.00145307893, 0.00314048608,
          -0.00102324097, -0.00181716762, -0.0119405435, 0.0103396112,
          0.00276632002, 0.00508549204, 0.0148841375, 0.0115060704,
          0.000749398489, -0.0159053132, -0.00195457065, -0.0167261679,
          0.00315089128, 0.00136571354, 0.00176367071, -0.00524875149,
          0.00748913921, -0.0182944853, -0.00767545821, -0.00736038899,
          -0.0168143157, 0.00156143913, -0.00174775859, 0.00746619189,
          -0.00268009794, 0.00780467642, -0.00515432004, 0.00425625732,
          0.000375460775, -0.0132855177, 0.0117746713, 0.00222064322,
          0.00574705563, -0.0022229231, 0.00962455571, 0.00343113253,
          0.000634389056, 0.000152471184, -0.0110486606, 0.00734553346,
          0.00647903606, 0.0143141495, -0.00857581105, -0.00525745191,
          0.00476117525, -0.00800719019, -0.00266110897, -0.00706257205,
          0.000494477514, 0.00696156127, 0.00637452584, 0.00475074025,
          0.013392604, 0.00525393058, -0.0173324272, -0.00656550378,
          -0.00345869851, 0.00168918283, 0.0171467755, -0.00335610355,
          -0.0074460255, -0.000709179789, -0.00697321631, 0.0150381597,
          0.00916223228, -0.00221730839, 0.00613442017, 0.00131267239,
          0.0174264871, 0.000499125163, -0.000213117368, 0.0235531628,
          -0.0142786633, -0.00640989654, -0.00535123516, -0.00196313742,
          0.018791886, -0.00675980374, -0.0317396112, 0.00075803994,
          0.00744709792, -0.0119188158, -0.00364600099, -0.00348999281,
          0.00275645568, 0.0195513815, -0.00294528389, -0.00658557797,
          -0.00439769728, -0.00735488487, 0.00175315246, -0.00210190169,
          -0.00681966823, 0.00279495213, 0.0139889754, 0.000179413924,
          -0.00794426072, -0.0055223559, 0.000385127525, -0.0221465547,
          -0.00918418448, -0.00319025293, 0.0032074193, -0.0289192181,
          -0.0169932488, -0.0284076408, 0.0154324863, -0.00352744642,
          -0.0237114951, -0.00681649987, -0.0023942492, 0.00256246026,
          0.00637764763, -0.00895299483, -0.00675629778, -0.00436548702,
          -0.0227536876, -0.00170299632, 0.00739934947, -0.00337529695,
          0.00884154253, 0.0046325596, 0.00239934842, -0.0176438857,
          -0.00379628618, -0.00192748266, 0.00835614651, 0.0170477387,
          0.00115643255, 0.0209998582, 0.00794688426, 0.00795966387,
          -0.013378066, -0.00264711608, 0.00419737771, 0.00958398636,
          0.0329089724, 0.0489376038, 0.0232939608, 0.0158523358,
          0.0036208122, -0.0190448388, -0.0087578278, 0.00864948984,
          0.0458344892, 0.00461938046, 0.00519858999, 0.0200154725,
          -0.0273716841, 0.0154112503, -0.0147777442, -0.00666472875,
          0.0326933786, 0.0178385135, 0.0130637102, -0.0151151437,
          0.0112693124, 0.0190744083, 0.0102552287, 0.00116057275,
          0.00638274429, 0.0132580129, 0.0183262043, -0.0125962766,
          -0.0230519548, 0.0108396625, -0.0101896198, 0.0183186606,
          0.00688035181, 0.0156914387, 0.0204392653, 0.0365808271,
          0.00247927965, -0.00200668257, 0.00542758545, -0.00216333871,
          0.010360104, -0.00315753859, 0.00454730587, 0.0308074821,
          0.0467014052, 0.0128228292, 0.00425485801, -0.0047941911,
          -0.0252707116, 0.014203554, 0.0176476035, 0.0171318296,
          0.0482244305, -0.00172003056, -0.0188966673, -0.033635214,
          0.00912653375, 0.0118474085, 0.0145539632, 0.0114362258,
          0.0122382445, 0.00236514979, -0.0131479111, -0.0150061045,
          -0.0417085551, 0.00780806132, 0.0171510633, 0.0143773295,
          0.012426842, 0.0106188376, -0.0129607879, 0.0427384749,
          0.0156956445, 0.00502926018, 0.00987494085, -0.00117112021,
          0.013849684, 0.0239329524, 0.0225596242, 0.041579552,
          0.0114650223, 0.00234756572, -0.00749458605, 0.00656761928,
          -0.00131335121, 0.0147344414, 0.0371432006, 0.033034347,
          0.0114086773, -0.00348923588, 0.00629539508, 0.000330332317,
          0.00768765062, 0.0112502994, 0.0108767273, 0.00768850511,
          0.0066903457, -0.00353711285, 0.00111578032, 0.00228032027,
          -0.00201511034, 0.00795142725, 0.0092938859, 0.00612089178,
          0.00141854549, 0.000429330801, -0.00743309874, 0.00729431817,
          -0.0111597469, -0.0142227858, 0.0051617627, 0.00313299196,
          0.0125729209, 0.0260738116, 0.0256258212, 0.0137777803,
          -0.00402830308, -0.0287156217, -0.0303666871, 0.00418670755,
          0.00463933311, 0.00520531647, 0.024494445, 0.0170510728,
          -0.00872633792, 0.00986256823, 0.00433920231, -0.0026189487,
          0.00952615775, 0.00773159089, 0.00507972017, -0.00538584078,
          0.00184935809, -0.00470041251, 0.0055587329, 0.00580375455,
          -0.00178283977, 0.010262385, 0.01950044, 0.012283314,
          -0.00316853193, 0.0108465292, 0.00385188428, 0.0237249136,
          -0.0090567302, -0.00939911511, 0.00773939211, 0.00373934931,
          -0.00636332529, 0.0120783094, 0.000730753818, 0.00742638577,
          -0.0241869632, -0.00288756215, -0.00633340282, 0.0112903183,
          0.00691691041, 0.00164786424, 0.011656628, 0.0199059565,
          -0.0271380302, 0.0152669763, 0.00804254506, 0.00257642101,
          0.0110479705, 0.0093916012, 0.013587147, -0.00200285506,
          0.00279579591, 0.0193743724, -0.00165048568, -0.00589587446,
          -0.00794870779, -0.00195672549, 0.0215642508, 0.0085020205,
          -0.0168545377, -0.00404340867, 0.0111491736, -0.00942312088,
          0.00213162764, -0.00182047754, 0.011912507, 0.0109992977,
          0.0253254455, 0.0212516338, 0.0162417348, -0.00751651032,
          -0.00156162109, -0.00760545675, -0.0149333095, -0.000987122301,
          -0.00624233345, 0.00516411522, -0.00378367375, -0.0234938171,
          0.00744391978, -0.0146752754, -0.00270217983, -0.00452899328,
          0.00140505342, 0.0274327174, 0.0168152731, -0.00204076944,
          0.00555329956, -0.00336824614, -0.018483568, -0.00178199296,
          -0.00121012505, 0.00314599136, 0.00997266173, 0.00261272676,
          0.00170759053, 0.00610628305, -0.0182723794, 0.0136584472,
          -0.00173966202, -0.00903558731, 0.00213543489, -0.0167858768,
          0.00698701199, -0.00123015372, -0.0100085428, 0.0234189071,
          -0.010446704, -0.00303844805, -0.00553710572, 6.87837519e-06,
          0.0118483612, 0.0146931699, 0.0523866862, 0.0275533628,
          -0.00563519169, 0.00882707909, 0.0405628122, 0.0365729332,
          0.023890188, 0.019698292, 0.00640307693, -0.0168578625,
          -0.00671603857, 0.00716303475, 0.0274839718, 0.0196009502,
          0.00404049084, 0.00466078287, -0.024654571, 0.0103300195,
          -0.0135827679, -0.00548533956, 0.0194814205, -0.0463524386,
          0.0278889649, 0.0355416536, 0.0150303459, 0.0157537684,
          0.0110620325, -0.00960645545, -0.00351767149, -0.0473524071,
          -0.0439627171, 0.011580633, -0.00992231164, -0.0037747717,
          -0.00512793474, 0.0124188745, -0.00349310343, -0.00125356531,
          -0.0492139459, 0.0303055793, -0.00606171135, 0.00691972906,
          -0.00166358775, -0.0215147324, 0.00653172564, 0.00193306687,
          0.00593826128, 0.023972502, 0.026670007, 0.0183609147,
          0.00507562701, -0.00542236958, -0.0185696315, 0.0102678277,
          0.0172079857, 0.0173662212, 0.0298435148, -0.0142836301,
          0.00685198652, -0.0234316848, -0.00284054596, -0.00492817024,
          -0.00850551669, 0.00351181487, 0.00360178086, -0.0161543675,
          -0.0332927331, 0.0469894633, 0.0442736559, 0.00583379529,
          0.0408990756, -0.0126732402, -0.00172580266, -0.00245530461,
          -0.0408871993, 0.0265751202, 0.0158070307, 0.0203476418,
          0.00475270115, -0.0195800886, 0.0104398476, 0.0139062908,
          0.0138129313, 0.0289013106, 0.0312297009, -0.00910132844,
          -0.0242347214, -0.00256455922, -0.0541857854, 0.00725831604,
          0.0282031372, 0.0242784526, 0.0314274691, -0.00690048374,
          0.0404138528, 0.0358578339, 0.0141360676, 0.00663299579,
          0.00140305748, 0.00300710159, 0.0025768734, -0.0174906794,
          0.00563754654, 0.0149242682, -0.0156982057, 2.49113018e-05,
          -0.0402096026, -0.0109123262, -0.00919057894, -0.013996345,
          -0.00688402774, 0.0285223704, -0.0129295932, -0.0155466972,
          0.00160494156, -0.0196498726, 0.00365138752, 0.0117725441,
          0.0145894401, 0.0261936802, 0.0128815845, -0.0242000986,
          -0.031533815, 0.000503651507, -0.0172492005, -0.000854029378,
          0.021987034, 0.00282740733, -0.000157536429, 0.0106902644,
          0.0035286753, -0.0116221346, 0.00169447635, -0.0268428959,
          0.00425169244, 0.00317054731, -0.00817632023, 0.00824566558,
          0.00528437411, -0.0183151364, -0.0462100506, -0.00789392367,
          -0.0281615052, 0.00852691755, 0.0267842878, 0.0109276948,
          0.00823986158, 0.00954850484, -0.0116541423, -0.0196725894,
          0.00165800564, -0.0160102472, -0.00314106443, 0.0105078453,
          0.00179382344, 0.00563994749, -0.00343915005, -0.00177456765,
          -0.00634108018, 0.00325164152, -0.0207634475, -0.00961746834,
          -0.00349521311, -0.00593597535, -0.00722144824, 0.00701604411,
          -0.00982370228, -0.0373943113, -0.00649399823, -0.0236075036,
          0.0152885616, 0.0151581969, 0.0264244266, 0.0132403523,
          0.00618949346, -0.00694286684, -0.0168798622, -0.0115340333,
          -0.0104074311, -0.0242337156, 0.00675703632, 0.0219597518,
          0.00790630933, 0.00428233016, 0.00103706995, -0.00503927376,
          0.00609487901, -0.00634380197, -0.00400965661, 0.010942312,
          -0.000846595853, 0.0147299813, -0.00895690266, -0.00377251999,
          -0.013779466, -0.00429995079, -0.0194728412, -0.000719051226,
          0.00959619042, -0.00050143752, 0.0043487614, -0.000222747316,
          -0.0117646437, -0.0186882559, -0.0034209243, -0.000871860655,
          -0.0159775689, 0.0131746083, 0.0346870162, 0.00459741428,
          -0.030961534, -0.0172616541, -0.0254062861, -0.00022728178,
          -0.0137019418, -0.0096015688, -0.0118779521, 0.00489644846,
          -0.0244154427, -0.0121120177, -0.00404000236, -0.00627193786,
          -0.000908269431, -0.0323579498, -0.000435012567, 0.00239534373,
          0.00762897963, -0.00358278374, -0.00909863506, -0.00648372853,
          -0.00407959847, -0.00240339246, 0.00919713918, 0.00867296197,
          0.0290590767, 0.0218745284, -0.00464077573, -0.0285124313,
          -0.0126541499, -0.0214593634, 0.00807779282, -0.0260993224,
          0.00970696751, -0.0110200979, 0.00410921825, -0.0229106862,
          -0.0158902872, -0.0045103156, -0.0121995714, 0.00291298283,
          -0.0131303808, 0.02579882, 0.017163679, 0.0111708837,
          -0.0218485501, -0.0374341682, 0.0147172483, 0.0375204235,
          0.0210649371, 0.0243712496, 0.0224707816, 0.0156842805,
          0.00735937199, -0.0357993208, -0.046288006, 0.0100319386,
          0.0105554517, 0.00752980215, 0.0228863377, 0.0140231717,
          0.0186168849, 0.0111124497, -0.0469974764, -0.0420371927,
          0.00676200725, -4.67663194e-05, 0.0197556559, -0.00147025776,
          0.0237622429, 0.0369805917, 0.00596949598, -0.0426919125,
          -0.0431584083, 0.00824266952, 0.011420927, 0.0172847975,
          0.0188938193, 0.0117504802, -0.00210327562, -0.00519583886,
          -0.0453070365, -0.0505741946, 0.00914754625, 0.0163734499,
          0.00851852912, 0.0333142355, 0.00265651755, 0.00736085139,
          0.00606505619, -0.0484090634, -0.0783834755, 0.0323911831,
          0.0534228832, 0.0206549615, 0.0675499439, 0.0108422255,
          0.0140523184, 0.000839146203, -0.0797742829, -0.0540423468,
          0.0027452698, 0.00200071931, 0.00818821136, 0.0412698165,
          0.0115638953, 0.00712074013, 0.00273623457, -0.0546729155,
          -0.0811616331, 0.00602614507, 0.0135131767, 0.0188117195,
          0.0603804886, 0.0348450802, 0.0566161089, 0.0121459523,
          -0.0828476474, -0.0707840696, 0.0359568447, 0.056168966,
          0.0203480534, 0.0609459914, 0.0129306912, 0.0155939087,
          0.00187584967, -0.0761285201, -0.0573605336, 0.0228421092,
          0.0403804742, 0.0162785035, 0.00166748487, 0.00862645544,
          0.0034038946, -0.00651737442, -0.0642329976, -0.0765624344,
          0.00707315002, 0.0171031691, 0.0148571162, 0.0731194913,
          0.0339102782, 0.0657904372, 0.0285751242, -0.0758661777,
          -0.0587623715, 0.00759840291, 0.0152221359, 0.019183008,
          0.0448251441, 0.0219379514, 0.0577161871, 0.0250854176,
          -0.0535159595, -0.0365769044, 0.00165323366, -0.00634629326,
          0.00826095045, 0.00141952327, 0.0150895361, 0.0116452156,
          6.92075482e-05, -0.0359042697, -0.0176175144, -0.0154998153,
          -0.0374560058, -0.00214235787, -0.00816050544, 0.0246296134,
          0.0423630588, 0.0215472281, -0.0131758964, -0.0376363471,
          -0.00190904585, 5.71134387e-06, 0.0207736269, 0.0363091379,
          0.0172890294, 0.0405008942, 0.0230085813, -0.0348355323,
          -0.0240009148, 0.00197720504, 0.0290680248, 0.0287832897,
          0.0357303731, 0.0153629156, 0.0255235508, 0.0194641259,
          -0.0187310018, -0.0159627292, -0.0137212668, -0.0440623313,
          -0.00131287507, -0.0115904212, 0.0153659089, 0.0330467224,
          0.0207974743, -0.0147696007, -0.00643490022, -0.0150904572,
          -0.0283505097, -0.00816547126, -0.00293890201, -0.00113723846,
          0.0278774668, 0.0257483423, -0.00132402324, -0.0196875706,
          0.0021056761, 0.0111092562, 0.0259341281, 0.0226807743,
          0.0145624112, 0.016442284, 0.00867564883, -0.015913872,
          -0.0147983199, 0.0069619515, 0.00595188513, 0.0189009234,
          0.0133404899, 0.0150656449, 0.00741869397, 0.00194451166,
          -0.0103426008, -0.00609613489, -0.00865263119, -0.019998746,
          -0.00922841392, -0.00253866846, -0.0014625357, 0.0259225238,
          0.0178317223, -0.00321371714, -0.016264122, -0.00916939508,
          -0.00985423848, 0.00306029175, -0.0226331986, -0.00160043174,
          -0.000274146762, 0.00447040051, -0.0097283395, 0.0120487753,
          0.0067472118, 0.0179111026, 0.00644909777, 0.0134024331,
          0.0107818805, 0.0010813917, -0.000176914182, 0.0127510764,
          0.00488571078, 0.00805868208, 0.00476228492, -0.00883279555,
          -0.0166036058, -0.00645410968, -0.0105999159, -0.00200449023,
          0.00401480962, -0.0023272289, 0.00629172195, 0.00457195425,
          0.0183367506, -0.0426662266, 0.0106301196, 0.00153065019,
          0.00212327018, 0.00378567912, -0.0135125611, 0.015688248,
          0.00627383729, 0.0122490944, -0.0274178367, 0.0221767575,
          0.0125594949, 0.00147789589, -0.0119698653, 0.0171173364,
          0.0199194197, 0.0147964228, 0.0085326042, -0.0431571901,
          -0.000897023536, 0.000220994159, -0.00118917355, 0.0141416173,
          -0.0102640446, 0.0303219408, 0.0133305555, 0.0145572973,
          -0.0237544756, 0.0137111703, -0.00667581661, -0.00643725833,
          -0.00426944066, -0.0305968206, 0.00297592417, -0.0025543666,
          0.00691322284, 0.00157931913, 0.00433656434, 0.0181280598,
          -0.0200127624, -0.0423427001, -0.030233549, 0.00491982419,
          0.00585032534, 0.0122503974, 0.0110331085, -0.00328984438,
          -0.0342022814, -0.0362112783, -0.0390285291, 0.000446482387,
          0.000126958432, -0.0029775186, 0.00109755446, 0.0262219366,
          0.0202092342, 0.0347276665, 0.00967228413, -0.0147873806,
          0.0159698501, 0.00414626859, 0.00387698389, 0.00598421134,
          -0.00338606816, -0.0108121736, -0.0225531198, -0.0150098018,
          0.00939521194, -0.0313492864, 0.00235961936, 0.00293346727,
          0.00674982276, 0.0412315801, -0.00394471362, -0.0307273511,
          -0.0215081256, -0.0349880643, -0.0503456332, 0.00389267923,
          -0.00202593161, 0.0155009981, 0.0409889407, 0.000172301909,
          0.0254901852, 0.00475114491, -0.0630110055, 0.00318432972,
          0.00383333606, 0.00534277502, 0.00588687696, 0.0300650466,
          -0.0188297145, -0.0226582829, -0.0155353071, 0.00546637923,
          -0.0218458492, 0.0106623573, 0.00188696675, 0.0148843126,
          0.042182751, -0.0147428783, -0.00961586833, 0.00074881356,
          -0.0285340492, -0.0502616726, 0.00402515521, -0.000944213476,
          0.0126031935, 0.0437583029, 0.00760517456, 0.0319628045,
          0.0176959559, -0.0494160876, -0.0363043398, 0.00472145434,
          0.013324799, 0.0167865548, 0.0176731851, 0.00268052635,
          0.0442351997, 0.0433159247, -0.0311187133, -0.0111762714,
          0.00897108018, 0.000720837153, 0.0153562911, 0.0180725884,
          -0.0193475652, -0.00812103041, 0.00350081595, -0.0108972508,
          -0.00104088464, 0.00184362917, 0.00401059026, 0.0126782414,
          -0.00203112303, -0.0141969165, 0.00507709477, 0.0174841061,
          0.0059065274, -0.0357597396, -0.0072184396, 0.0117385359,
          0.0185642857, 0.0141258147, -0.00263454299, 0.0262713432,
          0.0246275533, -0.0355591327, -0.0279237758, -0.000282330147,
          0.0297390576, 0.0265359543, 0.0263058096, 0.00380712282,
          0.0167661346, 0.0184721444, -0.0258479491, 0.00524014002,
          7.15564602e-05, 0.00654426357, 0.00959353428, -0.0179114714,
          -0.0267859437, -0.00702616014, 0.0167192854, 0.00579755148,
          0.0109976819, 0.0198718552, 0.0257259123, 0.011701839,
          0.000274765887, -0.000358631311, 0.00296505191, 0.00799435005,
          0.0210759453, -0.0267438069, 0.00751923956, 0.0140683986,
          0.0290096868, 0.023132259, 0.00660045492, 0.00558839133,
          0.00577689102, -0.0221349988, -0.0206890777, 0.00246015517,
          -0.00532267382, 0.0340585858, 0.0200670473, 0.00584594859,
          -0.0256105531, -0.0101095336, -0.0280475356, 0.00103855785,
          0.0224795993, 0.0261276029, 0.0122391991, 0.00853727106,
          0.00434509059, -0.0053660823, -0.00019795078, 0.00782923866,
          -0.00161294674, 0.020634681, 0.0176059976, 0.0199789442,
          0.00862377416, 0.00605664402, -0.0176830851, -0.00441793771,
          -0.00866694935, 0.00523216836, 0.00802394375, 0.0105263041,
          0.0238121916, 0.037024904, 0.00534610869, -0.0176885258,
          -0.00641583744, 0.00664318586, 0.000429022446, -0.00830663368,
          -0.028254861, -0.0155723644, -0.0207456723, -0.00931586139,
          -0.0187863614, -0.00325699616, -0.00116093934, 0.0126255592,
          0.0185615346, 0.0127142351, 0.0199415404, 0.0253322646,
          0.0124851279, -0.00800980069, -0.000684415165, 0.00573708443,
          -0.0024876832, -0.0104891267, -0.00907368306, -0.00358949462,
          -0.016607061, -0.00473948289, -0.0186183304, -0.00216515223,
          -0.00840876158, -0.00720951613, -0.00261874148, -0.0218223277,
          -0.00429630326, -0.02643805, -0.0093810698, -0.0130031109,
          -0.00378489378, -0.0125544854, -0.0159074664, 0.0199373327,
          0.0192726888, 0.0169013124, -0.0118917804, 0.00980951358,
          -0.0151191289, -0.011902391, -0.0152625022, 0.00248076487,
          0.00904002227, 0.000800565409, 0.00483193435, -0.028263934,
          0.00210896018, -0.0172562785, -0.00315954653, -0.00719462242,
          -0.00151105772, 0.0200012922, 0.0276301932, 0.0189283192,
          0.00652020145, 0.00215880945, -0.0172639564, -0.0087996861,
          -0.00535524311, 0.00227240729, -0.00261472235, -0.0101124756,
          -0.00101668574, 0.0257930774, 0.0170375649, 0.0484065972,
          0.0172897298, -0.000122349302, -0.0111994334, 0.00304174284,
          -9.17887373e-05, 0.00262173684, -0.0323355421, -0.0121176643,
          -0.0126093971, -0.0126393121, -0.00120621058, -0.0065822117,
          -0.00373874116, -0.0128873987, -0.000733180786, 0.0190117806,
          0.00270861736, -0.00172899314, 0.00509857759, -0.00635875063,
          -0.00534664933, -0.00130616943, -0.00927497819, 0.000703157508,
          0.0134720989, -0.00655327272, -0.0138370357, 0.0165180638,
          -0.00163430942, -0.0168140717, 0.00281873206, 0.00559151545,
          0.0072049466, 0.0277799889, -0.0119482726, -0.0208414048,
          -0.0034763955, -0.0099788066, -0.0111351684, 0.00518283201,
          0.00392865948, 0.0163410511, 0.035238035, 0.00310364831,
          0.00115686422, 0.0175921191, -0.0115888882, -0.0121774506,
          0.00134886021, 0.00204691174, 0.00486511691, 0.0386671871,
          -0.00107633614, -0.0123643149, 0.00556673808, -0.00680173514,
          -0.00664506014, 0.00215472328, -0.00267887698, 0.0151152089,
          0.0236869659, 0.00643568346, -0.0110454485, -0.00616976572,
          -0.00830165856, -0.0101084849, 0.00642982405, -0.00296865753,
          0.022532627, 0.0095359385, -0.0120899025, 4.04499724e-06,
          0.0227179974, -0.0141628049, 0.0250545181, 0.00322346273,
          -0.00905025192, 0.0164377037, -0.0104583045, -0.0114812702,
          -0.00439616479, 0.0172194, 0.0270085298, -0.00852162763,
          0.00179383694, -0.0139695564, 0.0202017911, 0.00696718041,
          0.00588191021, -0.020787349, -0.00546537619, -0.0155635038,
          0.00519455364, -0.0041923942, -0.016894443, 0.0129811717,
          0.00968483835, 0.00577840675, -0.0166149102, -0.00346660358,
          0.00778150093, 0.021597378, 0.00215012766, -0.0166535489,
          0.0134000294, -0.0335722864, -0.019669598, -0.0103266193,
          0.00588750653, 0.023776086, 0.0555525869, 0.0253501907,
          0.027632473, 0.0125091951, -0.0136853624, 0.00034218884,
          -0.0114648221, -0.002906651, 0.0568118915, -0.00325472443,
          -0.00863524526, -0.0143977711, 0.0123430081, -0.00190338632,
          0.00277037569, -0.0052147815, -0.00757249026, -0.00132705213,
          0.00400260743, 0.00126518169, 0.00793346483, 0.0101708295,
          0.00469640456, 0.00482922327, -0.00955252815, -0.00584576465,
          0.00461505679, 0.048463311, 0.0323972665, 0.0227812603,
          0.0120215463, 0.00761902099, 0.00766931195, -0.0124987438,
          -0.00335524697, 0.048615858, -0.0105587188, 0.0377653316,
          0.0151855489, 0.014842377, 0.0163646005, 0.0174837839,
          -0.010211844, -0.00608364865, -0.0170552228, 0.000961189333,
          -0.00315576349, -0.0187965054, 0.0119282259, 0.00773627125,
          0.0105428956, -0.0119781373, -0.00257302215, -0.00274684769,
          -0.000497935282, -0.00607904652, -0.0154107874, 0.0147965271,
          0.0152045358, 0.0204011425, -0.00644589169, -0.00442944327,
          -0.00582499849, -0.00605509942, 0.0202585217, 0.00965456665,
          0.0274437182, 0.0239850096, 0.0173628591, -0.00202338165,
          0.00163897569, -0.01304725, -0.0184431151, -0.00637852028,
          -0.0084570637, 0.00962975807, 0.00605258578, -0.000366625551,
          -0.0161199663, 0.00193267746, -0.0197457541, 0.0169793032,
          -0.00494988728, -0.00669225166, 0.0150464131, 0.0318100601,
          0.0138636082, 0.00157661515, 0.00219670427, 0.0163316354,
          -0.00348335109, 0.000823522278, -0.0144943083, 0.00311246421,
          0.0311624203, 0.00214130082, -0.00495998934, 0.00241991784,
          -0.00728228036, -0.0219570547, 0.00382323656, -0.00314090354,
          0.017171599, -0.0176347904, 0.00814578123, -0.0114463633,
          0.00102039753, -0.0233246665, -0.00124588108, 0.0260052644,
          0.0397984907, 0.010435557, 0.00324955443, 0.000793719257,
          -0.0202241708, -0.00790583156, -0.0041716788, -0.0103929313,
          0.0129964547, -0.00782833528, 0.0158394631, 0.0320909247,
          0.00365244364, -0.00939833652, -0.00325460802, -0.00799470302,
          -0.0133370617, -0.00275075296, -0.0108934194, -0.00154705159,
          0.00832514372, 0.00102086167, -0.0205429289, -0.0126580633,
          -0.0133303208, -0.00353680202, -0.00760672381, -0.0176311843,
          0.000164771976, 0.00719154254, -0.000235714062, -0.00987939909,
          -0.00342709408, -0.00387087278, -0.015070281, -0.0065214904,
          -0.0121962922, 0.00164880429, 0.00920792669, 0.0262054522,
          -0.079337731, 0.022709785, 0.000539220637, -0.00344593497,
          -0.00615598168, -0.0173866302, 0.00217462843, 0.00716973189,
          0.00184836693, -0.0174319167, -0.00703204935, -0.00386464549,
          -0.00476918509, -0.00615475001, -0.0171274357, 0.00277783908,
          0.0137050012, 0.00314437482, -0.00727356737, -0.0021790762,
          -0.00191741507, -0.0177876931, -0.00350207812, -0.0137366978,
          0.00136322062, 0.030467974, 0.00743856793, -0.0168090183,
          0.011714844, -0.00843089633, -0.00359167368, 0.00502617471,
          -0.0140923355, 0.00831108075, 0.0236817393, 0.0134281358,
          -0.0121333478, -0.00671183784, -0.00211502076, -0.00573156215,
          -0.00220263936, -0.0164855886, 0.0019997824, 0.0247064941,
          0.00255531026, -0.0076361238, 0.00695265736, -0.000202908544,
          -0.00129144872, -0.00138830952, -0.0167179313, 0.00285989977,
          0.00851608813, 0.00364102446, -0.00422130758, 0.0125864642,
          0.0029737365, 0.000404811261, 0.00402798317, -0.0180476103,
          0.0148027977, 0.0134550398, 0.0129933394, -0.0265146736,
          -0.0125261582, -0.00201357552, -0.00539995031, -0.00452043116,
          -0.0165665671, 0.0163941123, 0.0155126518, 0.0151005527,
          -0.00761077413, -0.00954927225, -0.000315606536, 0.00937818829,
          -0.000888397743, -0.0174615607, 0.00530029461, 0.00860620849,
          0.00603579078, -0.00618875679, 0.0103604924, 0.00797904283,
          -0.0117264288, 0.00253081974, -0.0133420592, 0.0116994567,
          0.00124847051, 0.00807978585, -0.0147256181, 0.000120299403,
          -0.00752553018, 0.00399289001, -0.00638929754, -0.0115580745,
          0.0151656168, 0.00522155408, 0.0112611977, 0.00203116471,
          -0.00255053234, 0.00802373234, 0.0102285193, 0.00754266605,
          0.0132999383, 0.0138301216, 0.00563684199, 0.00729960017,
          -0.00948786084, -0.00271078176, 0.0117779886, -0.0143478261,
          0.00277386815, -0.00864909496, 0.0103254691, 0.0026155964,
          0.00715743797, -0.0129794413, 0.000882981112, -0.0164209735,
          -0.0209772401, 0.00943414588, -0.00957965106, 0.0069884737,
          0.00684218854, 0.00378206489, -0.0110134864, 0.000306112139,
          -0.0196813997, 0.00940058287, -0.00538910553, -0.014904202,
          0.0150459902, -0.00208298094, 0.00789963361, -0.0136930458,
          0.000848920259, 0.00557801453, 0.0227038208, -0.00959949661,
          -0.0191260707, 0.0141146071, 0.0134266857, 0.0116470456,
          -0.00910402834, 0.000159518095, 0.0173645765, -0.0130645148,
          0.00661085825, -0.0130451275, 0.00896908436, 0.00477313157,
          0.00418332871, -0.0151200769, 0.000354088173, -0.0102764238,
          0.00171210628, 0.00980706979, -0.00388233364, 0.00836836919,
          0.00642489269, 0.00494875154, -0.0130899772, -0.00145449117,
          -0.000104619176, 0.0272647254, -0.00961379707, -0.00974448584,
          0.0148278167, 0.019088963, 0.0117143318, -0.000805207354,
          -0.00214779237, 0.0203043111, 0.00862307008, 0.0011815076,
          -0.0235510673, 0.00302900467, 0.0272916537, -0.00057620951,
          -0.0144395055, -0.00768799055, 0.0116449017, 0.0067938515,
          0.0127093978, -0.00244436529, 0.00831408147, 0.00558462273,
          0.00432181172, -0.0115470951, -0.0043210201, -0.000261694455,
          0.000444023666, -0.00585176609, -0.0153095014, 0.00231015426,
          0.0219960697, 0.000569368072, -0.015024771, -0.00838011503,
          -0.00279768952, 0.00894158334, 0.0288571361, -0.0139670335,
          0.0142984884, -0.000478671544, 0.00364123913, -0.0188392438,
          -0.00720420619, 0.00775116263, -0.0135494098, -0.0156334322,
          -0.0186525322, -0.00107324682, 0.00487967627, 0.00263257069,
          -0.0207907874, -0.0197375007, -0.0144687714, -9.64653955e-05,
          -0.00433842046, -0.0110896397, 0.00628317567, 0.027711872,
          0.00354476064, -0.0121053029, -0.00336989947, -0.00104297698,
          -0.000636603043, -0.00505803572, -0.0149532678, 0.00917595997,
          0.0115485545, 0.0069094114, -0.0170792919, -0.00283928984,
          3.16010046e-05 ]
      - [ 0.00347000454, 0.0117638614, -0.0032162678, -0.0061563421,
          0.013395234, 0.00691155763, 0.0133447284, 0.0181553643,
          0.0028582185, -0.00753389066, -0.0114923744, -0.00221417146,
          -0.00139503775, 0.0191531982, 0.00546679087, 0.0208528023,
          0.0164654292, -0.00493772654, 0.0254937652, 0.0142425615,
          0.00517084636, -0.00353390537, 0.0170103703, -0.00275125611,
          0.00795480143, 0.0206089299, 0.0247110967, 0.0302456766,
          0.00604325254, -0.00269820169, 0.00238305307, 0.00680816639,
          -0.00137598615, 0.0187014528, 0.0219648089, 0.0243708193,
          -0.0148065127, -0.0218995605, -0.00955276471, -9.34441632e-05,
          -0.00154284923, 0.00203021057, 0.0148281688, 0.00926639047,
          -0.0131494123, -0.0296145771, -0.0195232853, -0.015167865,
          -0.00457230816, -0.0219067317, 0.000742216129, 0.0122236451,
          0.00121781067, -0.0338018723, 0.0226862449, 0.00901125278,
          0.0166664608, 0.00568354502, 0.000633287476, 0.00475981412,
          0.0152450539, 0.0128257405, 0.0144053698, -0.00257035182,
          0.00614819536, -0.00582010439, 0.00618332578, -0.0289029311,
          -0.0012729686, -0.000748915365, 0.00192101346, -0.0163210519,
          -0.018149199, -0.00609645853, 0.00276561338, -0.00422235159,
          -0.0367661491, -2.79140677e-05, 0.00297304802, 0.00456005521,
          -0.0176784303, -0.0212902222, -0.0179934688, -0.00629410427,
          -0.00347278407, -0.05061334, -0.00041769183, -0.0107602207,
          -0.000987043837, -0.0184639785, -0.00530074909, 0.00696024718,
          -0.00809974875, 0.0028265873, -0.0474478081, -0.00631377986,
          -0.00188421085, 0.004169886, -0.0124354055, -0.0400576368,
          -0.0149880508, -0.0269010309, 0.000651900074, -0.0568037182,
          -0.00941578578, -0.0263952352, -0.00249397079, -0.0430931859,
          -0.0258040875, -0.0156331044, -0.01124385, 0.000770727638,
          0.00963051058, 0.000844696246, 0.000957039301, 0.00484231254,
          -0.0209757667, -0.0348446704, -0.0266994685, -0.0258842632,
          0.00127312902, 0.0128270937, 0.000768900733, -0.000632222102,
          0.0101849586, -0.0311810803, -0.0382424816, -0.0219614189,
          -0.0327008963, 0.00362921576, -0.0142355775, 0.00228091772,
          -0.0227709673, 0.00471280282, -0.0377370082, -0.0368104465,
          -0.0326305069, -0.0342571326, 0.00451950869, -0.0111988951,
          0.00389529811, -0.0112010734, 0.0230300296, -0.0368380025,
          -0.0337807275, -0.0241494682, -0.0249414109, 0.000716673734,
          -0.0219356436, -0.00173369504, -0.0171824526, -0.0027328243,
          -0.0281134192, -0.032640174, -0.00889080483, -0.00580005581,
          9.39514066e-05, -0.05367947, -0.00271727331, -0.0197439548,
          -0.0176506415, -0.0311454274, -0.0194506627, -0.0202892106,
          -0.037423294, 0.00213870546, -0.0719305947, -0.00332612847,
          4.23452093e-06, 0.0238513518, -0.0172098372, 0.0206144731,
          0.0189557802, 0.0101312436, 0.0238951705, -0.0655267984,
          0.00378779625, 0.00172468857, 0.0194875393, 0.0286951493,
          -0.0293037128, 0.000138619842, 0.00758101791, -0.000905243447,
          -0.0360818319, -0.000314550241, -0.0304585099, -0.0336710028,
          -0.0296683405, -0.01414828, 3.59130427e-05, 0.00696313335,
          0.00156815723, -0.00407950254, 0.00154585904, -0.012763083,
          -0.0239995532, -0.0169115029, 0.0266086236, 0.00985770673,
          0.00584302144, 0.0126278047, -0.0379484855, 0.0223345105,
          0.023831645, 0.0333774462, 0.0323730446, 0.0139194801,
          -0.00523136836, -0.00344637758, 0.00482557807, -0.0131234815,
          0.0207061823, 0.0181210991, 0.0147471037, 0.0196060278,
          -0.0136435451, 0.00349878496, 0.0104500754, 0.00084097893,
          -0.0384327359, -0.00261938572, -0.0031154016, -0.01661928,
          -0.0213274285, 0.00494413963, 0.00829525664, 0.014736617,
          -0.00225986959, 0.0200073849, -0.0154683525, 0.00438019773,
          0.0043980279, -0.000986741856, 0.00896342192, 0.00388777209,
          0.0197037347, -0.0015699272, 0.00032454668, 6.86811763e-05,
          -0.0106368912, -0.00252440991, 0.00861006696, 0.0347129628,
          0.0128360223, 0.00710849138, -0.0158665068, 0.0122305043,
          -0.0196157191, 0.00703545148, 0.0093204258, 0.0351295285,
          0.0101845888, 0.00693628145, 0.00041556987, -0.00677637244,
          0.00243651541, -0.0125367967, -0.0101188393, 0.0107341381,
          0.0119010378, 0.0164489727, 0.00958840083, 0.016555734,
          6.0616705e-05, -0.00180634484, -0.00899328012, 0.00564731797,
          0.00443353783, 0.0127638048, 0.0270154607, 0.027090298,
          0.0104890019, 0.00310881133, 0.0174823999, 0.00134621991,
          -0.00423118845, 0.0146568781, 0.0271623898, 0.0204272177,
          -0.00100293057, 0.00305652665, 0.0110991094, 0.00297491392,
          -0.00151548837, 0.000517919136, -0.000248202909, 0.0182086937,
          0.00252263155, 0.00833529327, 0.00937135145, 0.00293280534,
          -0.00621470064, 0.000968950393, -0.00239757821, -0.0160964187,
          -0.00419943966, 0.00138567749, 0.00722760567, -0.0107867941,
          0.00255653495, -0.0200398397, -0.00108266692, -0.0187792927,
          -0.00923096016, -0.0106124692, 0.013894842, -0.00109798217,
          -0.00308947847, 0.0135026379, 0.00766816176, -0.00269142445,
          -0.0263512805, -0.0165774785, 0.0134784244, -0.00603980431,
          0.0141350795, 0.0140347406, 0.015895633, -0.00276358728,
          0.00798873138, -0.0347044095, -0.0382188335, -0.00841856655,
          0.00446192548, 0.00960330013, -0.00978780258, -0.000846492243,
          -0.025401203, -0.00602687523, -0.00787956361, -0.00102818175,
          -0.00534587819, -0.0170835331, -0.00690391939, -0.0379907377,
          -0.00475994358, -0.0438278988, -0.00777145196, -0.0264568347,
          -0.0114025557, -0.0206821188, 0.00906224176, 0.0112277335,
          -0.0104269208, 0.00697613414, -0.00230107899, 0.00945010222,
          -0.0199095625, -0.0130928364, 0.00180365914, -0.000748338934,
          -0.00769605162, -0.0512728207, 0.00080925232, -0.0193810444,
          0.0116033945, -0.0395089164, -0.0215879921, -0.0011497942,
          -0.0247556362, -0.00330798212, -0.0225584861, 1.8424169e-05,
          -0.0203607567, 0.000688976783, -0.0154519323, 0.00139784138,
          -0.0305455551, -0.00821614638, -0.0093884524, -0.0216739774,
          0.000280148408, -0.01922643, 0.000103949227, -0.0177717414,
          0.009573346, -0.0171719212, 0.00546477037, -0.00490623526,
          -0.0307089202, 0.00156428432, -0.00222747773, 0.00321647059,
          -0.0298995823, -0.013399303, -0.0028953983, 0.0124236215,
          -0.0120815458, -0.0280024018, 0.000460173847, -0.00466719782,
          0.00133500283, -0.0368813127, -0.0257807355, 0.0067084753,
          -0.00460497942, -0.00823738519, -0.0217171405, -0.00397470221,
          -0.0629239678, -0.00692461245, -0.0215134211, -0.00532292668,
          -0.00432780012, -0.000927948218, -0.00177375448, -0.0170259774,
          0.00379918911, -0.0587966591, -0.00407630811, 0.00107684091,
          0.0125607112, 0.0099352533, 0.0194489099, -0.0236129612,
